{"learner":{"attributes":{"scikit_learn":"{\"_estimator_type\": \"classifier\"}"},"feature_names":[],"feature_types":[],"gradient_booster":{"model":{"cats":{"enc":[],"feature_segments":[],"sorted_idx":[]},"gbtree_model_param":{"num_parallel_tree":"1","num_trees":"480"},"iteration_indptr":[0,4,8,12,16,20,24,28,32,36,40,44,48,52,56,60,64,68,72,76,80,84,88,92,96,100,104,108,112,116,120,124,128,132,136,140,144,148,152,156,160,164,168,172,176,180,184,188,192,196,200,204,208,212,216,220,224,228,232,236,240,244,248,252,256,260,264,268,272,276,280,284,288,292,296,300,304,308,312,316,320,324,328,332,336,340,344,348,352,356,360,364,368,372,376,380,384,388,392,396,400,404,408,412,416,420,424,428,432,436,440,444,448,452,456,460,464,468,472,476,480],"tree_info":[0,1,2,3,0,1,2,3,0,1,2,3,0,1,2,3,0,1,2,3,0,1,2,3,0,1,2,3,0,1,2,3,0,1,2,3,0,1,2,3,0,1,2,3,0,1,2,3,0,1,2,3,0,1,2,3,0,1,2,3,0,1,2,3,0,1,2,3,0,1,2,3,0,1,2,3,0,1,2,3,0,1,2,3,0,1,2,3,0,1,2,3,0,1,2,3,0,1,2,3,0,1,2,3,0,1,2,3,0,1,2,3,0,1,2,3,0,1,2,3,0,1,2,3,0,1,2,3,0,1,2,3,0,1,2,3,0,1,2,3,0,1,2,3,0,1,2,3,0,1,2,3,0,1,2,3,0,1,2,3,0,1,2,3,0,1,2,3,0,1,2,3,0,1,2,3,0,1,2,3,0,1,2,3,0,1,2,3,0,1,2,3,0,1,2,3,0,1,2,3,0,1,2,3,0,1,2,3,0,1,2,3,0,1,2,3,0,1,2,3,0,1,2,3,0,1,2,3,0,1,2,3,0,1,2,3,0,1,2,3,0,1,2,3,0,1,2,3,0,1,2,3,0,1,2,3,0,1,2,3,0,1,2,3,0,1,2,3,0,1,2,3,0,1,2,3,0,1,2,3,0,1,2,3,0,1,2,3,0,1,2,3,0,1,2,3,0,1,2,3,0,1,2,3,0,1,2,3,0,1,2,3,0,1,2,3,0,1,2,3,0,1,2,3,0,1,2,3,0,1,2,3,0,1,2,3,0,1,2,3,0,1,2,3,0,1,2,3,0,1,2,3,0,1,2,3,0,1,2,3,0,1,2,3,0,1,2,3,0,1,2,3,0,1,2,3,0,1,2,3,0,1,2,3,0,1,2,3,0,1,2,3,0,1,2,3,0,1,2,3,0,1,2,3,0,1,2,3,0,1,2,3,0,1,2,3,0,1,2,3,0,1,2,3,0,1,2,3,0,1,2,3,0,1,2,3,0,1,2,3,0,1,2,3,0,1,2,3,0,1,2,3,0,1,2,3,0,1,2,3,0,1,2,3,0,1,2,3,0,1,2,3,0,1,2,3,0,1,2,3],"trees":[{"base_weights":[5.1350435E-7,1.1744494E0,-1.3292426E-1,1.5683522E0,-6.827597E-2,-2.560744E-1,4.792765E-1,1.5772699E0,-5.4871596E-2,-5.656345E-1,1.4023368E0,-1.2681381E-1,-6.9176257E-1,-3.4514928E-1,9.468501E-1,1.0470722E0,1.5836582E-1,-6.313896E-1,9.159956E-1,-5.9293784E-2,1.5587822E-1,7.080958E-1,-2.732444E-1,-2.3223266E-1,-7.29805E-2,-6.028013E-1,1.0833297E0,3.403892E-1,1.2661297E0,-4.6248455E-2,1.3394451E-1,-6.996016E-2,-2.0305326E-2,-4.6248455E-2,1.3459404E-1,-1.4806938E-2,1.3078289E-1,-8.407448E-3,-6.649683E-2,-7.1930155E-2,2.4592726E-2,1.3459404E-1,-6.293335E-2,1.5045233E-1,-6.872439E-2,6.0665067E-2,-6.0023792E-2,1.2963508E-1,-6.607073E-2],"categories":[],"categories_nodes":[],"categories_segments":[],"categories_sizes":[],"default_left":[0,0,0,0,0,0,0,0,0,0,0,0,0,0,0,0,0,0,0,0,0,0,0,0,0,0,0,0,0,0,0,0,0,0,0,0,0,0,0,0,0,0,0,0,0,0,0,0,0],"id":0,"left_children":[1,3,5,7,9,11,13,15,-1,17,19,21,23,25,27,29,-1,31,33,-1,-1,35,37,39,-1,41,43,45,47,-1,-1,-1,-1,-1,-1,-1,-1,-1,-1,-1,-1,-1,-1,-1,-1,-1,-1,-1,-1],"loss_changes":[1.5814086E3,5.042743E2,6.861908E2,1.5630981E1,1.8280223E2,4.2660663E2,5.8792365E2,9.803467E-1,0E0,1.8764252E1,2.064492E1,7.1469653E2,3.0131592E1,2.0395877E2,1.8796014E2,6.015603E0,0E0,5.097435E0,5.5655203E0,0E0,0E0,4.4811227E2,3.6845276E2,3.1382458E1,0E0,2.507669E1,6.424834E1,8.4748245E1,3.7950317E1,0E0,0E0,0E0,0E0,0E0,0E0,0E0,0E0,0E0,0E0,0E0,0E0,0E0,0E0,0E0,0E0,0E0,0E0,0E0,0E0],"parents":[2147483647,0,0,1,1,2,2,3,3,4,4,5,5,6,6,7,7,9,9,10,10,11,11,12,12,13,13,14,14,15,15,17,17,18,18,21,21,22,22,23,23,25,25,26,26,27,27,28,28],"right_children":[2,4,6,8,10,12,14,16,-1,18,20,22,24,26,28,30,-1,32,34,-1,-1,36,38,40,-1,42,44,46,48,-1,-1,-1,-1,-1,-1,-1,-1,-1,-1,-1,-1,-1,-1,-1,-1,-1,-1,-1,-1],"split_conditions":[-7.9E0,1E0,3.7E0,1E0,3.6E0,1E0,1E0,-5.711E2,-5.4871596E-2,1.1736E1,1E0,1E0,7.262E0,1.0369E1,9.865E0,-3E0,1.5836582E-1,2.2E0,-5.58E1,-5.9293784E-2,1.5587822E-1,-3E-1,1.594E2,1E0,-7.29805E-2,-7.6E0,1E0,1.591E2,1E0,-4.6248455E-2,1.3394451E-1,-6.996016E-2,-2.0305326E-2,-4.6248455E-2,1.3459404E-1,-1.4806938E-2,1.3078289E-1,-8.407448E-3,-6.649683E-2,-7.1930155E-2,2.4592726E-2,1.3459404E-1,-6.293335E-2,1.5045233E-1,-6.872439E-2,6.0665067E-2,-6.0023792E-2,1.2963508E-1,-6.607073E-2],"split_indices":[1,5,0,3,0,3,4,1,0,7,4,5,7,7,7,0,0,0,1,0,0,0,1,4,0,1,5,1,3,0,0,0,0,0,0,0,0,0,0,0,0,0,0,0,0,0,0,0,0],"split_type":[0,0,0,0,0,0,0,0,0,0,0,0,0,0,0,0,0,0,0,0,0,0,0,0,0,0,0,0,0,0,0,0,0,0,0,0,0,0,0,0,0,0,0,0,0,0,0,0,0],"sum_hessian":[1.0127874E4,1.028936E3,9.0989375E3,7.8109326E2,2.4784276E2,7.575612E3,1.5233262E3,7.780708E2,3.0224726E0,1.8566617E2,6.217658E1,5.843303E3,1.7323086E3,5.513854E2,9.7194086E2,1.1226327E1,7.668445E2,1.7832588E2,7.3402905E0,4.317818E0,5.785876E1,8.713357E2,4.9719673E3,1.329888E2,1.5993198E3,4.676197E2,8.376567E1,3.3592624E2,6.360146E2,1.7271272E0,9.4992E0,1.5328253E2,2.5043344E1,1.7271272E0,5.6131635E0,3.5924246E2,5.120932E2,3.3536492E3,1.6183182E3,6.563084E1,6.735796E1,5.6131635E0,4.6200653E2,6.778974E1,1.5975926E1,2.6209155E2,7.383469E1,6.265154E2,9.4992E0],"tree_param":{"num_deleted":"0","num_feature":"8","num_nodes":"49","size_leaf_vector":"1"}},{"base_weights":[-1.6885352E-7,-5.9783155E-1,1.9916043E-1,-2.2000803E-2,-6.26592E-1,1.3958812E0,-2.052994E-1,8.028187E-1,-4.2728472E-1,6.352222E-2,-6.3260853E-1,1.5284473E0,-6.396115E-2,4.0454113E-1,-5.152505E-1,2.925305E-1,1.9819407E-1,8.042335E-1,-6.1818266E-1,-5.918492E-2,1.1718805E0,-4.05864E-1,-6.396198E-1,1.9244976E-1,1.7960378E0,-2.9328254E-1,1.0080092E0,-5.823697E-1,5.1962066E-1,1.810655E-1,-1.5334697E-2,-5.1317543E-2,1.810655E-1,-6.345105E-2,-3.0713582E-2,-4.1144636E-2,1.7838894E-1,1.7178653E-1,-5.6540247E-2,-6.4599335E-2,-4.433729E-2,2.1565154E-1,-2.2052757E-2,2.1587168E-1,1.5336685E-1,1.3111201E-1,-5.489726E-2,1.8037379E-1,7.704107E-2,-6.0145356E-2,-1.2934603E-2,-6.395619E-2,1.7083277E-1],"categories":[],"categories_nodes":[],"categories_segments":[],"categories_sizes":[],"default_left":[0,0,0,0,0,0,0,0,0,0,0,0,0,0,0,0,0,0,0,0,0,0,0,0,0,0,0,0,0,0,0,0,0,0,0,0,0,0,0,0,0,0,0,0,0,0,0,0,0,0,0,0,0],"id":1,"left_children":[1,3,5,7,9,11,13,15,17,19,21,23,-1,25,27,29,-1,31,33,-1,35,37,39,41,43,45,47,49,51,-1,-1,-1,-1,-1,-1,-1,-1,-1,-1,-1,-1,-1,-1,-1,-1,-1,-1,-1,-1,-1,-1,-1,-1],"loss_changes":[9.785821E2,3.399994E1,2.9843506E3,3.334949E1,8.162109E0,4.2123218E2,8.713405E2,1.9202911E1,1.6215271E1,1.3634145E1,2.8234253E0,5.2249976E2,0E0,6.545323E2,2.1257666E2,1.6604845E1,0E0,1.3402291E1,1.0197449E-1,0E0,7.4737406E0,2.1606361E1,2.06427E0,1.993347E2,1.1262109E2,2.9659485E2,1.5616534E2,2.473816E1,2.5830435E2,0E0,0E0,0E0,0E0,0E0,0E0,0E0,0E0,0E0,0E0,0E0,0E0,0E0,0E0,0E0,0E0,0E0,0E0,0E0,0E0,0E0,0E0,0E0,0E0],"parents":[2147483647,0,0,1,1,2,2,3,3,4,4,5,5,6,6,7,7,8,8,9,9,10,10,11,11,13,13,14,14,15,15,17,17,18,18,20,20,21,21,22,22,23,23,24,24,25,25,26,26,27,27,28,28],"right_children":[2,4,6,8,10,12,14,16,18,20,22,24,-1,26,28,30,-1,32,34,-1,36,38,40,42,44,46,48,50,52,-1,-1,-1,-1,-1,-1,-1,-1,-1,-1,-1,-1,-1,-1,-1,-1,-1,-1,-1,-1,-1,-1,-1,-1],"split_conditions":[-2.7E0,-1.9E1,5.3E0,9.865E0,9.1E0,1E0,-8E-1,2.5E0,-1E0,8.7E0,-1.32E1,-1.1E0,-6.396115E-2,1.525E2,1.683E2,9.088E0,1.9819407E-1,1.95E1,4.9E0,-5.918492E-2,6E-1,5.02E1,-4.2E0,1E0,1E0,6.2E0,1E0,1.65E2,1E0,1.810655E-1,-1.5334697E-2,-5.1317543E-2,1.810655E-1,-6.345105E-2,-3.0713582E-2,-4.1144636E-2,1.7838894E-1,1.7178653E-1,-5.6540247E-2,-6.4599335E-2,-4.433729E-2,2.1565154E-1,-2.2052757E-2,2.1587168E-1,1.5336685E-1,1.3111201E-1,-5.489726E-2,1.8037379E-1,7.704107E-2,-6.0145356E-2,-1.2934603E-2,-6.395619E-2,1.7083277E-1],"split_indices":[1,1,1,7,2,3,0,0,0,2,1,1,0,1,1,7,0,2,0,0,0,2,1,4,4,1,5,1,4,0,0,0,0,0,0,0,0,0,0,0,0,0,0,0,0,0,0,0,0,0,0,0,0],"split_type":[0,0,0,0,0,0,0,0,0,0,0,0,0,0,0,0,0,0,0,0,0,0,0,0,0,0,0,0,0,0,0,0,0,0,0,0,0,0,0,0,0,0,0,0,0,0,0,0,0,0,0,0,0],"sum_hessian":[8.216927E3,2.0528306E3,6.1640967E3,9.773715E1,1.9550934E3,1.5564379E3,4.6076587E3,3.1878428E1,6.585873E1,1.6814995E1,1.9382784E3,1.4615033E3,9.4934654E1,1.5525845E3,3.0550742E3,2.3120617E1,8.75781E0,8.407497E0,5.745123E1,1.0859684E1,5.9553103E0,5.9903416E1,1.878375E3,2.4416772E2,1.2173356E3,7.2024225E2,8.323422E2,2.8694087E3,1.8566556E2,4.554061E0,1.8566557E1,3.8534362E0,4.554061E0,5.3597794E1,3.8534362E0,1.7515619E0,4.2037487E0,3.5031238E0,5.6400295E1,1.8170703E3,6.130467E1,4.1687172E1,2.0248056E2,5.0795294E2,7.0938257E2,9.843778E1,6.218045E2,1.8986931E2,6.424729E2,2.753105E3,1.1630371E2,9.423403E1,9.143153E1],"tree_param":{"num_deleted":"0","num_feature":"8","num_nodes":"53","size_leaf_vector":"1"}},{"base_weights":[1.6762635E-6,-2.1801002E-1,9.95117E-1,-8.2277197E-1,-1.44038135E-2,1.4713246E-1,1.0906017E-1,1.626187E-1,-9.224596E-2,7.675221E-1,-2.875227E-1,9.6277124E-1,-7.126384E-1,1.0821009E-1,-9.1390304E-2,9.970745E-1,-4.767433E-1,-8.026168E-1,4.825444E-1,2.80635E-1,1.0794927E-1,5.4216754E-1,-8.804069E-1,8.268908E-3,1.0313767E-1,-8.470695E-2,5.0213613E-2,3.6976405E-3,-8.963067E-2,-1.3358961E-2,6.8146564E-2,-4.8428375E-2,9.755984E-2,-6.578796E-2,8.9075536E-2,-6.0702216E-2,-9.114795E-2],"categories":[],"categories_nodes":[],"categories_segments":[],"categories_sizes":[],"default_left":[0,0,0,0,0,0,0,0,0,0,0,0,0,0,0,0,0,0,0,0,0,0,0,0,0,0,0,0,0,0,0,0,0,0,0,0,0],"id":2,"left_children":[1,3,5,7,9,11,-1,13,-1,15,17,19,21,-1,-1,23,25,27,29,31,-1,33,35,-1,-1,-1,-1,-1,-1,-1,-1,-1,-1,-1,-1,-1,-1],"loss_changes":[2.527019E3,1.1765044E3,1.6933252E2,2.3655176E2,1.5270023E3,1.5006145E2,0E0,2.2068086E2,0E0,5.291631E2,2.1023696E3,8.434189E0,2.2428734E1,0E0,0E0,4.893921E1,1.0518012E2,2.4983643E2,2.6048254E2,9.714054E0,0E0,5.989142E0,2.312622E-1,0E0,0E0,0E0,0E0,0E0,0E0,0E0,0E0,0E0,0E0,0E0,0E0,0E0,0E0],"parents":[2147483647,0,0,1,1,2,2,3,3,4,4,5,5,7,7,9,9,10,10,11,11,12,12,15,15,16,16,17,17,18,18,19,19,21,21,22,22],"right_children":[2,4,6,8,10,12,-1,14,-1,16,18,20,22,-1,-1,24,26,28,30,32,-1,34,36,-1,-1,-1,-1,-1,-1,-1,-1,-1,-1,-1,-1,-1,-1],"split_conditions":[1E0,1E0,7.262E0,7.262E0,-4.2E0,1E0,1.0906017E-1,1E0,-9.224596E-2,3.1E0,1.588E2,5.02E1,1.19E1,1.0821009E-1,-9.1390304E-2,-1.32E1,-6.3E0,5.8942003E0,-2E0,1E0,1.0794927E-1,7.7072495E-1,4.47E1,8.268908E-3,1.0313767E-1,-8.470695E-2,5.0213613E-2,3.6976405E-3,-8.963067E-2,-1.3358961E-2,6.8146564E-2,-4.8428375E-2,9.755984E-2,-6.578796E-2,8.9075536E-2,-6.0702216E-2,-9.114795E-2],"split_indices":[3,5,7,7,1,4,0,4,0,0,1,2,1,0,0,1,1,7,0,5,0,6,2,0,0,0,0,0,0,0,0,0,0,0,0,0,0],"split_type":[0,0,0,0,0,0,0,0,0,0,0,0,0,0,0,0,0,0,0,0,0,0,0,0,0,0,0,0,0,0,0,0,0,0,0,0,0],"sum_hessian":[1.1646107E4,9.553819E3,2.0922876E3,2.4055845E3,7.1482354E3,2.120092E2,1.8802783E3,2.2094635E2,2.1846382E3,1.8499912E3,5.2982437E3,1.087354E2,1.032738E2,1.1916208E2,1.0178427E2,1.5620162E3,2.8797504E2,3.1746763E3,2.1235676E3,1.6384787E1,9.235061E1,1.1916208E1,9.135759E1,5.6601986E1,1.5054143E3,2.0903015E2,7.894488E1,3.1875854E2,2.8559177E3,5.1835504E2,1.6052125E3,7.9441385E0,8.440647E0,2.4825432E0,9.433664E0,1.1419699E1,7.99379E1],"tree_param":{"num_deleted":"0","num_feature":"8","num_nodes":"37","size_leaf_vector":"1"}},{"base_weights":[-7.696999E-3,2.4991596E-2,-2.5570571E-2],"categories":[],"categories_nodes":[],"categories_segments":[],"categories_sizes":[],"default_left":[0,0,0],"id":3,"left_children":[1,-1,-1],"loss_changes":[2.5856665E-1,0E0,0E0],"parents":[2147483647,0,0],"right_children":[2,-1,-1],"split_conditions":[9.852E0,2.4991596E-2,-2.5570571E-2],"split_indices":[7,0,0],"split_type":[0,0,0],"sum_hessian":[2.0468135E0,1.000195E0,1.0466183E0],"tree_param":{"num_deleted":"0","num_feature":"8","num_nodes":"3","size_leaf_vector":"1"}},{"base_weights":[-2.7407483E-5,-1.5297876E-1,8.399886E-1,-2.6736079E-2,-6.6310865E-1,-8.634855E-3,1.0599805E0,8.364116E-1,-2.3471175E-1,-2.2654447E-1,-7.020747E-2,1.3180456E-1,-1.8500724E-1,6.8676615E-1,1.2827352E0,-5.733617E-2,1.1971135E0,-7.5259484E-2,-6.1860216E-1,-6.912545E-2,2.2401594E-1,-7.064113E-2,2.610855E-1,4.333876E-2,1.2212986E0,-5.4764755E-2,1.2914053E0,9.706164E-2,-6.84043E-2,-2.3407415E-2,1.2558864E-1,-4.0520698E-2,1.017396E-1,-6.821132E-2,-2.7017707E-2,9.691238E-2,-7.147564E-2,7.714736E-2,-5.684779E-2,1.23524204E-1,-3.9062787E-2,9.043866E-2,1.3542587E-1,1.354432E-1,1.1806957E-1],"categories":[],"categories_nodes":[],"categories_segments":[],"categories_sizes":[],"default_left":[0,0,0,0,0,0,0,0,0,0,0,0,0,0,0,0,0,0,0,0,0,0,0,0,0,0,0,0,0,0,0,0,0,0,0,0,0,0,0,0,0,0,0,0,0],"id":4,"left_children":[1,3,5,7,9,11,13,15,17,19,-1,-1,21,23,25,27,29,31,33,-1,35,-1,37,39,41,-1,43,-1,-1,-1,-1,-1,-1,-1,-1,-1,-1,-1,-1,-1,-1,-1,-1,-1,-1],"loss_changes":[1.2969701E3,5.499392E2,2.9029712E2,1.229261E3,2.865857E1,7.53773E1,1.01776245E2,4.287013E2,3.377243E2,2.9528856E1,0E0,0E0,6.6310036E1,1.5942525E2,1.2960449E1,2.4757307E2,7.997925E1,1.4063707E3,3.5646973E1,0E0,5.1045143E1,0E0,6.561789E1,1.09853806E2,9.445953E0,0E0,3.7651367E0,0E0,0E0,0E0,0E0,0E0,0E0,0E0,0E0,0E0,0E0,0E0,0E0,0E0,0E0,0E0,0E0,0E0,0E0],"parents":[2147483647,0,0,1,1,2,2,3,3,4,4,5,5,6,6,7,7,8,8,9,9,12,12,13,13,14,14,15,15,16,16,17,17,18,18,20,20,22,22,23,23,24,24,26,26],"right_children":[2,4,6,8,10,12,14,16,18,20,-1,-1,22,24,26,28,30,32,34,-1,36,-1,38,40,42,-1,44,-1,-1,-1,-1,-1,-1,-1,-1,-1,-1,-1,-1,-1,-1,-1,-1,-1,-1],"split_conditions":[5.2E0,1E0,9.77E0,1E0,7.262E0,-8.3E0,7.6E0,-3E-1,1.594E2,1E0,-7.020747E-2,1.3180456E-1,1E0,1E0,9.1E0,1.525E2,5.308875E0,6.3E0,1.7E0,-6.912545E-2,1.506E2,-7.064113E-2,1.496E2,-7.9E0,5.8E0,-5.4764755E-2,-7.1E0,9.706164E-2,-6.84043E-2,-2.3407415E-2,1.2558864E-1,-4.0520698E-2,1.017396E-1,-6.821132E-2,-2.7017707E-2,9.691238E-2,-7.147564E-2,7.714736E-2,-5.684779E-2,1.23524204E-1,-3.9062787E-2,9.043866E-2,1.3542587E-1,1.354432E-1,1.1806957E-1],"split_indices":[0,3,7,5,7,1,0,0,1,4,0,0,4,4,2,1,7,1,0,0,1,0,1,1,0,0,1,0,0,0,0,0,0,0,0,0,0,0,0,0,0,0,0,0,0],"split_type":[0,0,0,0,0,0,0,0,0,0,0,0,0,0,0,0,0,0,0,0,0,0,0,0,0,0,0,0,0,0,0,0,0,0,0,0,0,0,0,0,0,0,0,0,0],"sum_hessian":[1.0092599E4,8.538682E3,1.5539177E3,6.8456333E3,1.6930477E3,3.200971E2,1.2338207E3,1.3286022E3,5.5170312E3,1.3929045E2,1.5537573E3,3.6801514E1,2.832956E2,4.6269E2,7.711306E2,3.822654E2,9.4633673E2,3.8988186E3,1.6182128E3,6.8305565E1,7.098488E1,1.3035266E2,1.5294292E2,2.1044917E2,2.5224084E2,3.3423347E0,7.677883E2,1.4457625E2,2.3768918E2,3.7211468E1,9.0912524E2,2.99504E3,9.037785E2,1.3679117E3,2.5030103E2,3.955643E1,3.142845E1,9.473025E1,5.8212673E1,5.5678898E1,1.5477028E2,7.685585E1,1.75385E2,4.820974E2,2.856909E2],"tree_param":{"num_deleted":"0","num_feature":"8","num_nodes":"45","size_leaf_vector":"1"}},{"base_weights":[-9.0145436E-4,-5.8210886E-1,1.7991543E-1,-2.3089755E-2,-6.116175E-1,1.1805922E0,-1.96906E-1,7.218668E-1,-4.1608554E-1,7.4928015E-2,-6.1787087E-1,1.2806898E0,-6.250136E-2,3.5867733E-1,-5.005992E-1,2.7356812E-1,1.6584389E-1,7.1864444E-1,-6.077245E-1,-5.7931762E-2,1.0972486E0,-3.9051518E-1,-6.250827E-1,1.602508E-1,1.4857142E0,-2.9217467E-1,8.844809E-1,-5.6887275E-1,4.871803E-1,1.580352E-1,-1.4781721E-2,-5.0826132E-2,1.5672898E-1,-6.2444776E-2,-2.9536406E-2,-3.9421134E-2,1.6132025E-1,1.5146908E-1,-5.5179235E-2,-6.293421E-2,-3.524581E-2,1.7657487E-1,-2.2329409E-2,6.409928E-2,1.560387E-1,1.1315556E-1,-5.4286595E-2,1.5045254E-1,6.871996E-2,-5.8838673E-2,-1.2091789E-2,-6.267794E-2,1.481517E-1],"categories":[],"categories_nodes":[],"categories_segments":[],"categories_sizes":[],"default_left":[0,0,0,0,0,0,0,0,0,0,0,0,0,0,0,0,0,0,0,0,0,0,0,0,0,0,0,0,0,0,0,0,0,0,0,0,0,0,0,0,0,0,0,0,0,0,0,0,0,0,0,0,0],"id":5,"left_children":[1,3,5,7,9,11,13,15,17,19,21,23,-1,25,27,29,-1,31,33,-1,35,37,39,41,43,45,47,49,51,-1,-1,-1,-1,-1,-1,-1,-1,-1,-1,-1,-1,-1,-1,-1,-1,-1,-1,-1,-1,-1,-1,-1,-1],"loss_changes":[8.618243E2,3.2085083E1,2.358758E3,2.9168655E1,7.9813232E0,3.1007104E2,7.669761E2,1.3997808E1,1.4612047E1,1.2390558E1,2.7593384E0,3.722749E2,0E0,5.5013007E2,1.9846924E2,1.37110195E1,0E0,1.1080138E1,1.09703064E-1,0E0,6.17941E0,1.8958736E1,1.8378296E0,1.5554282E2,8.545752E1,2.5715192E2,1.0771332E2,2.3961487E1,2.1197258E2,0E0,0E0,0E0,0E0,0E0,0E0,0E0,0E0,0E0,0E0,0E0,0E0,0E0,0E0,0E0,0E0,0E0,0E0,0E0,0E0,0E0,0E0,0E0,0E0],"parents":[2147483647,0,0,1,1,2,2,3,3,4,4,5,5,6,6,7,7,8,8,9,9,10,10,11,11,13,13,14,14,15,15,17,17,18,18,20,20,21,21,22,22,23,23,24,24,25,25,26,26,27,27,28,28],"right_children":[2,4,6,8,10,12,14,16,18,20,22,24,-1,26,28,30,-1,32,34,-1,36,38,40,42,44,46,48,50,52,-1,-1,-1,-1,-1,-1,-1,-1,-1,-1,-1,-1,-1,-1,-1,-1,-1,-1,-1,-1,-1,-1,-1,-1],"split_conditions":[-2.7E0,-1.9E1,5.3E0,9.865E0,9.1E0,1E0,-8E-1,2.5E0,-1E0,8.7E0,-1.32E1,-1.1E0,-6.250136E-2,1.525E2,1.683E2,9.088E0,1.6584389E-1,1.95E1,4.9E0,-5.7931762E-2,6E-1,5.02E1,-3.4E0,1E0,1E0,6.2E0,1E0,1.65E2,1E0,1.580352E-1,-1.4781721E-2,-5.0826132E-2,1.5672898E-1,-6.2444776E-2,-2.9536406E-2,-3.9421134E-2,1.6132025E-1,1.5146908E-1,-5.5179235E-2,-6.293421E-2,-3.524581E-2,1.7657487E-1,-2.2329409E-2,6.409928E-2,1.560387E-1,1.1315556E-1,-5.4286595E-2,1.5045254E-1,6.871996E-2,-5.8838673E-2,-1.2091789E-2,-6.267794E-2,1.481517E-1],"split_indices":[1,1,1,7,2,3,0,0,0,2,1,1,0,1,1,7,0,2,0,0,0,2,1,4,5,1,5,1,4,0,0,0,0,0,0,0,0,0,0,0,0,0,0,0,0,0,0,0,0,0,0,0,0],"split_type":[0,0,0,0,0,0,0,0,0,0,0,0,0,0,0,0,0,0,0,0,0,0,0,0,0,0,0,0,0,0,0,0,0,0,0,0,0,0,0,0,0,0,0,0,0,0,0,0,0,0,0,0,0],"sum_hessian":[8.19866E3,1.9448917E3,6.253768E3,9.760577E1,1.847286E3,1.7101656E3,4.5436025E3,3.3419487E1,6.418628E1,1.657483E1,1.8307112E3,1.6206141E3,8.955157E1,1.6057766E3,2.9378257E3,2.3475042E1,9.944446E0,8.876554E0,5.5309723E1,1.0371074E1,6.203756E0,5.7981228E1,1.7727299E3,2.5095424E2,1.3696598E3,7.177604E2,8.8801624E2,2.7482927E3,1.8953291E2,5.0533667E0,1.8421677E1,3.7934165E0,5.083137E0,5.1550655E1,3.7590663E0,1.6551616E0,4.548594E0,3.8701673E0,5.411106E1,1.7441711E3,2.8558794E1,4.7696312E1,2.0325793E2,1.12021576E2,1.2576383E3,1.0693568E2,6.1082465E2,2.1274478E2,6.752715E2,2.6332678E3,1.1502495E2,8.956382E1,9.996909E1],"tree_param":{"num_deleted":"0","num_feature":"8","num_nodes":"53","size_leaf_vector":"1"}},{"base_weights":[6.633479E-4,-2.0119667E-1,9.098322E-1,-7.66364E-1,-1.3555142E-2,1.3391528E-1,9.963904E-2,1.6251463E-1,-8.6176135E-2,7.151318E-1,-2.7075025E-1,8.8642806E-1,-6.732624E-1,1.0206479E-1,-8.634E-2,9.239711E-1,-4.3679154E-1,-7.56322E-1,4.4240183E-1,2.4443913E-1,9.961421E-2,5.146441E-1,-8.346552E-1,6.7369747E-3,9.559525E-2,-7.940442E-2,4.914989E-2,2.520428E-3,-8.450263E-2,-1.2883521E-2,6.2564716E-2,-4.8542153E-2,9.0607814E-2,-6.3667454E-2,8.460999E-2,-5.70666E-2,-8.648935E-2],"categories":[],"categories_nodes":[],"categories_segments":[],"categories_sizes":[],"default_left":[0,0,0,0,0,0,0,0,0,0,0,0,0,0,0,0,0,0,0,0,0,0,0,0,0,0,0,0,0,0,0,0,0,0,0,0,0],"id":6,"left_children":[1,3,5,7,9,11,-1,13,-1,15,17,19,21,-1,-1,23,25,27,29,31,-1,33,35,-1,-1,-1,-1,-1,-1,-1,-1,-1,-1,-1,-1,-1,-1],"loss_changes":[2.1271787E3,1.0058425E3,1.4130188E2,2.0963074E2,1.3349026E3,1.2967308E2,0E0,1.9546692E2,0E0,4.4741718E2,1.8233668E3,7.5330124E0,2.0194973E1,0E0,0E0,4.3036865E1,9.518994E1,2.1717188E2,2.2337128E2,8.861426E0,0E0,5.480584E0,2.3400497E-1,0E0,0E0,0E0,0E0,0E0,0E0,0E0,0E0,0E0,0E0,0E0,0E0,0E0,0E0],"parents":[2147483647,0,0,1,1,2,2,3,3,4,4,5,5,7,7,9,9,10,10,11,11,12,12,15,15,16,16,17,17,18,18,19,19,21,21,22,22],"right_children":[2,4,6,8,10,12,-1,14,-1,16,18,20,22,-1,-1,24,26,28,30,32,-1,34,36,-1,-1,-1,-1,-1,-1,-1,-1,-1,-1,-1,-1,-1,-1],"split_conditions":[1E0,1E0,7.262E0,7.262E0,-4.2E0,1E0,9.963904E-2,1E0,-8.6176135E-2,3.1E0,1.588E2,5.02E1,1.19E1,1.0206479E-1,-8.634E-2,-1.32E1,-6.3E0,5.8942003E0,-2E0,1E0,9.961421E-2,7.7072495E-1,4.47E1,6.7369747E-3,9.559525E-2,-7.940442E-2,4.914989E-2,2.520428E-3,-8.450263E-2,-1.2883521E-2,6.2564716E-2,-4.8542153E-2,9.0607814E-2,-6.3667454E-2,8.460999E-2,-5.70666E-2,-8.648935E-2],"split_indices":[3,5,7,7,1,4,0,4,0,0,1,2,1,0,0,1,1,7,0,5,0,6,2,0,0,0,0,0,0,0,0,0,0,0,0,0,0],"split_type":[0,0,0,0,0,0,0,0,0,0,0,0,0,0,0,0,0,0,0,0,0,0,0,0,0,0,0,0,0,0,0,0,0,0,0,0,0],"sum_hessian":[1.1588688E4,9.483807E3,2.1048823E3,2.3631194E3,7.120687E3,2.1150218E2,1.8933801E3,2.200268E2,2.1430925E3,1.8571674E3,5.2635195E3,1.094067E2,1.02095474E2,1.1981329E2,1.0021351E2,1.5723112E3,2.8485617E2,3.1313691E3,2.1321504E3,1.6439472E1,9.296723E1,1.1950073E1,9.01454E1,5.670146E1,1.5156097E3,2.0579901E2,7.905715E1,3.192593E2,2.8121096E3,5.1791925E2,1.6142312E3,7.9433827E0,8.49609E0,2.465448E0,9.484626E0,1.1306712E1,7.883869E1],"tree_param":{"num_deleted":"0","num_feature":"8","num_nodes":"37","size_leaf_vector":"1"}},{"base_weights":[-6.442143E-3,2.4997415E-2,-2.5479615E-2],"categories":[],"categories_nodes":[],"categories_segments":[],"categories_sizes":[],"default_left":[0,0,0],"id":7,"left_children":[1,-1,-1],"loss_changes":[2.5722638E-1,0E0,0E0],"parents":[2147483647,0,0],"right_children":[2,-1,-1],"split_conditions":[7.52E1,2.4997415E-2,-2.5479615E-2],"split_indices":[2,0,0],"split_type":[0,0,0],"sum_hessian":[2.0390675E0,1.0000398E0,1.0390276E0],"tree_param":{"num_deleted":"0","num_feature":"8","num_nodes":"3","size_leaf_vector":"1"}},{"base_weights":[-6.898571E-5,-1.4330798E-1,7.5219333E-1,-2.6119728E-2,-6.387768E-1,-1.0246655E-2,9.4118094E-1,7.456981E-1,-2.2101605E-1,-2.147383E-1,-6.779867E-2,1.1623982E-1,-1.7555884E-1,6.3722676E-1,1.1461077E0,-5.9227012E-2,1.0555185E0,-7.012628E-2,-5.962211E-1,-6.671388E-2,1.9356829E-1,-6.888595E-2,2.4574982E-1,4.1261688E-2,1.0876414E0,-5.321857E-2,1.1539593E0,8.6335294E-2,-6.654672E-2,-2.2123316E-2,1.1050127E-1,-3.8360603E-2,8.945883E-2,-6.611728E-2,-2.4652345E-2,8.555407E-2,-6.989727E-2,7.0011795E-2,-5.4640442E-2,1.0986759E-1,-3.928382E-2,8.039445E-2,1.188838E-1,1.18266664E-1,1.04864076E-1],"categories":[],"categories_nodes":[],"categories_segments":[],"categories_sizes":[],"default_left":[0,0,0,0,0,0,0,0,0,0,0,0,0,0,0,0,0,0,0,0,0,0,0,0,0,0,0,0,0,0,0,0,0,0,0,0,0,0,0,0,0,0,0,0,0],"id":8,"left_children":[1,3,5,7,9,11,13,15,17,19,-1,-1,21,23,25,27,29,31,33,-1,35,-1,37,39,41,-1,43,-1,-1,-1,-1,-1,-1,-1,-1,-1,-1,-1,-1,-1,-1,-1,-1,-1,-1],"loss_changes":[1.0764143E3,4.8723383E2,2.3025073E2,1.02118866E3,2.654187E1,6.192384E1,7.902954E1,3.4138196E2,3.0680704E2,2.5495121E1,0E0,0E0,6.0703316E1,1.3897786E2,1.0676086E1,2.1385855E2,6.2698364E1,1.1696711E3,3.5142212E1,0E0,4.3701935E1,0E0,5.5981148E1,1.03240524E2,7.511566E0,0E0,1.0587158E0,0E0,0E0,0E0,0E0,0E0,0E0,0E0,0E0,0E0,0E0,0E0,0E0,0E0,0E0,0E0,0E0,0E0,0E0],"parents":[2147483647,0,0,1,1,2,2,3,3,4,4,5,5,6,6,7,7,8,8,9,9,12,12,13,13,14,14,15,15,16,16,17,17,18,18,20,20,22,22,23,23,24,24,26,26],"right_children":[2,4,6,8,10,12,14,16,18,20,-1,-1,22,24,26,28,30,32,34,-1,36,-1,38,40,42,-1,44,-1,-1,-1,-1,-1,-1,-1,-1,-1,-1,-1,-1,-1,-1,-1,-1,-1,-1],"split_conditions":[5.2E0,1E0,9.77E0,1E0,7.262E0,-8.3E0,7.9E0,-3E-1,1.594E2,1E0,-6.779867E-2,1.1623982E-1,1E0,1E0,9.1E0,1.525E2,5.308875E0,6.3E0,1.7E0,-6.671388E-2,1.506E2,-6.888595E-2,1.496E2,-7.9E0,5.8E0,-5.321857E-2,1E0,8.6335294E-2,-6.654672E-2,-2.2123316E-2,1.1050127E-1,-3.8360603E-2,8.945883E-2,-6.611728E-2,-2.4652345E-2,8.555407E-2,-6.989727E-2,7.0011795E-2,-5.4640442E-2,1.0986759E-1,-3.928382E-2,8.039445E-2,1.188838E-1,1.18266664E-1,1.04864076E-1],"split_indices":[0,3,7,5,7,1,0,0,1,4,0,0,4,4,2,1,7,1,0,0,1,0,1,1,0,0,5,0,0,0,0,0,0,0,0,0,0,0,0,0,0,0,0,0,0],"split_type":[0,0,0,0,0,0,0,0,0,0,0,0,0,0,0,0,0,0,0,0,0,0,0,0,0,0,0,0,0,0,0,0,0,0,0,0,0,0,0,0,0,0,0,0,0],"sum_hessian":[9.987617E3,8.390738E3,1.596879E3,6.7866196E3,1.6041182E3,3.1738525E2,1.2794938E3,1.3676602E3,5.4189595E3,1.363227E2,1.4677955E3,3.8469517E1,2.7891574E2,5.1690796E2,7.6258575E2,3.8033755E2,9.873226E2,3.865589E3,1.5533705E3,6.436874E1,7.195396E1,1.2544499E2,1.5347075E2,2.2297318E2,2.939348E2,3.2400436E0,7.593457E2,1.5065134E2,2.2968622E2,3.6716434E1,9.5060614E2,2.9180002E3,9.4758887E2,1.3092955E3,2.4407494E2,4.133696E1,3.0617E1,9.760317E1,5.5867573E1,6.4449974E1,1.585232E2,7.9633316E1,2.143015E2,5.8866077E2,1.7068492E2],"tree_param":{"num_deleted":"0","num_feature":"8","num_nodes":"45","size_leaf_vector":"1"}},{"base_weights":[-1.2117148E-3,-5.68702E-1,1.6541398E-1,-2.10805E-2,-5.9898883E-1,1.0048012E0,-1.9187878E-1,6.6220444E-1,-4.0424567E-1,8.0078304E-2,-6.054618E-1,1.1017631E0,-6.149313E-2,3.1747335E-1,-4.871136E-1,2.603066E-1,1.4450769E-1,6.618525E-1,-5.974E-1,-5.69607E-2,1.0251044E0,-3.7570667E-1,-6.129147E-1,3.3171496E-1,1.3114835E0,-3.2272935E-1,7.83007E-1,-5.776161E-1,2.4898222E-1,8.3523296E-2,-5.8079105E-2,-5.015532E-2,1.4072773E-1,-6.146886E-2,-2.8117746E-2,-3.8000733E-2,1.466564E-1,1.366307E-1,-5.3872384E-2,-6.1525077E-2,-1.4291744E-2,1.5707527E-1,-1.3485185E-2,3.3144888E-2,1.3697241E-1,9.475248E-2,-5.2923597E-2,1.0031102E-1,3.6909528E-2,-4.1922584E-2,-5.912465E-2,-5.913038E-2,8.24218E-2],"categories":[],"categories_nodes":[],"categories_segments":[],"categories_sizes":[],"default_left":[0,0,0,0,0,0,0,0,0,0,0,0,0,0,0,0,0,0,0,0,0,0,0,0,0,0,0,0,0,0,0,0,0,0,0,0,0,0,0,0,0,0,0,0,0,0,0,0,0,0,0,0,0],"id":9,"left_children":[1,3,5,7,9,11,13,15,17,19,21,23,-1,25,27,29,-1,31,33,-1,35,37,39,41,43,45,47,49,51,-1,-1,-1,-1,-1,-1,-1,-1,-1,-1,-1,-1,-1,-1,-1,-1,-1,-1,-1,-1,-1,-1,-1,-1],"loss_changes":[7.6854596E2,3.0584473E1,1.884493E3,2.5851252E1,7.732361E0,2.953175E2,6.630062E2,1.0789616E1,1.3415723E1,1.1260045E1,2.7349243E0,2.8548438E2,0E0,4.824851E2,1.8606635E2,1.2414512E1,0E0,9.5282345E0,1.22694016E-1,0E0,5.1731687E0,1.6920555E1,1.7518921E0,2.2006456E2,7.894995E1,1.7938203E2,8.5003235E1,5.118408E0,1.4852371E2,0E0,0E0,0E0,0E0,0E0,0E0,0E0,0E0,0E0,0E0,0E0,0E0,0E0,0E0,0E0,0E0,0E0,0E0,0E0,0E0,0E0,0E0,0E0,0E0],"parents":[2147483647,0,0,1,1,2,2,3,3,4,4,5,5,6,6,7,7,8,8,9,9,10,10,11,11,13,13,14,14,15,15,17,17,18,18,20,20,21,21,22,22,23,23,24,24,25,25,26,26,27,27,28,28],"right_children":[2,4,6,8,10,12,14,16,18,20,22,24,-1,26,28,30,-1,32,34,-1,36,38,40,42,44,46,48,50,52,-1,-1,-1,-1,-1,-1,-1,-1,-1,-1,-1,-1,-1,-1,-1,-1,-1,-1,-1,-1,-1,-1,-1,-1],"split_conditions":[-2.7E0,-1.9E1,5.5E0,9.865E0,9.1E0,1E0,-8E-1,2.5E0,-1E0,8.7E0,-1.32E1,-7E-1,-6.149313E-2,1.525E2,1.65E2,1E-1,1.4450769E-1,1.95E1,4.9E0,-5.69607E-2,6E-1,5.02E1,1.2647E1,1E0,1E0,6.2E0,-2.1E0,7.262E0,1E0,8.3523296E-2,-5.8079105E-2,-5.015532E-2,1.4072773E-1,-6.146886E-2,-2.8117746E-2,-3.8000733E-2,1.466564E-1,1.366307E-1,-5.3872384E-2,-6.1525077E-2,-1.4291744E-2,1.5707527E-1,-1.3485185E-2,3.3144888E-2,1.3697241E-1,9.475248E-2,-5.2923597E-2,1.0031102E-1,3.6909528E-2,-4.1922584E-2,-5.912465E-2,-5.913038E-2,8.24218E-2],"split_indices":[1,1,1,7,2,3,0,0,0,2,1,1,0,1,1,0,0,2,0,0,0,2,7,4,5,1,0,7,4,0,0,0,0,0,0,0,0,0,0,0,0,0,0,0,0,0,0,0,0,0,0,0,0],"split_type":[0,0,0,0,0,0,0,0,0,0,0,0,0,0,0,0,0,0,0,0,0,0,0,0,0,0,0,0,0,0,0,0,0,0,0,0,0,0,0,0,0,0,0,0,0,0,0,0,0,0,0,0,0],"sum_hessian":[8.125739E3,1.843789E3,6.2819497E3,9.671766E1,1.7470713E3,1.8750609E3,4.4068887E3,3.4488064E1,6.2229595E1,1.638871E1,1.7306825E3,1.7694558E3,1.0560508E2,1.6170344E3,2.7898545E3,2.3669512E1,1.0818552E1,9.173077E0,5.305652E1,9.947367E0,6.4413433E0,5.5992043E1,1.6746904E3,3.793063E2,1.3901495E3,6.809279E2,9.3610645E2,2.484591E3,3.0526355E2,1.4063486E1,9.606025E0,3.709973E0,5.463104E0,4.941125E1,3.6452656E0,1.5732098E0,4.8681335E0,4.1597085E0,5.1832333E1,1.6661001E3,8.590339E0,1.03111565E2,2.7619473E2,7.835396E1,1.3117957E3,9.4717514E1,5.862104E2,6.1020056E2,3.2590585E2,1.9938759E2,2.2852034E3,1.24040794E2,1.8122276E2],"tree_param":{"num_deleted":"0","num_feature":"8","num_nodes":"53","size_leaf_vector":"1"}},{"base_weights":[9.224168E-4,-1.870857E-1,8.4175414E-1,-7.210344E-1,-1.2633712E-2,1.23076126E-1,9.216695E-2,1.6220914E-1,-8.1341445E-2,6.644396E-1,-2.5353876E-1,8.237906E-1,-6.3725793E-1,9.6947126E-2,-8.223302E-2,8.642801E-1,-3.6956805E-1,-7.1307296E-1,4.0752465E-1,2.1144821E-1,9.289711E-2,5.0737077E-1,-7.954893E-1,5.9624813E-3,8.947704E-2,-7.8491874E-2,4.1478615E-2,3.6971762E-3,-7.999999E-2,-1.0879941E-2,5.8289457E-2,-4.8679885E-2,8.485788E-2,-6.090479E-2,8.242171E-2,-5.3908873E-2,-8.251705E-2],"categories":[],"categories_nodes":[],"categories_segments":[],"categories_sizes":[],"default_left":[0,0,0,0,0,0,0,0,0,0,0,0,0,0,0,0,0,0,0,0,0,0,0,0,0,0,0,0,0,0,0,0,0,0,0,0,0],"id":10,"left_children":[1,3,5,7,9,11,-1,13,-1,15,17,19,21,-1,-1,23,25,27,29,31,-1,33,35,-1,-1,-1,-1,-1,-1,-1,-1,-1,-1,-1,-1,-1,-1],"loss_changes":[1.8079851E3,8.706459E2,1.19920166E2,1.8794397E2,1.1494742E3,1.1256631E2,0E0,1.7468384E2,0E0,3.8247443E2,1.5792781E3,6.8802414E0,1.8772694E1,0E0,0E0,3.7978516E1,9.8138336E1,1.9997156E2,1.9312375E2,8.154406E0,0E0,5.0751E0,2.3623276E-1,0E0,0E0,0E0,0E0,0E0,0E0,0E0,0E0,0E0,0E0,0E0,0E0,0E0,0E0],"parents":[2147483647,0,0,1,1,2,2,3,3,4,4,5,5,7,7,9,9,10,10,11,11,12,12,15,15,16,16,17,17,18,18,19,19,21,21,22,22],"right_children":[2,4,6,8,10,12,-1,14,-1,16,18,20,22,-1,-1,24,26,28,30,32,-1,34,36,-1,-1,-1,-1,-1,-1,-1,-1,-1,-1,-1,-1,-1,-1],"split_conditions":[1E0,1E0,7.262E0,7.262E0,-4.2E0,1E0,9.216695E-2,1E0,-8.1341445E-2,2.9E0,1.588E2,5.02E1,1.19E1,9.6947126E-2,-8.223302E-2,-1.32E1,-6.9E0,5.8942003E0,-1.9E0,1E0,9.289711E-2,7.7072495E-1,4.47E1,5.9624813E-3,8.947704E-2,-7.8491874E-2,4.1478615E-2,3.6971762E-3,-7.999999E-2,-1.0879941E-2,5.8289457E-2,-4.8679885E-2,8.485788E-2,-6.090479E-2,8.242171E-2,-5.3908873E-2,-8.251705E-2],"split_indices":[3,5,7,7,1,4,0,4,0,0,1,2,1,0,0,1,1,7,0,5,0,6,2,0,0,0,0,0,0,0,0,0,0,0,0,0,0],"split_type":[0,0,0,0,0,0,0,0,0,0,0,0,0,0,0,0,0,0,0,0,0,0,0,0,0,0,0,0,0,0,0,0,0,0,0,0,0],"sum_hessian":[1.1434927E4,9.345967E3,2.08896E3,2.3007825E3,7.045184E3,2.0929684E2,1.8796631E3,2.1778549E2,2.0829968E3,1.848406E3,5.196778E3,1.08875275E2,1.0042157E2,1.1967479E2,9.811071E1,1.5491661E3,2.9923987E2,3.065639E3,2.1311392E3,1.6401125E1,9.247415E1,1.19281435E1,8.849342E1,5.6666325E1,1.4924999E3,1.9563934E2,1.03600525E2,3.184534E2,2.7471855E3,5.404185E2,1.5907206E3,7.9378223E0,8.463303E0,2.433037E0,9.495107E0,1.1169388E1,7.7324036E1],"tree_param":{"num_deleted":"0","num_feature":"8","num_nodes":"37","size_leaf_vector":"1"}},{"base_weights":[-4.1117994E-3,-2.526972E-2,2.4884226E-2],"categories":[],"categories_nodes":[],"categories_segments":[],"categories_sizes":[],"default_left":[0,0,0],"id":11,"left_children":[1,-1,-1],"loss_changes":[2.5308242E-1,0E0,0E0],"parents":[2147483647,0,0],"right_children":[2,-1,-1],"split_conditions":[7.9E0,-2.526972E-2,2.4884226E-2],"split_indices":[1,0,0],"split_type":[0,0,0],"sum_hessian":[2.024787E0,1.021724E0,1.003063E0],"tree_param":{"num_deleted":"0","num_feature":"8","num_nodes":"3","size_leaf_vector":"1"}},{"base_weights":[-5.834483E-5,-1.3473558E-1,6.832813E-1,-2.5385335E-2,-6.178311E-1,-1.2163865E-2,8.503186E-1,6.717616E-1,-2.0793156E-1,-2.0546646E-1,-6.5732375E-2,2.8116414E-1,-5.9637946E-1,5.794804E-1,1.0307558E0,-7.767096E-2,9.427456E-1,-6.473065E-2,-5.752652E-1,-6.468553E-2,1.6671154E-1,-1.2151478E-1,6.674994E-1,-6.332901E-1,1.08035244E-1,3.0325063E-2,9.813165E-1,-5.1636506E-2,1.0376354E0,7.7286534E-2,-6.7215875E-2,-2.0133039E-2,9.865897E-2,-3.623557E-2,7.976271E-2,-6.420241E-2,-2.2372508E-2,7.6595336E-2,-6.852179E-2,1.03980266E-1,-6.7557745E-2,-4.1063424E-2,1.1798276E-1,-6.658402E-2,-1.8668994E-2,9.868293E-2,-3.7894577E-2,1.05588555E-1,6.355177E-2,1.00446165E-1,1.124447E-1],"categories":[],"categories_nodes":[],"categories_segments":[],"categories_sizes":[],"default_left":[0,0,0,0,0,0,0,0,0,0,0,0,0,0,0,0,0,0,0,0,0,0,0,0,0,0,0,0,0,0,0,0,0,0,0,0,0,0,0,0,0,0,0,0,0,0,0,0,0,0,0],"id":12,"left_children":[1,3,5,7,9,11,13,15,17,19,-1,21,23,25,27,29,31,33,35,-1,37,39,41,43,-1,45,47,-1,49,-1,-1,-1,-1,-1,-1,-1,-1,-1,-1,-1,-1,-1,-1,-1,-1,-1,-1,-1,-1,-1,-1],"loss_changes":[9.039328E2,4.334278E2,1.8786145E2,8.5172656E2,2.4527344E1,5.4006065E1,6.3124817E1,2.8212158E2,2.7895612E2,2.2090092E1,0E0,3.2725006E1,7.2032967E0,1.15523346E2,8.851501E0,1.8747398E2,5.1366943E1,9.800231E2,3.4766785E1,0E0,3.7993187E1,6.735695E1,5.9722107E1,1.3831215E0,0E0,8.739578E1,7.1253357E0,0E0,1.1115723E0,0E0,0E0,0E0,0E0,0E0,0E0,0E0,0E0,0E0,0E0,0E0,0E0,0E0,0E0,0E0,0E0,0E0,0E0,0E0,0E0,0E0,0E0],"parents":[2147483647,0,0,1,1,2,2,3,3,4,4,5,5,6,6,7,7,8,8,9,9,11,11,12,12,13,13,14,14,15,15,16,16,17,17,18,18,20,20,21,21,22,22,23,23,25,25,26,26,28,28],"right_children":[2,4,6,8,10,12,14,16,18,20,-1,22,24,26,28,30,32,34,36,-1,38,40,42,44,-1,46,48,-1,50,-1,-1,-1,-1,-1,-1,-1,-1,-1,-1,-1,-1,-1,-1,-1,-1,-1,-1,-1,-1,-1,-1],"split_conditions":[5.2E0,1E0,9.77E0,1E0,7.262E0,1.496E2,7.9E0,-4E-1,1.594E2,1E0,-6.5732375E-2,1E0,4E2,1E0,9.1E0,1.525E2,5.308875E0,6.3E0,1.7E0,-6.468553E-2,1.506E2,-8.3E0,-4.2E0,7.262E0,1.08035244E-1,-7.9E0,1.521E2,-5.1636506E-2,-7E-1,7.7286534E-2,-6.7215875E-2,-2.0133039E-2,9.865897E-2,-3.623557E-2,7.976271E-2,-6.420241E-2,-2.2372508E-2,7.6595336E-2,-6.852179E-2,1.03980266E-1,-6.7557745E-2,-4.1063424E-2,1.1798276E-1,-6.658402E-2,-1.8668994E-2,9.868293E-2,-3.7894577E-2,1.05588555E-1,6.355177E-2,1.00446165E-1,1.124447E-1],"split_indices":[0,3,7,5,7,1,0,0,1,4,0,4,2,4,2,1,7,1,0,0,1,1,1,7,0,1,2,0,1,0,0,0,0,0,0,0,0,0,0,0,0,0,0,0,0,0,0,0,0,0,0],"split_type":[0,0,0,0,0,0,0,0,0,0,0,0,0,0,0,0,0,0,0,0,0,0,0,0,0,0,0,0,0,0,0,0,0,0,0,0,0,0,0,0,0,0,0,0,0,0,0,0,0,0,0],"sum_hessian":[9.820122E3,8.2040205E3,1.6161014E3,6.690628E3,1.5133928E3,3.1317047E2,1.3029309E3,1.3878245E3,5.302803E3,1.3281357E2,1.3805792E3,2.0883536E2,1.0433513E2,5.226456E2,7.8028534E2,3.6874313E2,1.01908136E3,3.8162554E3,1.4865481E3,6.041988E1,7.239369E1,1.025904E2,1.0624495E2,1.02696724E2,1.6384045E0,2.2129541E2,3.0135025E2,3.1265087E0,7.771588E2,1.5157874E2,2.171644E2,3.748E1,9.816014E2,2.8375227E3,9.787327E2,1.2486066E3,2.3794147E2,4.2558926E1,2.9834763E1,3.285323E1,6.9737175E1,3.428814E1,7.195681E1,9.526267E1,7.434052E0,6.589094E1,1.5540448E2,2.4620454E2,5.5145702E1,5.713838E2,2.0577501E2],"tree_param":{"num_deleted":"0","num_feature":"8","num_nodes":"51","size_leaf_vector":"1"}},{"base_weights":[-1.1640682E-3,-5.56268E-1,1.5331219E-1,-1.8961556E-2,-5.8738613E-1,8.846838E-1,-1.8132445E-1,6.0955065E-1,-3.9259237E-1,8.500228E-2,-5.94093E-1,9.637593E-1,-6.0275037E-2,2.9208055E-1,-4.7249457E-1,2.4554946E-1,1.2871103E-1,6.1468357E-1,-5.8739156E-1,-5.606797E-2,9.6378314E-1,-3.609479E-1,-6.018267E-1,4.465874E-1,1.2038971E0,-3.1059223E-1,6.998435E-1,-5.4446256E-1,4.5598587E-1,7.6517515E-2,-5.7096697E-2,-4.949411E-2,1.2822346E-1,-6.053086E-2,-2.6751846E-2,-3.662829E-2,1.3466898E-1,1.2475896E-1,-5.2572828E-2,-6.0425438E-2,-1.3803934E-2,1.3835204E-1,1.3751551E-4,9.904168E-3,1.2590966E-1,8.4114216E-2,-5.1583078E-2,1.1422505E-1,5.5095542E-2,-5.651201E-2,-1.1716439E-2,-6.0457308E-2,1.2244268E-1],"categories":[],"categories_nodes":[],"categories_segments":[],"categories_sizes":[],"default_left":[0,0,0,0,0,0,0,0,0,0,0,0,0,0,0,0,0,0,0,0,0,0,0,0,0,0,0,0,0,0,0,0,0,0,0,0,0,0,0,0,0,0,0,0,0,0,0,0,0,0,0,0,0],"id":13,"left_children":[1,3,5,7,9,11,13,15,17,19,21,23,-1,25,27,29,-1,31,33,-1,35,37,39,41,43,45,47,49,51,-1,-1,-1,-1,-1,-1,-1,-1,-1,-1,-1,-1,-1,-1,-1,-1,-1,-1,-1,-1,-1,-1,-1,-1],"loss_changes":[6.868987E2,2.9146423E1,1.5338643E3,2.2900858E1,7.484192E0,2.3197913E2,5.9288715E2,8.654101E0,1.2355935E1,1.0274185E1,2.72583E0,2.315061E2,0E0,4.0281482E2,1.7819025E2,1.0999675E1,0E0,8.334562E0,1.3457489E-1,0E0,4.381006E0,1.5208228E1,1.6936035E0,2.4779787E2,7.765662E1,1.568735E2,6.3753998E1,2.1752686E1,1.5730295E2,0E0,0E0,0E0,0E0,0E0,0E0,0E0,0E0,0E0,0E0,0E0,0E0,0E0,0E0,0E0,0E0,0E0,0E0,0E0,0E0,0E0,0E0,0E0,0E0],"parents":[2147483647,0,0,1,1,2,2,3,3,4,4,5,5,6,6,7,7,8,8,9,9,10,10,11,11,13,13,14,14,15,15,17,17,18,18,20,20,21,21,22,22,23,23,24,24,25,25,26,26,27,27,28,28],"right_children":[2,4,6,8,10,12,14,16,18,20,22,24,-1,26,28,30,-1,32,34,-1,36,38,40,42,44,46,48,50,52,-1,-1,-1,-1,-1,-1,-1,-1,-1,-1,-1,-1,-1,-1,-1,-1,-1,-1,-1,-1,-1,-1,-1,-1],"split_conditions":[-2.7E0,-1.9E1,5.5E0,9.865E0,9.1E0,1E0,-8E-1,2.5E0,-1E0,8.7E0,-1.32E1,-3E-1,-6.0275037E-2,1.525E2,1.683E2,1E-1,1.2871103E-1,1.95E1,4.9E0,-5.606797E-2,6E-1,5.02E1,1.2647E1,1E0,1E0,6.2E0,1E0,1.65E2,1E0,7.6517515E-2,-5.7096697E-2,-4.949411E-2,1.2822346E-1,-6.053086E-2,-2.6751846E-2,-3.662829E-2,1.3466898E-1,1.2475896E-1,-5.2572828E-2,-6.0425438E-2,-1.3803934E-2,1.3835204E-1,1.3751551E-4,9.904168E-3,1.2590966E-1,8.4114216E-2,-5.1583078E-2,1.1422505E-1,5.5095542E-2,-5.651201E-2,-1.1716439E-2,-6.0457308E-2,1.2244268E-1],"split_indices":[1,1,1,7,2,3,0,0,0,2,1,1,0,1,1,0,0,2,0,0,0,2,7,4,5,1,5,1,4,0,0,0,0,0,0,0,0,0,0,0,0,0,0,0,0,0,0,0,0,0,0,0,0],"split_type":[0,0,0,0,0,0,0,0,0,0,0,0,0,0,0,0,0,0,0,0,0,0,0,0,0,0,0,0,0,0,0,0,0,0,0,0,0,0,0,0,0,0,0,0,0,0,0,0,0,0,0,0,0],"sum_hessian":[8.0084507E3,1.7428809E3,6.26557E3,9.550132E1,1.6473796E3,1.9663442E3,4.2992256E3,3.5370514E1,6.0130806E1,1.6154724E1,1.6312249E3,1.8674199E3,9.892436E1,1.6372559E3,2.6619697E3,2.3895618E1,1.1474896E1,9.395042E0,5.0735764E1,9.5211E0,6.633624E0,5.390299E1,1.5773219E3,5.930531E2,1.2743668E3,6.608134E2,9.764425E2,2.4708628E3,1.9110693E2,1.4641038E1,9.254581E0,3.6261353E0,5.768907E0,4.719963E1,3.5361304E0,1.4925408E0,5.141083E0,4.3981657E0,4.950482E1,1.5688074E3,8.514477E0,1.9035352E2,4.0269962E2,6.07717E1,1.2135951E3,9.9477646E1,5.6133575E2,2.441882E2,7.322543E2,2.356611E3,1.1425162E2,8.038177E1,1.1072517E2],"tree_param":{"num_deleted":"0","num_feature":"8","num_nodes":"53","size_leaf_vector":"1"}},{"base_weights":[8.833958E-4,-1.7505722E-1,7.8636616E-1,-6.842461E-1,-1.154042E-2,1.1341502E-1,8.6137615E-2,1.5958746E-1,-7.743594E-2,6.2184536E-1,-2.3799782E-1,7.724847E-1,-6.062785E-1,9.248452E-2,-7.8986645E-2,8.0820245E-1,-3.4649554E-1,-6.7613596E-1,3.7837967E-1,1.8183337E-1,8.7498754E-2,5.0195867E-1,-7.624989E-1,5.330944E-3,8.371251E-2,-7.531575E-2,4.030719E-2,4.9068E-3,-7.624164E-2,-1.1020391E-2,5.353541E-2,-4.880054E-2,8.016101E-2,-5.8377724E-2,8.050247E-2,-5.0956853E-2,-7.9220384E-2],"categories":[],"categories_nodes":[],"categories_segments":[],"categories_sizes":[],"default_left":[0,0,0,0,0,0,0,0,0,0,0,0,0,0,0,0,0,0,0,0,0,0,0,0,0,0,0,0,0,0,0,0,0,0,0,0,0],"id":14,"left_children":[1,3,5,7,9,11,-1,13,-1,15,17,19,21,-1,-1,23,25,27,29,31,-1,33,35,-1,-1,-1,-1,-1,-1,-1,-1,-1,-1,-1,-1,-1,-1],"loss_changes":[1.5488014E3,7.623457E2,1.0342761E2,1.6936035E2,9.9437946E2,9.857267E1,0E0,1.5735904E2,0E0,3.2976837E2,1.3793729E3,6.4038467E0,1.75965E1,0E0,0E0,3.3392822E1,9.033992E1,1.8683093E2,1.6283868E2,7.570182E0,0E0,4.7104173E0,2.5403595E-1,0E0,0E0,0E0,0E0,0E0,0E0,0E0,0E0,0E0,0E0,0E0,0E0,0E0,0E0],"parents":[2147483647,0,0,1,1,2,2,3,3,4,4,5,5,7,7,9,9,10,10,11,11,12,12,15,15,16,16,17,17,18,18,19,19,21,21,22,22],"right_children":[2,4,6,8,10,12,-1,14,-1,16,18,20,22,-1,-1,24,26,28,30,32,-1,34,36,-1,-1,-1,-1,-1,-1,-1,-1,-1,-1,-1,-1,-1,-1],"split_conditions":[1E0,1E0,7.262E0,7.262E0,-4.2E0,1E0,8.6137615E-2,1E0,-7.743594E-2,2.9E0,1.588E2,5.02E1,1.19E1,9.248452E-2,-7.8986645E-2,-1.32E1,-6.9E0,5.8942003E0,-2E0,1E0,8.7498754E-2,7.7072495E-1,4.47E1,5.330944E-3,8.371251E-2,-7.531575E-2,4.030719E-2,4.9068E-3,-7.624164E-2,-1.1020391E-2,5.353541E-2,-4.880054E-2,8.016101E-2,-5.8377724E-2,8.050247E-2,-5.0956853E-2,-7.9220384E-2],"split_indices":[3,5,7,7,1,4,0,4,0,0,1,2,1,0,0,1,1,7,0,5,0,6,2,0,0,0,0,0,0,0,0,0,0,0,0,0,0],"split_type":[0,0,0,0,0,0,0,0,0,0,0,0,0,0,0,0,0,0,0,0,0,0,0,0,0,0,0,0,0,0,0,0,0,0,0,0,0],"sum_hessian":[1.1205097E4,9.155197E3,2.0498992E3,2.22461E3,6.930587E3,2.0582797E2,1.8440713E3,2.145705E2,2.0100396E3,1.8248528E3,5.1057344E3,1.0740079E2,9.842718E1,1.188243E2,9.57462E1,1.5304779E3,2.943749E2,2.9843083E3,2.1214258E3,1.6292507E1,9.1108284E1,1.1886994E1,8.6540184E1,5.6579163E1,1.4738988E3,1.9083606E2,1.0353885E2,3.1735025E2,2.6669583E3,5.159201E2,1.6055057E3,7.9322E0,8.360307E0,2.3918698E0,9.495125E0,1.1003377E1,7.5536804E1],"tree_param":{"num_deleted":"0","num_feature":"8","num_nodes":"37","size_leaf_vector":"1"}},{"base_weights":[-9.7093463E-4,2.4970755E-2,-2.506339E-2],"categories":[],"categories_nodes":[],"categories_segments":[],"categories_sizes":[],"default_left":[0,0,0],"id":15,"left_children":[1,-1,-1],"loss_changes":[2.5070047E-1,0E0,0E0],"parents":[2147483647,0,0],"right_children":[2,-1,-1],"split_conditions":[7.25E1,2.4970755E-2,-2.506339E-2],"split_indices":[2,0,0],"split_type":[0,0,0],"sum_hessian":[2.0057504E0,1.0007507E0,1.0049999E0],"tree_param":{"num_deleted":"0","num_feature":"8","num_nodes":"3","size_leaf_vector":"1"}},{"base_weights":[-3.8919907E-6,-1.27095E-1,6.2824917E-1,-2.4712592E-2,-5.995372E-1,-1.3789928E-2,7.7888507E-1,6.1426073E-1,-1.9621545E-1,-1.9749908E-1,-6.393807E-2,2.5782216E-1,-5.792461E-1,4.3625024E-1,8.969145E-1,1.3287176E-2,8.9982605E-1,-5.9530556E-2,-5.5674106E-1,-6.2973E-2,1.4493038E-1,-1.2731451E-1,6.137545E-1,-6.174224E-1,1.0329469E-1,-3.6545746E-2,8.235889E-1,-5.9871048E-2,9.1047245E-1,5.229363E-2,-6.738614E-2,-1.8285451E-2,9.3498275E-2,-3.4166303E-2,7.178066E-2,-6.256218E-2,-2.0232975E-2,6.909036E-2,-6.703488E-2,9.507149E-2,-6.6313975E-2,-3.9660193E-2,1.0754754E-1,-6.4970024E-2,-1.973117E-2,8.456124E-2,-3.650005E-2,9.442956E-2,3.5978537E-2,9.820892E-2,8.121045E-2],"categories":[],"categories_nodes":[],"categories_segments":[],"categories_sizes":[],"default_left":[0,0,0,0,0,0,0,0,0,0,0,0,0,0,0,0,0,0,0,0,0,0,0,0,0,0,0,0,0,0,0,0,0,0,0,0,0,0,0,0,0,0,0,0,0,0,0,0,0,0,0],"id":16,"left_children":[1,3,5,7,9,11,13,15,17,19,-1,21,23,25,27,29,31,33,35,-1,37,39,41,43,-1,45,47,-1,49,-1,-1,-1,-1,-1,-1,-1,-1,-1,-1,-1,-1,-1,-1,-1,-1,-1,-1,-1,-1,-1,-1],"loss_changes":[7.6692285E2,3.8641058E2,1.5631189E2,7.1978174E2,2.266623E1,4.746893E1,5.254657E1,2.3851733E2,2.5514102E2,1.9294613E1,0E0,2.8703766E1,6.809799E0,6.1807335E1,2.0268677E1,1.5749498E2,3.6033325E1,8.239428E2,3.4621307E1,0E0,3.3048447E1,5.904308E1,5.1133755E1,1.2086678E0,0E0,4.460206E1,1.0043587E1,0E0,5.9960327E0,0E0,0E0,0E0,0E0,0E0,0E0,0E0,0E0,0E0,0E0,0E0,0E0,0E0,0E0,0E0,0E0,0E0,0E0,0E0,0E0,0E0,0E0],"parents":[2147483647,0,0,1,1,2,2,3,3,4,4,5,5,6,6,7,7,8,8,9,9,11,11,12,12,13,13,14,14,15,15,16,16,17,17,18,18,20,20,21,21,22,22,23,23,25,25,26,26,28,28],"right_children":[2,4,6,8,10,12,14,16,18,20,-1,22,24,26,28,30,32,34,36,-1,38,40,42,44,-1,46,48,-1,50,-1,-1,-1,-1,-1,-1,-1,-1,-1,-1,-1,-1,-1,-1,-1,-1,-1,-1,-1,-1,-1,-1],"split_conditions":[5.2E0,1E0,9.77E0,1E0,7.262E0,1.496E2,6.9E0,1E-1,1.594E2,1E0,-6.393807E-2,1E0,4E2,1E0,1.11E1,1.588E2,5.0621133E0,6.3E0,1.7E0,-6.2973E-2,1.506E2,-8.3E0,-4.2E0,7.262E0,1.0329469E-1,-7.9E0,1.341E2,-5.9871048E-2,-7E0,5.229363E-2,-6.738614E-2,-1.8285451E-2,9.3498275E-2,-3.4166303E-2,7.178066E-2,-6.256218E-2,-2.0232975E-2,6.909036E-2,-6.703488E-2,9.507149E-2,-6.6313975E-2,-3.9660193E-2,1.0754754E-1,-6.4970024E-2,-1.973117E-2,8.456124E-2,-3.650005E-2,9.442956E-2,3.5978537E-2,9.820892E-2,8.121045E-2],"split_indices":[0,3,7,5,7,1,0,0,1,4,0,4,2,4,2,1,7,1,0,0,1,1,1,7,0,1,2,0,1,0,0,0,0,0,0,0,0,0,0,0,0,0,0,0,0,0,0,0,0,0,0],"split_type":[0,0,0,0,0,0,0,0,0,0,0,0,0,0,0,0,0,0,0,0,0,0,0,0,0,0,0,0,0,0,0,0,0,0,0,0,0,0,0,0,0,0,0,0,0,0,0,0,0,0,0],"sum_hessian":[9.603102E3,7.9879863E3,1.6151149E3,6.5661055E3,1.4218809E3,3.071009E2,1.308014E3,1.3888911E3,5.1772144E3,1.287448E2,1.2931361E3,2.0782024E2,9.928065E1,3.363369E2,9.7167706E2,4.4771646E2,9.411746E2,3.754825E3,1.4223894E3,5.6539246E1,7.220556E1,1.001237E2,1.0769654E2,9.7586845E1,1.6938032E0,1.5186818E2,1.8446873E2,8.341459E0,9.6333563E2,2.571963E2,1.9052016E2,2.9468374E1,9.1170624E2,2.7553416E3,9.9948346E2,1.1902887E3,2.3210071E2,4.333661E1,2.886895E1,3.298557E1,6.713813E1,3.3823532E1,7.387301E1,9.011655E1,7.4703016E0,4.0776592E1,1.1109159E2,1.4555222E2,3.891652E1,5.522711E2,4.1106448E2],"tree_param":{"num_deleted":"0","num_feature":"8","num_nodes":"51","size_leaf_vector":"1"}},{"base_weights":[-8.5201644E-4,-5.448512E-1,1.4327364E-1,-1.6233116E-2,-5.768434E-1,7.910657E-1,-1.7108065E-1,5.657392E-1,-3.8116524E-1,9.007318E-2,-5.837992E-1,8.5731363E-1,-5.9167147E-2,2.6051426E-1,-4.6592042E-1,2.3272458E-1,1.1668968E-1,5.7494307E-1,-5.777578E-1,-5.5251498E-2,9.1281295E-1,-3.4717757E-1,-5.9183663E-1,6.6845596E-2,9.840246E-1,-3.1108618E-1,6.2925786E-1,-5.41182E-1,4.531964E-1,1.264416E-1,-1.4478879E-2,-4.8841882E-2,1.1819506E-1,-5.9643503E-2,-2.5278572E-2,-3.5307974E-2,1.24956526E-1,6.822198E-2,-5.943227E-2,-5.9436876E-2,-1.3314675E-2,1.2271718E-1,-2.5111524E-2,1.195508E-1,8.2233585E-2,7.553785E-2,-5.0786078E-2,4.27074E-2,9.066732E-2,-3.338327E-2,-5.620845E-2,-5.945033E-2,1.1448119E-1],"categories":[],"categories_nodes":[],"categories_segments":[],"categories_sizes":[],"default_left":[0,0,0,0,0,0,0,0,0,0,0,0,0,0,0,0,0,0,0,0,0,0,0,0,0,0,0,0,0,0,0,0,0,0,0,0,0,0,0,0,0,0,0,0,0,0,0,0,0,0,0,0,0],"id":17,"left_children":[1,3,5,7,9,11,13,15,17,19,21,23,-1,25,27,29,-1,31,33,-1,35,37,39,41,43,45,47,49,51,-1,-1,-1,-1,-1,-1,-1,-1,-1,-1,-1,-1,-1,-1,-1,-1,-1,-1,-1,-1,-1,-1,-1,-1],"loss_changes":[6.158305E2,2.7812256E1,1.2646039E3,2.0372686E1,7.248535E0,1.8636511E2,5.3222375E2,7.1317024E0,1.1408828E1,9.427505E0,2.7144775E0,1.9390454E2,0E0,3.580478E2,1.721228E2,9.938204E0,0E0,7.388048E0,1.4893341E-1,0E0,3.7571483E0,1.385282E1,1.6438599E0,9.941153E1,5.6086426E1,1.4023799E2,5.7516785E1,9.7682495E0,1.3734436E2,0E0,0E0,0E0,0E0,0E0,0E0,0E0,0E0,0E0,0E0,0E0,0E0,0E0,0E0,0E0,0E0,0E0,0E0,0E0,0E0,0E0,0E0,0E0,0E0],"parents":[2147483647,0,0,1,1,2,2,3,3,4,4,5,5,6,6,7,7,8,8,9,9,10,10,11,11,13,13,14,14,15,15,17,17,18,18,20,20,21,21,22,22,23,23,24,24,25,25,26,26,27,27,28,28],"right_children":[2,4,6,8,10,12,14,16,18,20,22,24,-1,26,28,30,-1,32,34,-1,36,38,40,42,44,46,48,50,52,-1,-1,-1,-1,-1,-1,-1,-1,-1,-1,-1,-1,-1,-1,-1,-1,-1,-1,-1,-1,-1,-1,-1,-1],"split_conditions":[-2.7E0,-1.9E1,5.5E0,9.865E0,9.1E0,1E0,-7E-1,2.5E0,-1E0,8.7E0,-1.32E1,-1.1E0,-5.9167147E-2,1.525E2,1.683E2,9.088E0,1.1668968E-1,1.95E1,4.9E0,-5.5251498E-2,6E-1,9.952E0,1.2647E1,1E0,1E0,6.2E0,1.647E2,-3E-1,1E0,1.264416E-1,-1.4478879E-2,-4.8841882E-2,1.1819506E-1,-5.9643503E-2,-2.5278572E-2,-3.5307974E-2,1.24956526E-1,6.822198E-2,-5.943227E-2,-5.9436876E-2,-1.3314675E-2,1.2271718E-1,-2.5111524E-2,1.195508E-1,8.2233585E-2,7.553785E-2,-5.0786078E-2,4.27074E-2,9.066732E-2,-3.338327E-2,-5.620845E-2,-5.945033E-2,1.1448119E-1],"split_indices":[1,1,1,7,2,3,0,0,0,2,1,1,0,1,1,7,0,2,0,0,0,7,7,4,4,1,1,0,4,0,0,0,0,0,0,0,0,0,0,0,0,0,0,0,0,0,0,0,0,0,0,0,0],"split_type":[0,0,0,0,0,0,0,0,0,0,0,0,0,0,0,0,0,0,0,0,0,0,0,0,0,0,0,0,0,0,0,0,0,0,0,0,0,0,0,0,0,0,0,0,0,0,0,0,0,0,0,0,0],"sum_hessian":[7.8525605E3,1.6441127E3,6.2084478E3,9.3910126E1,1.5502025E3,2.0279404E3,4.1805073E3,3.5980415E1,5.792971E1,1.58781E1,1.5343243E3,1.9355852E3,9.235526E1,1.6967997E3,2.4837078E3,2.4046724E1,1.1933689E1,9.551653E0,4.837806E1,9.099512E0,6.778588E0,5.185694E1,1.4824674E3,2.6761774E2,1.6679674E3,6.654391E2,1.0313606E3,2.2961033E3,1.8760442E2,5.8125386E0,1.8234186E1,3.542039E0,6.009614E0,4.4958786E1,3.419274E0,1.4141483E0,5.3644395E0,9.698945E0,4.2157993E1,1.4740345E3,8.432967E0,5.6946144E1,2.1067159E2,7.1992957E2,9.4803784E2,1.0321315E2,5.622259E2,5.9804047E2,4.3332007E2,2.118235E2,2.0842798E3,7.465423E1,1.1295018E2],"tree_param":{"num_deleted":"0","num_feature":"8","num_nodes":"53","size_leaf_vector":"1"}},{"base_weights":[6.1558554E-4,-1.6483091E-1,7.4125564E-1,-6.525483E-1,-1.1226E-2,8.096343E-1,7.723968E-2,1.6143648E-1,-7.413206E-2,5.851405E-1,-2.248309E-1,8.112601E-1,-1.761662E-1,7.174047E-1,-6.106856E-1,8.885315E-2,-7.587763E-2,7.6113933E-1,-3.2910794E-1,-6.311812E-1,3.6949787E-1,8.1213754E-1,-1.7597772E-2,1.802681E-2,-4.602855E-2,-1.5108285E-2,8.3161205E-2,-7.309591E-1,7.097443E-2,4.7937795E-3,7.8895375E-2,-7.261365E-2,3.828077E-2,6.0387286E-3,-7.135632E-2,5.328327E-2,-7.945714E-3,2.3106745E-2,8.133764E-2,-5.8025397E-2,6.967665E-2,-4.8138764E-2,-7.613444E-2],"categories":[],"categories_nodes":[],"categories_segments":[],"categories_sizes":[],"default_left":[0,0,0,0,0,0,0,0,0,0,0,0,0,0,0,0,0,0,0,0,0,0,0,0,0,0,0,0,0,0,0,0,0,0,0,0,0,0,0,0,0,0,0],"id":18,"left_children":[1,3,5,7,9,11,13,15,-1,17,19,21,23,25,27,-1,-1,29,31,33,35,37,-1,-1,-1,39,-1,41,-1,-1,-1,-1,-1,-1,-1,-1,-1,-1,-1,-1,-1,-1,-1],"loss_changes":[1.3378685E3,6.685824E2,9.045569E1,1.5457593E2,8.648363E2,3.0395508E0,8.289312E1,1.4185997E2,0E0,2.883391E2,1.2074272E3,1.7060547E0,4.6753442E-1,8.164497E0,1.4937462E1,0E0,0E0,2.9751587E1,8.216875E1,1.6920508E2,1.4893451E2,1.1101074E0,0E0,0E0,0E0,6.087171E0,0E0,2.6825333E-1,0E0,0E0,0E0,0E0,0E0,0E0,0E0,0E0,0E0,0E0,0E0,0E0,0E0,0E0,0E0],"parents":[2147483647,0,0,1,1,2,2,3,3,4,4,5,5,6,6,7,7,9,9,10,10,11,11,12,12,13,13,14,14,17,17,18,18,19,19,20,20,21,21,25,25,27,27],"right_children":[2,4,6,8,10,12,14,16,-1,18,20,22,24,26,28,-1,-1,30,32,34,36,38,-1,-1,-1,40,-1,42,-1,-1,-1,-1,-1,-1,-1,-1,-1,-1,-1,-1,-1,-1,-1],"split_conditions":[1E0,1E0,1.5842131E1,7.262E0,-4.2E0,5.4E0,1E0,1E0,-7.413206E-2,2.9E0,1.594E2,8.5573053E-1,1.5902751E2,5.02E1,4E2,8.885315E-2,-7.587763E-2,-1.32E1,-6.9E0,5.8942003E0,1.65E2,7.484992E-1,-1.7597772E-2,1.802681E-2,-4.602855E-2,1E0,8.3161205E-2,4.47E1,7.097443E-2,4.7937795E-3,7.8895375E-2,-7.261365E-2,3.828077E-2,6.0387286E-3,-7.135632E-2,5.328327E-2,-7.945714E-3,2.3106745E-2,8.133764E-2,-5.8025397E-2,6.967665E-2,-4.8138764E-2,-7.613444E-2],"split_indices":[3,5,1,7,1,0,4,4,0,0,1,6,2,2,2,0,0,1,1,7,1,6,0,0,0,5,0,2,0,0,0,0,0,0,0,0,0,0,0,0,0,0,0],"split_type":[0,0,0,0,0,0,0,0,0,0,0,0,0,0,0,0,0,0,0,0,0,0,0,0,0,0,0,0,0,0,0,0,0,0,0,0,0,0,0,0,0,0,0],"sum_hessian":[1.0916145E4,8.923551E3,1.9925933E3,2.1365269E3,6.787024E3,1.8063596E3,1.8623363E2,2.100141E2,1.9265127E3,1.7894089E3,4.997615E3,1.8035623E3,2.797375E0,9.6443245E1,8.979038E1,1.1733651E2,9.267759E1,1.5006848E3,2.8872415E2,2.968174E3,2.0294412E3,1.802138E3,1.4243075E0,1.4029106E0,1.3944644E0,1.3125496E1,8.331775E1,8.270361E1,7.08677E0,5.643116E1,1.4442535E3,1.8534117E2,1.0338298E2,3.1597113E2,2.652203E3,1.4879292E3,5.4151196E2,4.2328854E0,1.797905E3,7.4198737E0,5.705622E0,1.0804344E1,7.189927E1],"tree_param":{"num_deleted":"0","num_feature":"8","num_nodes":"43","size_leaf_vector":"1"}},{"base_weights":[2.8277878E-3],"categories":[],"categories_nodes":[],"categories_segments":[],"categories_sizes":[],"default_left":[0],"id":19,"left_children":[-1],"loss_changes":[0E0],"parents":[2147483647],"right_children":[-1],"split_conditions":[2.8277878E-4],"split_indices":[0],"split_type":[0],"sum_hessian":[1.9830444E0],"tree_param":{"num_deleted":"0","num_feature":"8","num_nodes":"1","size_leaf_vector":"1"}},{"base_weights":[-1.3496683E-4,-1.21336386E-1,5.77525E-1,-2.5054052E-2,-5.8404607E-1,-1.4710122E-2,7.136481E-1,5.6458515E-1,-1.869371E-1,-1.9513722E-1,-6.237464E-2,2.4526288E-1,-5.688058E-1,3.952802E-1,8.2903224E-1,3.0917092E-3,8.2995754E-1,-5.7150878E-2,-5.383259E-1,1.1146573E-1,-6.371959E-2,-1.3231349E-1,5.775385E-1,-6.070427E-1,9.404932E-2,-6.273406E-2,7.5448847E-1,-5.8069956E-2,8.41276E-1,4.7544137E-2,-6.623278E-2,-1.9249469E-2,8.621693E-2,-3.25814E-2,6.4759426E-2,-6.0960587E-2,-1.7916547E-2,-6.1618485E-2,6.24645E-2,8.800899E-2,-6.513162E-2,-3.8158607E-2,9.957518E-2,-6.387194E-2,-2.0674894E-2,7.786957E-2,-3.6472682E-2,8.3474785E-2,7.1992963E-3,7.93054E-2,9.7287446E-2],"categories":[],"categories_nodes":[],"categories_segments":[],"categories_sizes":[],"default_left":[0,0,0,0,0,0,0,0,0,0,0,0,0,0,0,0,0,0,0,0,0,0,0,0,0,0,0,0,0,0,0,0,0,0,0,0,0,0,0,0,0,0,0,0,0,0,0,0,0,0,0],"id":20,"left_children":[1,3,5,7,9,11,13,15,17,19,-1,21,23,25,27,29,31,33,35,37,-1,39,41,43,-1,45,47,-1,49,-1,-1,-1,-1,-1,-1,-1,-1,-1,-1,-1,-1,-1,-1,-1,-1,-1,-1,-1,-1,-1,-1],"loss_changes":[6.548838E2,3.444309E2,1.3078607E2,6.110856E2,2.0438873E1,4.3952404E1,4.8126648E1,2.054812E2,2.2903772E2,1.6986143E1,0E0,2.613671E1,6.193796E0,5.808981E1,1.7183533E1,1.3973996E2,3.1007996E1,6.949254E2,3.4571808E1,2.8219973E1,0E0,5.2090008E1,4.47733E1,1.0805588E0,0E0,3.992267E1,1.0774765E1,0E0,5.316223E0,0E0,0E0,0E0,0E0,0E0,0E0,0E0,0E0,0E0,0E0,0E0,0E0,0E0,0E0,0E0,0E0,0E0,0E0,0E0,0E0,0E0,0E0],"parents":[2147483647,0,0,1,1,2,2,3,3,4,4,5,5,6,6,7,7,8,8,9,9,11,11,12,12,13,13,14,14,15,15,16,16,17,17,18,18,19,19,21,21,22,22,23,23,25,25,26,26,28,28],"right_children":[2,4,6,8,10,12,14,16,18,20,-1,22,24,26,28,30,32,34,36,38,-1,40,42,44,-1,46,48,-1,50,-1,-1,-1,-1,-1,-1,-1,-1,-1,-1,-1,-1,-1,-1,-1,-1,-1,-1,-1,-1,-1,-1],"split_conditions":[5.1E0,1E0,9.77E0,1E0,7.262E0,1.496E2,6.9E0,1E-1,1.594E2,1.506E2,-6.237464E-2,1E0,4E2,1E0,1.11E1,1.588E2,5.0621133E0,6.3E0,1.7E0,1E0,-6.371959E-2,-8.3E0,-4.2E0,7.262E0,9.404932E-2,-7.9E0,1.573E2,-5.8069956E-2,6E-1,4.7544137E-2,-6.623278E-2,-1.9249469E-2,8.621693E-2,-3.25814E-2,6.4759426E-2,-6.0960587E-2,-1.7916547E-2,-6.1618485E-2,6.24645E-2,8.800899E-2,-6.513162E-2,-3.8158607E-2,9.957518E-2,-6.387194E-2,-2.0674894E-2,7.786957E-2,-3.6472682E-2,8.3474785E-2,7.1992963E-3,7.93054E-2,9.7287446E-2],"split_indices":[0,3,7,5,7,1,0,0,1,1,0,4,2,4,2,1,7,1,0,4,0,1,1,7,0,1,1,0,1,0,0,0,0,0,0,0,0,0,0,0,0,0,0,0,0,0,0,0,0,0,0],"split_type":[0,0,0,0,0,0,0,0,0,0,0,0,0,0,0,0,0,0,0,0,0,0,0,0,0,0,0,0,0,0,0,0,0,0,0,0,0,0,0,0,0,0,0,0,0,0,0,0,0,0,0],"sum_hessian":[9.351717E3,7.7305303E3,1.621187E3,6.3998745E3,1.3306554E3,3.031508E2,1.3180363E3,1.3780411E3,5.0218335E3,1.2380121E2,1.2068541E3,2.0671889E2,9.6431885E1,3.517935E2,9.6624274E2,4.4259E2,9.354511E2,3.6681553E3,1.3536783E3,7.3541885E1,5.025932E1,9.704503E1,1.0967385E2,9.4632256E1,1.799633E0,1.5499278E2,1.9680069E2,7.919938E0,9.5832275E2,2.5901385E2,1.8357613E2,2.8418755E1,9.0703235E2,2.6561245E3,1.01203076E3,1.1289305E3,2.2474782E2,3.0332256E1,4.3209633E1,3.265335E1,6.439168E1,3.3327835E1,7.634602E1,8.714086E1,7.4913926E0,4.05187E1,1.1447408E2,1.7589311E2,2.0907587E1,7.0647394E2,2.5184882E2],"tree_param":{"num_deleted":"0","num_feature":"8","num_nodes":"51","size_leaf_vector":"1"}},{"base_weights":[-1.0094587E-4,-5.3409034E-1,1.3477068E-1,-1.2165201E-2,-5.670289E-1,7.162926E-1,-1.6107261E-1,5.3129286E-1,-3.6977464E-1,9.520783E-2,-5.7425463E-1,7.729398E-1,-5.816244E-2,2.4593909E-1,-4.535848E-1,2.2441542E-1,1.07248366E-1,5.399305E-1,-5.683316E-1,-5.4497432E-2,8.6954796E-1,-3.3336553E-1,-5.826562E-1,3.3896357E-1,9.7003424E-1,-2.9976243E-1,5.783167E-1,-5.2954346E-1,4.182846E-1,6.802862E-2,-5.584835E-2,-4.8198625E-2,1.0978518E-1,-5.8791436E-2,-2.3695886E-2,-3.403559E-2,1.1689428E-1,1.0997999E-1,-5.025906E-2,-5.8531005E-2,-1.2733862E-2,1.1369371E-1,-5.1413346E-3,3.99954E-3,1.01514935E-1,6.332148E-2,-5.0808568E-2,7.4274085E-2,2.7562225E-2,-3.1971093E-2,-5.512109E-2,-5.87869E-2,1.0281294E-1],"categories":[],"categories_nodes":[],"categories_segments":[],"categories_sizes":[],"default_left":[0,0,0,0,0,0,0,0,0,0,0,0,0,0,0,0,0,0,0,0,0,0,0,0,0,0,0,0,0,0,0,0,0,0,0,0,0,0,0,0,0,0,0,0,0,0,0,0,0,0,0,0,0],"id":21,"left_children":[1,3,5,7,9,11,13,15,17,19,21,23,-1,25,27,29,-1,31,33,-1,35,37,39,41,43,45,47,49,51,-1,-1,-1,-1,-1,-1,-1,-1,-1,-1,-1,-1,-1,-1,-1,-1,-1,-1,-1,-1,-1,-1,-1,-1],"loss_changes":[5.527105E2,2.6596802E1,1.0541843E3,1.8248526E1,7.019989E0,1.5235962E2,4.8368796E2,5.949834E0,1.053257E1,8.687309E0,2.7201843E0,1.6904382E2,0E0,3.0835608E2,1.5675662E2,9.320703E0,0E0,6.6043377E0,1.6539669E-1,0E0,3.2537193E0,1.2889955E1,1.6052246E0,1.9318845E2,5.7073242E1,1.2545498E2,5.2367157E1,9.7109375E0,1.1717618E2,0E0,0E0,0E0,0E0,0E0,0E0,0E0,0E0,0E0,0E0,0E0,0E0,0E0,0E0,0E0,0E0,0E0,0E0,0E0,0E0,0E0,0E0,0E0,0E0],"parents":[2147483647,0,0,1,1,2,2,3,3,4,4,5,5,6,6,7,7,8,8,9,9,10,10,11,11,13,13,14,14,15,15,17,17,18,18,20,20,21,21,22,22,23,23,24,24,25,25,26,26,27,27,28,28],"right_children":[2,4,6,8,10,12,14,16,18,20,22,24,-1,26,28,30,-1,32,34,-1,36,38,40,42,44,46,48,50,52,-1,-1,-1,-1,-1,-1,-1,-1,-1,-1,-1,-1,-1,-1,-1,-1,-1,-1,-1,-1,-1,-1,-1,-1],"split_conditions":[-2.7E0,-1.9E1,5.5E0,9.865E0,9.1E0,1E0,-7E-1,2.5E0,-1E0,8.7E0,-1.32E1,-3E-1,-5.816244E-2,1.525E2,1.683E2,1E-1,1.07248366E-1,1.95E1,4.9E0,-5.4497432E-2,6E-1,5.02E1,1.2647E1,1E0,1E0,6.3E0,-2.1E0,-3E-1,1E0,6.802862E-2,-5.584835E-2,-4.8198625E-2,1.0978518E-1,-5.8791436E-2,-2.3695886E-2,-3.403559E-2,1.1689428E-1,1.0997999E-1,-5.025906E-2,-5.8531005E-2,-1.2733862E-2,1.1369371E-1,-5.1413346E-3,3.99954E-3,1.01514935E-1,6.332148E-2,-5.0808568E-2,7.4274085E-2,2.7562225E-2,-3.1971093E-2,-5.512109E-2,-5.87869E-2,1.0281294E-1],"split_indices":[1,1,1,7,2,3,0,0,0,2,1,1,0,1,1,0,0,2,0,0,0,2,7,4,5,1,0,0,4,0,0,0,0,0,0,0,0,0,0,0,0,0,0,0,0,0,0,0,0,0,0,0,0],"split_type":[0,0,0,0,0,0,0,0,0,0,0,0,0,0,0,0,0,0,0,0,0,0,0,0,0,0,0,0,0,0,0,0,0,0,0,0,0,0,0,0,0,0,0,0,0,0,0,0,0,0,0,0,0],"sum_hessian":[7.672401E3,1.5464948E3,6.1259062E3,9.188637E1,1.4546083E3,2.0651467E3,4.0607598E3,3.6274475E1,5.5611893E1,1.55687275E1,1.4390396E3,1.9791709E3,8.597583E1,1.6981096E3,2.3626501E3,2.4051153E1,1.2223321E1,9.655437E0,4.5956455E1,8.684809E0,6.8839183E0,4.9869293E1,1.3891703E3,6.1897925E2,1.3601915E3,6.4281934E2,1.0552903E3,2.1736692E3,1.8898088E2,1.5283094E1,8.768059E0,3.4578915E0,6.1975455E0,4.266118E1,3.2952769E0,1.3384023E0,5.545516E0,4.685849E0,4.518344E1,1.3808365E3,8.333743E0,2.0270847E2,4.162708E2,6.3015995E1,1.2971755E3,1.1696246E2,5.258569E2,6.8288965E2,3.7240067E2,2.0492113E2,1.968748E3,7.133112E1,1.17649765E2],"tree_param":{"num_deleted":"0","num_feature":"8","num_nodes":"53","size_leaf_vector":"1"}},{"base_weights":[1.9029297E-4,-1.5585208E-1,7.037801E-1,-6.258645E-1,-1.09542515E-2,7.693059E-1,7.133139E-2,1.6246411E-1,-7.137286E-2,5.536531E-1,-2.1278563E-1,7.708711E-1,-1.6687252E-1,6.815517E-1,-5.8833784E-1,8.56374E-2,-7.325551E-2,7.2103995E-1,-3.1331438E-1,-6.2004995E-1,3.246641E-1,7.7172744E-1,-1.675574E-2,1.7044019E-2,-4.3710995E-2,-3.85617E-2,7.956474E-2,-7.032986E-1,6.732997E-2,4.2699133E-3,7.481228E-2,-7.022964E-2,3.6310483E-2,7.147219E-3,-7.075644E-2,-1.1902914E-2,4.7027867E-2,2.1280065E-2,7.729493E-2,-5.7695366E-2,6.605259E-2,-4.5299575E-2,-7.344455E-2],"categories":[],"categories_nodes":[],"categories_segments":[],"categories_sizes":[],"default_left":[0,0,0,0,0,0,0,0,0,0,0,0,0,0,0,0,0,0,0,0,0,0,0,0,0,0,0,0,0,0,0,0,0,0,0,0,0,0,0,0,0,0,0],"id":22,"left_children":[1,3,5,7,9,11,13,15,-1,17,19,21,23,25,27,-1,-1,29,31,33,35,37,-1,-1,-1,39,-1,41,-1,-1,-1,-1,-1,-1,-1,-1,-1,-1,-1,-1,-1,-1,-1],"loss_changes":[1.1629117E3,5.9041547E2,7.962561E1,1.4161603E2,7.553684E2,2.6813965E0,7.350546E1,1.2836192E2,0E0,2.5354059E2,1.0690186E3,1.5270996E0,4.1449183E-1,7.819809E0,1.320853E1,0E0,0E0,2.6852417E1,7.47632E1,1.6818872E2,1.3610277E2,1.0224609E0,0E0,0E0,0E0,5.620342E0,0E0,2.9847336E-1,0E0,0E0,0E0,0E0,0E0,0E0,0E0,0E0,0E0,0E0,0E0,0E0,0E0,0E0,0E0],"parents":[2147483647,0,0,1,1,2,2,3,3,4,4,5,5,6,6,7,7,9,9,10,10,11,11,12,12,13,13,14,14,17,17,18,18,19,19,20,20,21,21,25,25,27,27],"right_children":[2,4,6,8,10,12,14,16,-1,18,20,22,24,26,28,-1,-1,30,32,34,36,38,-1,-1,-1,40,-1,42,-1,-1,-1,-1,-1,-1,-1,-1,-1,-1,-1,-1,-1,-1,-1],"split_conditions":[1E0,1E0,1.5842131E1,7.262E0,-4.2E0,5.4E0,1E0,1E0,-7.137286E-2,2.9E0,1.584E2,8.5573053E-1,1.5902751E2,5.02E1,4E2,8.56374E-2,-7.325551E-2,-1.32E1,-6.9E0,5.8942003E0,-2E0,7.484992E-1,-1.675574E-2,1.7044019E-2,-4.3710995E-2,1E0,7.956474E-2,4.47E1,6.732997E-2,4.2699133E-3,7.481228E-2,-7.022964E-2,3.6310483E-2,7.147219E-3,-7.075644E-2,-1.1902914E-2,4.7027867E-2,2.1280065E-2,7.729493E-2,-5.7695366E-2,6.605259E-2,-4.5299575E-2,-7.344455E-2],"split_indices":[3,5,1,7,1,0,4,4,0,0,1,6,2,2,2,0,0,1,1,7,0,6,0,0,0,5,0,2,0,0,0,0,0,0,0,0,0,0,0,0,0,0,0],"split_type":[0,0,0,0,0,0,0,0,0,0,0,0,0,0,0,0,0,0,0,0,0,0,0,0,0,0,0,0,0,0,0,0,0,0,0,0,0,0,0,0,0,0,0],"sum_hessian":[1.0590163E4,8.66845E3,1.9217131E3,2.0418567E3,6.6265938E3,1.7411068E3,1.8060637E2,2.0467102E2,1.8371857E3,1.7445657E3,4.882028E3,1.738377E3,2.7298293E0,9.380232E1,8.6804054E1,1.1531234E2,8.935867E1,1.4623883E3,2.8217737E2,2.777308E3,2.10472E3,1.7369696E3,1.4073801E0,1.3784859E0,1.3513435E0,1.291999E1,8.088233E1,7.996057E1,6.843479E0,5.624332E1,1.406145E3,1.7912906E2,1.0304832E2,3.1201434E2,2.4652937E3,5.201093E2,1.5846106E3,4.1708865E0,1.7327987E3,7.3975677E0,5.522422E0,1.0569083E1,6.9391495E1],"tree_param":{"num_deleted":"0","num_feature":"8","num_nodes":"43","size_leaf_vector":"1"}},{"base_weights":[7.201508E-3],"categories":[],"categories_nodes":[],"categories_segments":[],"categories_sizes":[],"default_left":[0],"id":23,"left_children":[-1],"loss_changes":[0E0],"parents":[2147483647],"right_children":[-1],"split_conditions":[7.201508E-4],"split_indices":[0],"split_type":[0],"sum_hessian":[1.9573227E0],"tree_param":{"num_deleted":"0","num_feature":"8","num_nodes":"1","size_leaf_vector":"1"}},{"base_weights":[-7.4964155E-5,-1.3310918E-1,4.6924776E-1,-4.236969E-2,-5.700087E-1,8.639271E-1,2.617178E-1,5.194575E-1,-2.0183104E-1,-1.8063307E-1,-6.0982265E-2,2.242685E-1,8.7487936E-1,-3.5377118E-1,5.738669E-1,-6.148924E-3,7.86356E-1,-7.806275E-2,-5.551935E-1,1.23132035E-1,-6.2476058E-2,-5.8928784E-2,6.686507E-2,1.174979E-1,8.562174E-2,-5.64091E-1,6.652315E-1,2.1384731E-1,7.594401E-1,4.352791E-2,-6.521572E-2,-2.0486644E-2,8.094098E-2,-3.361025E-2,5.197353E-2,-5.9752006E-2,-2.692513E-2,-6.0152005E-2,5.624756E-2,-6.62347E-2,-2.3830233E-2,-6.250941E-2,9.534936E-2,3.911565E-2,-4.1318394E-2,1.7003415E-2,8.032145E-2],"categories":[],"categories_nodes":[],"categories_segments":[],"categories_sizes":[],"default_left":[0,0,0,0,0,0,0,0,0,0,0,0,0,0,0,0,0,0,0,0,0,0,0,0,0,0,0,0,0,0,0,0,0,0,0,0,0,0,0,0,0,0,0,0,0,0,0],"id":24,"left_children":[1,3,5,7,9,11,13,15,17,19,-1,21,23,25,27,29,31,33,35,37,-1,-1,-1,-1,-1,39,41,43,45,-1,-1,-1,-1,-1,-1,-1,-1,-1,-1,-1,-1,-1,-1,-1,-1,-1,-1],"loss_changes":[5.66532E2,2.8025128E2,1.6391757E2,5.246588E2,1.8736847E1,4.638977E0,2.5281409E2,1.8163123E2,1.99448E2,1.548352E1,0E0,5.080512E0,2.7921753E0,9.532984E1,5.8147614E1,1.2490779E2,1.9788086E1,5.214509E2,1.4157654E1,2.219482E1,0E0,0E0,0E0,0E0,0E0,1.1615623E1,2.896101E1,3.3320526E1,1.4712433E1,0E0,0E0,0E0,0E0,0E0,0E0,0E0,0E0,0E0,0E0,0E0,0E0,0E0,0E0,0E0,0E0,0E0,0E0],"parents":[2147483647,0,0,1,1,2,2,3,3,4,4,5,5,6,6,7,7,8,8,9,9,11,11,12,12,13,13,14,14,15,15,16,16,17,17,18,18,19,19,25,25,26,26,27,27,28,28],"right_children":[2,4,6,8,10,12,14,16,18,20,-1,22,24,26,28,30,32,34,36,38,-1,-1,-1,-1,-1,40,42,44,46,-1,-1,-1,-1,-1,-1,-1,-1,-1,-1,-1,-1,-1,-1,-1,-1,-1,-1],"split_conditions":[3.9E0,1E0,-6.6E0,1E0,7.262E0,-5.58E1,1E0,1E-1,1.604E2,1.506E2,-6.0982265E-2,9.845E0,5.2E0,1.0369E1,9.871E0,1.588E2,4.8232965E0,6.3E0,1.7E0,1E0,-6.2476058E-2,-5.8928784E-2,6.686507E-2,1.174979E-1,8.562174E-2,1.2989175E2,9E-1,1.496E2,4.47E1,4.352791E-2,-6.521572E-2,-2.0486644E-2,8.094098E-2,-3.361025E-2,5.197353E-2,-5.9752006E-2,-2.692513E-2,-6.0152005E-2,5.624756E-2,-6.62347E-2,-2.3830233E-2,-6.250941E-2,9.534936E-2,3.911565E-2,-4.1318394E-2,1.7003415E-2,8.032145E-2],"split_indices":[0,3,1,5,7,1,4,0,1,1,0,7,0,7,7,1,7,1,0,4,0,0,0,0,0,1,1,1,2,0,0,0,0,0,0,0,0,0,0,0,0,0,0,0,0,0,0],"split_type":[0,0,0,0,0,0,0,0,0,0,0,0,0,0,0,0,0,0,0,0,0,0,0,0,0,0,0,0,0,0,0,0,0,0,0,0,0,0,0,0,0,0,0,0,0,0,0],"sum_hessian":[9.071807E3,7.0688003E3,2.0030057E3,5.8540684E3,1.2147322E3,6.8917444E2,1.3138313E3,1.2937091E3,4.5603594E3,1.1319867E2,1.1015334E3,1.1962922E1,6.772115E2,4.4205777E2,8.7177356E2,4.360222E2,8.5768695E2,3.3783008E3,1.1820585E3,6.765094E1,4.5547733E1,4.1108556E0,7.852066E0,3.6020004E1,6.411915E2,3.6679794E2,7.5259834E1,2.9724963E2,5.745239E2,2.5921948E2,1.768027E2,1.931535E1,8.383716E2,2.3600303E3,1.0182703E3,1.0286962E3,1.5336229E2,2.5395136E1,4.2255806E1,2.8101303E2,8.578491E1,1.3529638E1,6.1730198E1,2.3201704E2,6.523258E1,4.005694E1,5.3446704E2],"tree_param":{"num_deleted":"0","num_feature":"8","num_nodes":"47","size_leaf_vector":"1"}},{"base_weights":[5.42285E-4,-5.242516E-1,1.273866E-1,-8.540783E-3,-5.581643E-1,6.547382E-1,-1.5150383E-1,4.9932545E-1,-3.588418E-1,1.000701E-1,-5.6567353E-1,7.039709E-1,-5.7250153E-2,2.300614E-1,-4.4067243E-1,2.1428294E-1,9.9698685E-2,5.0963056E-1,-5.594391E-1,-5.3812034E-2,8.322498E-1,-3.2097942E-1,-5.744365E-1,3.0219105E-1,8.859313E-1,-2.8892708E-1,5.292786E-1,-5.179552E-1,4.0432546E-1,6.3248746E-2,-5.4959636E-2,-4.7567166E-2,1.02780215E-1,-5.7997476E-2,-2.2272635E-2,-3.2809254E-2,1.10082425E-1,6.157084E-2,-5.7742804E-2,-5.7722338E-2,-1.2237815E-2,-2.7999226E-2,7.790797E-2,3.849844E-3,9.263804E-2,5.794842E-2,-4.961277E-2,1.2330786E-1,4.612188E-2,-3.0572897E-2,-5.4048426E-2,-5.793951E-2,9.53184E-2],"categories":[],"categories_nodes":[],"categories_segments":[],"categories_sizes":[],"default_left":[0,0,0,0,0,0,0,0,0,0,0,0,0,0,0,0,0,0,0,0,0,0,0,0,0,0,0,0,0,0,0,0,0,0,0,0,0,0,0,0,0,0,0,0,0,0,0,0,0,0,0,0,0],"id":25,"left_children":[1,3,5,7,9,11,13,15,17,19,21,23,-1,25,27,29,-1,31,33,-1,35,37,39,41,43,45,47,49,51,-1,-1,-1,-1,-1,-1,-1,-1,-1,-1,-1,-1,-1,-1,-1,-1,-1,-1,-1,-1,-1,-1,-1,-1],"loss_changes":[4.9727948E2,2.5426819E1,8.849226E2,1.6322056E1,6.800598E0,1.2615466E2,4.343787E2,5.0998373E0,9.741579E0,8.036019E0,2.7085876E0,1.4605457E2,0E0,2.637621E2,1.4645093E2,8.362784E0,0E0,5.956148E0,1.790266E-1,0E0,2.8403983E0,1.2104807E1,1.5686951E0,1.7385211E2,4.7166748E1,1.1210484E2,5.102466E1,9.6467285E0,1.0217288E2,0E0,0E0,0E0,0E0,0E0,0E0,0E0,0E0,0E0,0E0,0E0,0E0,0E0,0E0,0E0,0E0,0E0,0E0,0E0,0E0,0E0,0E0,0E0,0E0],"parents":[2147483647,0,0,1,1,2,2,3,3,4,4,5,5,6,6,7,7,8,8,9,9,10,10,11,11,13,13,14,14,15,15,17,17,18,18,20,20,21,21,22,22,23,23,24,24,25,25,26,26,27,27,28,28],"right_children":[2,4,6,8,10,12,14,16,18,20,22,24,-1,26,28,30,-1,32,34,-1,36,38,40,42,44,46,48,50,52,-1,-1,-1,-1,-1,-1,-1,-1,-1,-1,-1,-1,-1,-1,-1,-1,-1,-1,-1,-1,-1,-1,-1,-1],"split_conditions":[-2.7E0,-1.9E1,5.5E0,9.865E0,9.1E0,1E0,-7E-1,2.5E0,-1E0,8.7E0,-1.32E1,-3E-1,-5.7250153E-2,1.525E2,1.683E2,1E-1,9.9698685E-2,1.95E1,4.9E0,-5.3812034E-2,6E-1,9.952E0,1.2647E1,6.87E1,1E0,6.3E0,1.594E2,-3E-1,1E0,6.3248746E-2,-5.4959636E-2,-4.7567166E-2,1.02780215E-1,-5.7997476E-2,-2.2272635E-2,-3.2809254E-2,1.10082425E-1,6.157084E-2,-5.7742804E-2,-5.7722338E-2,-1.2237815E-2,-2.7999226E-2,7.790797E-2,3.849844E-3,9.263804E-2,5.794842E-2,-4.961277E-2,1.2330786E-1,4.612188E-2,-3.0572897E-2,-5.4048426E-2,-5.793951E-2,9.53184E-2],"split_indices":[1,1,1,7,2,3,0,0,0,2,1,1,0,1,1,0,0,2,0,0,0,7,7,2,5,1,1,0,4,0,0,0,0,0,0,0,0,0,0,0,0,0,0,0,0,0,0,0,0,0,0,0,0],"split_type":[0,0,0,0,0,0,0,0,0,0,0,0,0,0,0,0,0,0,0,0,0,0,0,0,0,0,0,0,0,0,0,0,0,0,0,0,0,0,0,0,0,0,0,0,0,0,0,0,0,0,0,0,0],"sum_hessian":[7.4683433E3,1.4531368E3,6.0152065E3,8.97382E1,1.3633987E3,2.0802783E3,3.9349282E3,3.645718E1,5.3281017E1,1.5239365E1,1.3481593E3,2.0004532E3,7.982508E1,1.6965251E3,2.238403E3,2.408992E1,1.2367258E1,9.708437E0,4.357258E1,8.283903E0,6.9554615E0,4.791206E1,1.3002472E3,6.244001E2,1.3760531E3,6.2043054E2,1.0760946E3,2.0511902E3,1.8721303E2,1.56784E1,8.411521E0,3.3742757E0,6.334161E0,4.0386974E1,3.1856039E0,1.2656727E0,5.689789E0,9.996948E0,3.791511E1,1.2920054E3,8.241884E0,2.813465E2,3.4305356E2,6.2777477E1,1.3132756E3,1.191706E2,5.0125995E2,9.337675E1,9.8271783E2,1.982472E2,1.852943E3,6.7026184E1,1.2018685E2],"tree_param":{"num_deleted":"0","num_feature":"8","num_nodes":"53","size_leaf_vector":"1"}},{"base_weights":[-3.3286694E-4,-1.4800541E-1,6.7220825E-1,-6.033911E-1,-1.0558403E-2,7.356507E-1,6.5007836E-2,1.6221488E-1,-6.9061086E-2,5.2590245E-1,-2.017839E-1,7.371716E-1,-1.5826274E-1,6.496146E-1,-5.693409E-1,8.2704805E-2,-7.103795E-2,7.077763E-1,-2.1227878E-1,-6.9469744E-1,2.087005E-1,7.380174E-1,-1.6044412E-2,1.6480934E-2,-4.180114E-2,-6.1637774E-2,7.6459005E-2,-6.794446E-1,6.416888E-2,6.7351772E-3,7.342776E-2,-5.79758E-2,3.205945E-2,1.3740459E-2,-7.064496E-2,-1.6358515E-2,3.2233264E-2,1.9759562E-2,7.392369E-2,-5.744734E-2,6.2882684E-2,-4.269373E-2,-7.1161084E-2],"categories":[],"categories_nodes":[],"categories_segments":[],"categories_sizes":[],"default_left":[0,0,0,0,0,0,0,0,0,0,0,0,0,0,0,0,0,0,0,0,0,0,0,0,0,0,0,0,0,0,0,0,0,0,0,0,0,0,0,0,0,0,0],"id":26,"left_children":[1,3,5,7,9,11,13,15,-1,17,19,21,23,25,27,-1,-1,29,31,33,35,37,-1,-1,-1,39,-1,41,-1,-1,-1,-1,-1,-1,-1,-1,-1,-1,-1,-1,-1,-1,-1],"loss_changes":[1.01622015E3,5.251342E2,7.0918884E1,1.3000336E2,6.613484E2,2.3840942E0,6.5404976E1,1.1646629E2,0E0,2.2759845E2,9.617662E2,1.3826904E0,3.7569493E-1,7.548523E0,1.1721779E1,0E0,0E0,2.3023804E1,6.591517E1,2.1216797E1,1.0978502E2,9.503784E-1,0E0,0E0,0E0,5.2089205E0,0E0,3.3029938E-1,0E0,0E0,0E0,0E0,0E0,0E0,0E0,0E0,0E0,0E0,0E0,0E0,0E0,0E0,0E0],"parents":[2147483647,0,0,1,1,2,2,3,3,4,4,5,5,6,6,7,7,9,9,10,10,11,11,12,12,13,13,14,14,17,17,18,18,19,19,20,20,21,21,25,25,27,27],"right_children":[2,4,6,8,10,12,14,16,-1,18,20,22,24,26,28,-1,-1,30,32,34,36,38,-1,-1,-1,40,-1,42,-1,-1,-1,-1,-1,-1,-1,-1,-1,-1,-1,-1,-1,-1,-1],"split_conditions":[1E0,1E0,1.5842131E1,7.262E0,-4.2E0,5.4E0,1E0,1E0,-6.9061086E-2,2.6E0,1.5842131E1,8.5573053E-1,2.4676845E0,5.02E1,4E2,8.2704805E-2,-7.103795E-2,-1.32E1,-6.9E0,4.589923E0,1.594E2,7.484992E-1,-1.6044412E-2,1.6480934E-2,-4.180114E-2,1E0,7.6459005E-2,4.47E1,6.416888E-2,6.7351772E-3,7.342776E-2,-5.79758E-2,3.205945E-2,1.3740459E-2,-7.064496E-2,-1.6358515E-2,3.2233264E-2,1.9759562E-2,7.392369E-2,-5.744734E-2,6.2882684E-2,-4.269373E-2,-7.1161084E-2],"split_indices":[3,5,1,7,1,0,4,4,0,0,1,6,7,2,2,0,0,1,1,7,1,6,0,0,0,5,0,2,0,0,0,0,0,0,0,0,0,0,0,0,0,0,0],"split_type":[0,0,0,0,0,0,0,0,0,0,0,0,0,0,0,0,0,0,0,0,0,0,0,0,0,0,0,0,0,0,0,0,0,0,0,0,0,0,0,0,0,0,0],"sum_hessian":[1.0230203E4,8.38898E3,1.8412223E3,1.9441816E3,6.4447993E3,1.6668519E3,1.7437032E2,1.9874632E2,1.7454353E3,1.6931405E3,4.7516587E3,1.6641959E3,2.6560028E0,9.07304E1,8.363991E1,1.12831635E2,8.591469E1,1.3584784E3,3.3466205E2,2.1587358E3,2.5929229E3,1.6628069E3,1.3890737E0,1.3466104E0,1.3093925E0,1.2690331E1,7.804007E1,7.70717E1,6.5682077E0,5.4121986E1,1.3043564E3,1.9801753E2,1.3664452E2,2.9915121E1,2.1288208E3,6.0625354E2,1.9866693E3,4.110737E0,1.6586962E3,7.378222E0,5.3121095E0,1.0321323E1,6.675038E1],"tree_param":{"num_deleted":"0","num_feature":"8","num_nodes":"43","size_leaf_vector":"1"}},{"base_weights":[1.1999652E-2],"categories":[],"categories_nodes":[],"categories_segments":[],"categories_sizes":[],"default_left":[0],"id":27,"left_children":[-1],"loss_changes":[0E0],"parents":[2147483647],"right_children":[-1],"split_conditions":[1.1999652E-3],"split_indices":[0],"split_type":[0],"sum_hessian":[1.9296104E0],"tree_param":{"num_deleted":"0","num_feature":"8","num_nodes":"1","size_leaf_vector":"1"}},{"base_weights":[-1.3582583E-4,-1.3087301E-1,4.268807E-1,-4.4662587E-2,-5.5741924E-1,8.1580347E-1,2.3655538E-1,4.819377E-1,-1.9613683E-1,-1.760531E-1,-5.978032E-2,2.10274E-1,8.260985E-1,-3.5183975E-1,5.2196336E-1,-1.4175049E-2,7.405554E-1,-6.91875E-2,-5.3494895E-1,1.1319079E-1,-6.1420914E-2,-5.6639194E-2,6.2716775E-2,1.08904116E-1,8.070323E-2,-5.4938364E-1,5.9860724E-1,1.7488854E-1,7.022345E-1,4.0289085E-2,-6.433571E-2,-2.0070653E-2,7.6342635E-2,-3.158199E-2,5.389749E-2,-5.840552E-2,-2.2716954E-2,-5.9101593E-2,5.1700503E-2,-6.508279E-2,-2.1484563E-2,-6.13828E-2,8.866237E-2,3.107786E-2,-4.770624E-2,6.501007E-2,1.2555249E-1],"categories":[],"categories_nodes":[],"categories_segments":[],"categories_sizes":[],"default_left":[0,0,0,0,0,0,0,0,0,0,0,0,0,0,0,0,0,0,0,0,0,0,0,0,0,0,0,0,0,0,0,0,0,0,0,0,0,0,0,0,0,0,0,0,0,0,0],"id":28,"left_children":[1,3,5,7,9,11,13,15,17,19,-1,21,23,25,27,29,31,33,35,37,-1,-1,-1,-1,-1,39,41,43,45,-1,-1,-1,-1,-1,-1,-1,-1,-1,-1,-1,-1,-1,-1,-1,-1,-1,-1],"loss_changes":[4.901602E2,2.4716022E2,1.52146E2,4.462185E2,1.7299316E1,4.039215E0,2.3247194E2,1.6034842E2,1.8681583E2,1.3962965E1,0E0,4.4476347E0,2.4507446E0,8.5268425E1,5.8179337E1,1.1288527E2,1.7837646E1,4.743393E2,1.7760986E1,1.9323887E1,0E0,0E0,0E0,0E0,0E0,1.258889E1,2.7895727E1,2.8486977E1,1.6864502E1,0E0,0E0,0E0,0E0,0E0,0E0,0E0,0E0,0E0,0E0,0E0,0E0,0E0,0E0,0E0,0E0,0E0,0E0],"parents":[2147483647,0,0,1,1,2,2,3,3,4,4,5,5,6,6,7,7,8,8,9,9,11,11,12,12,13,13,14,14,15,15,16,16,17,17,18,18,19,19,25,25,26,26,27,27,28,28],"right_children":[2,4,6,8,10,12,14,16,18,20,-1,22,24,26,28,30,32,34,36,38,-1,-1,-1,-1,-1,40,42,44,46,-1,-1,-1,-1,-1,-1,-1,-1,-1,-1,-1,-1,-1,-1,-1,-1,-1,-1],"split_conditions":[3.7E0,1E0,-6.6E0,1E0,7.262E0,-5.58E1,1E0,1E-1,1.594E2,1.506E2,-5.978032E-2,9.845E0,5.2E0,1.0369E1,9.871E0,1.588E2,5.0621133E0,7E0,1.7E0,1E0,-6.1420914E-2,-5.6639194E-2,6.2716775E-2,1.08904116E-1,8.070323E-2,1.2989175E2,9E-1,1.591E2,1.616E2,4.0289085E-2,-6.433571E-2,-2.0070653E-2,7.6342635E-2,-3.158199E-2,5.389749E-2,-5.840552E-2,-2.2716954E-2,-5.9101593E-2,5.1700503E-2,-6.508279E-2,-2.1484563E-2,-6.13828E-2,8.866237E-2,3.107786E-2,-4.770624E-2,6.501007E-2,1.2555249E-1],"split_indices":[0,3,1,5,7,1,4,0,1,1,0,7,0,7,7,1,7,1,0,4,0,0,0,0,0,1,1,1,1,0,0,0,0,0,0,0,0,0,0,0,0,0,0,0,0,0,0],"split_type":[0,0,0,0,0,0,0,0,0,0,0,0,0,0,0,0,0,0,0,0,0,0,0,0,0,0,0,0,0,0,0,0,0,0,0,0,0,0,0,0,0,0,0,0,0,0,0],"sum_hessian":[8.777994E3,6.720968E3,2.0570264E3,5.591882E3,1.1290857E3,6.748036E2,1.3822228E3,1.2486764E3,4.3432056E3,1.0862683E2,1.02045886E3,1.1639204E1,6.6316437E2,4.5139572E2,9.308271E2,4.2819824E2,8.2047815E2,3.1602844E3,1.1829211E3,6.587912E1,4.274771E1,3.9401574E0,7.699046E0,4.1041527E1,6.2212286E2,3.7406982E2,7.7325874E1,3.1887305E2,6.1195404E2,2.577218E2,1.7047641E2,1.9278782E1,8.0119934E2,2.2487952E3,9.1148914E2,1.01938116E3,1.6353996E2,2.3840456E1,4.2038662E1,2.863059E2,8.776392E1,1.4625803E1,6.2700073E1,2.6430554E2,5.4567486E1,5.6124567E2,5.0708385E1],"tree_param":{"num_deleted":"0","num_feature":"8","num_nodes":"47","size_leaf_vector":"1"}},{"base_weights":[1.1250546E-3,-5.1459795E-1,1.2027866E-1,-6.113244E-3,-5.4949284E-1,6.0018545E-1,-1.4164722E-1,4.6793464E-1,-3.4816214E-1,1.0431059E-1,-5.573104E-1,3.4333009E-3,6.907686E-1,2.1911375E-1,-4.287927E-1,-4.710224E-2,5.856573E-1,4.836738E-1,-5.509693E-1,-5.318919E-2,7.987533E-1,-3.0635116E-1,-5.6653464E-1,1.014022E-1,-2.743494E-1,7.445865E-1,-5.6411065E-2,-2.7971783E-1,4.9355116E-1,-5.0718325E-1,3.9088005E-1,-4.012158E-2,6.503255E-2,-4.6929892E-2,9.689761E-2,-5.725425E-2,-2.0922018E-2,-3.1610366E-2,1.041043E-1,5.830003E-2,-5.6903638E-2,-5.694753E-2,-1.1630467E-2,-4.3896813E-2,5.9515785E-2,9.3275785E-2,6.0302135E-2,5.3253647E-2,-4.8516076E-2,1.14524476E-1,4.296787E-2,-2.9325256E-2,-5.305865E-2,-5.718028E-2,8.88209E-2],"categories":[],"categories_nodes":[],"categories_segments":[],"categories_sizes":[],"default_left":[0,0,0,0,0,0,0,0,0,0,0,0,0,0,0,0,0,0,0,0,0,0,0,0,0,0,0,0,0,0,0,0,0,0,0,0,0,0,0,0,0,0,0,0,0,0,0,0,0,0,0,0,0,0,0],"id":29,"left_children":[1,3,5,7,9,11,13,15,17,19,21,23,25,27,29,-1,31,33,35,-1,37,39,41,-1,43,45,-1,47,49,51,53,-1,-1,-1,-1,-1,-1,-1,-1,-1,-1,-1,-1,-1,-1,-1,-1,-1,-1,-1,-1,-1,-1,-1,-1],"loss_changes":[4.4575677E2,2.4153046E1,7.4077454E2,1.4503132E1,6.5696106E0,1.1247217E2,3.950652E2,4.420313E0,9.0297785E0,7.4475117E0,2.7410889E0,7.75392E1,1.22421875E2,2.3155815E2,1.3663293E2,0E0,2.4156256E0,5.4100533E0,1.9156456E-1,0E0,2.4899006E0,1.1268773E1,1.5401001E0,0E0,3.1274485E1,4.5592407E1,0E0,1.0047999E2,4.4915466E1,9.54953E0,8.951516E1,0E0,0E0,0E0,0E0,0E0,0E0,0E0,0E0,0E0,0E0,0E0,0E0,0E0,0E0,0E0,0E0,0E0,0E0,0E0,0E0,0E0,0E0,0E0,0E0],"parents":[2147483647,0,0,1,1,2,2,3,3,4,4,5,5,6,6,7,7,8,8,9,9,10,10,11,11,12,12,13,13,14,14,16,16,17,17,18,18,20,20,21,21,22,22,24,24,25,25,27,27,28,28,29,29,30,30],"right_children":[2,4,6,8,10,12,14,16,18,20,22,24,26,28,30,-1,32,34,36,-1,38,40,42,-1,44,46,-1,48,50,52,54,-1,-1,-1,-1,-1,-1,-1,-1,-1,-1,-1,-1,-1,-1,-1,-1,-1,-1,-1,-1,-1,-1,-1,-1],"split_conditions":[-2.7E0,-1.9E1,5.5E0,9.865E0,9.1E0,-1.1E0,-7E-1,1E0,-1E0,8.7E0,-1.32E1,1E0,1E0,1.525E2,1.683E2,-4.710224E-2,7.8E0,1.95E1,4.9E0,-5.318919E-2,6E-1,9.952E0,1.2647E1,1.014022E-1,1.0063E1,1E0,-5.6411065E-2,6.3E0,1.594E2,-3E-1,1E0,-4.012158E-2,6.503255E-2,-4.6929892E-2,9.689761E-2,-5.725425E-2,-2.0922018E-2,-3.1610366E-2,1.041043E-1,5.830003E-2,-5.6903638E-2,-5.694753E-2,-1.1630467E-2,-4.3896813E-2,5.9515785E-2,9.3275785E-2,6.0302135E-2,5.3253647E-2,-4.8516076E-2,1.14524476E-1,4.296787E-2,-2.9325256E-2,-5.305865E-2,-5.718028E-2,8.88209E-2],"split_indices":[1,1,1,7,2,1,0,5,0,2,1,4,3,1,1,0,2,2,0,0,0,7,7,0,7,4,0,1,1,0,4,0,0,0,0,0,0,0,0,0,0,0,0,0,0,0,0,0,0,0,0,0,0,0,0],"split_type":[0,0,0,0,0,0,0,0,0,0,0,0,0,0,0,0,0,0,0,0,0,0,0,0,0,0,0,0,0,0,0,0,0,0,0,0,0,0,0,0,0,0,0,0,0,0,0,0,0,0,0,0,0,0,0],"sum_hessian":[7.251938E3,1.3604204E3,5.8915176E3,8.743929E1,1.2729811E3,2.0797178E3,3.8117996E3,3.6493988E1,5.09453E1,1.4895345E1,1.2580857E3,2.7422046E2,1.8054974E3,1.6894554E3,2.1223442E3,3.7313764E0,3.276261E1,9.714659E0,4.1230644E1,7.8958044E0,6.9995403E0,4.5815556E1,1.2122701E3,5.855257E1,2.156679E2,1.7316393E3,7.3858086E1,5.995902E2,1.0898652E3,1.937436E3,1.8490823E2,1.6947973E0,3.1067814E1,3.2890434E0,6.425615E0,3.8147232E1,3.0834098E0,1.1952306E0,5.80431E0,1.0168734E1,3.564682E1,1.2041405E3,8.129734E0,1.8175284E2,3.3915054E1,7.4104205E2,9.905972E2,1.20718094E2,4.7887207E2,9.577177E1,9.9409344E2,1.9238261E2,1.7450533E3,6.293493E1,1.2197331E2],"tree_param":{"num_deleted":"0","num_feature":"8","num_nodes":"55","size_leaf_vector":"1"}},{"base_weights":[-7.113211E-4,-1.4062107E-1,6.453547E-1,-5.837939E-1,-1.0019127E-2,7.074279E-1,5.8236144E-2,1.608458E-1,-6.7068E-2,5.026994E-1,-1.9138122E-1,7.0895255E-1,-1.5930197E-1,6.219577E-1,-5.5407E-1,8.0108695E-2,-6.919926E-2,6.77176E-1,-1.970153E-1,-6.745213E-1,1.9742243E-1,7.097963E-1,-1.54264E-2,-4.0949244E-2,1.5665844E-2,-8.1718974E-2,7.382876E-2,-6.595422E-1,6.1395954E-2,6.0677063E-3,7.0356496E-2,-5.5577338E-2,3.0993385E-2,1.3976546E-2,-6.865012E-2,2.8158266E-2,-2.4236249E-2,1.830166E-2,7.110297E-2,-5.707271E-2,6.021718E-2,-4.0527202E-2,-6.926985E-2],"categories":[],"categories_nodes":[],"categories_segments":[],"categories_sizes":[],"default_left":[0,0,0,0,0,0,0,0,0,0,0,0,0,0,0,0,0,0,0,0,0,0,0,0,0,0,0,0,0,0,0,0,0,0,0,0,0,0,0,0,0,0,0],"id":30,"left_children":[1,3,5,7,9,11,13,15,-1,17,19,21,23,25,27,-1,-1,29,31,33,35,37,-1,-1,-1,39,-1,41,-1,-1,-1,-1,-1,-1,-1,-1,-1,-1,-1,-1,-1,-1,-1],"loss_changes":[8.917655E2,4.69365E2,6.396112E1,1.1953253E2,5.8263E2,2.2115479E0,5.8680897E1,1.0630784E2,0E0,2.000108E2,8.6956604E2,1.2644043E0,3.4914574E-1,7.302017E0,1.0450409E1,0E0,0E0,2.1280334E1,5.974266E1,2.0231018E1,9.501833E1,8.991699E-1,0E0,0E0,0E0,4.841905E0,0E0,3.538475E-1,0E0,0E0,0E0,0E0,0E0,0E0,0E0,0E0,0E0,0E0,0E0,0E0,0E0,0E0,0E0],"parents":[2147483647,0,0,1,1,2,2,3,3,4,4,5,5,6,6,7,7,9,9,10,10,11,11,12,12,13,13,14,14,17,17,18,18,19,19,20,20,21,21,25,25,27,27],"right_children":[2,4,6,8,10,12,14,16,-1,18,20,22,24,26,28,-1,-1,30,32,34,36,38,-1,-1,-1,40,-1,42,-1,-1,-1,-1,-1,-1,-1,-1,-1,-1,-1,-1,-1,-1,-1],"split_conditions":[1E0,1E0,1.5842131E1,7.262E0,-4.2E0,5.4E0,1E0,1E0,-6.7068E-2,2.6E0,1.5842131E1,8.5573053E-1,1E0,5.02E1,4E2,8.0108695E-2,-6.919926E-2,-1.32E1,-6.9E0,4.589923E0,3.7E0,7.484992E-1,-1.54264E-2,-4.0949244E-2,1.5665844E-2,1E0,7.382876E-2,4.47E1,6.1395954E-2,6.0677063E-3,7.0356496E-2,-5.5577338E-2,3.0993385E-2,1.3976546E-2,-6.865012E-2,2.8158266E-2,-2.4236249E-2,1.830166E-2,7.110297E-2,-5.707271E-2,6.021718E-2,-4.0527202E-2,-6.926985E-2],"split_indices":[3,5,1,7,1,0,4,4,0,0,1,6,5,2,2,0,0,1,1,7,0,6,0,0,0,5,0,2,0,0,0,0,0,0,0,0,0,0,0,0,0,0,0],"split_type":[0,0,0,0,0,0,0,0,0,0,0,0,0,0,0,0,0,0,0,0,0,0,0,0,0,0,0,0,0,0,0,0,0,0,0,0,0,0,0,0,0,0,0],"sum_hessian":[9.863649E3,8.108487E3,1.7551627E3,1.8448544E3,6.2636323E3,1.5871554E3,1.6800732E2,1.9267984E2,1.6521746E3,1.6362136E3,4.627419E3,1.5845502E3,2.6052406E0,8.746585E1,8.054147E1,1.1009227E2,8.258758E1,1.3096736E3,3.265401E2,2.0630593E3,2.5643596E3,1.5831803E3,1.3698275E0,1.2887393E0,1.3165014E0,1.2450509E1,7.501534E1,7.427026E1,6.271215E0,5.38942E1,1.2557793E3,1.9116208E2,1.35378E2,2.9757204E1,2.033302E3,2.152754E3,4.1160577E2,4.0469384E0,1.5791333E3,7.356092E0,5.0944176E0,1.0092848E1,6.4177414E1],"tree_param":{"num_deleted":"0","num_feature":"8","num_nodes":"43","size_leaf_vector":"1"}},{"base_weights":[1.6998613E-2],"categories":[],"categories_nodes":[],"categories_segments":[],"categories_sizes":[],"default_left":[0],"id":31,"left_children":[-1],"loss_changes":[0E0],"parents":[2147483647],"right_children":[-1],"split_conditions":[1.6998614E-3],"split_indices":[0],"split_type":[0],"sum_hessian":[1.9012854E0],"tree_param":{"num_deleted":"0","num_feature":"8","num_nodes":"1","size_leaf_vector":"1"}},{"base_weights":[-5.4391072E-5,-1.2053124E-1,4.1368085E-1,-3.936332E-2,-5.463512E-1,7.707512E-1,2.3043461E-1,4.5235503E-1,-1.803819E-1,-1.7441627E-1,-5.8726E-2,1.9448487E-1,7.8068125E-1,-3.3835003E-1,5.0132644E-1,-2.0867035E-2,6.97389E-1,-5.9061375E-2,-5.1549935E-1,1.0362741E-1,-6.0450625E-2,-5.4902267E-2,5.9072684E-2,9.860083E-2,7.6639146E-2,-5.364548E-1,5.869713E-1,2.8173015E-1,7.4148184E-1,3.752515E-2,-6.35166E-2,-1.7805194E-2,7.1796134E-2,-2.9387085E-2,5.053955E-2,-5.7277806E-2,-1.8963072E-2,-5.8182485E-2,4.7678124E-2,-6.353657E-2,-2.318602E-2,-5.9376802E-2,8.358681E-2,-7.196363E-2,4.0152326E-2,-6.1174788E-2,7.584964E-2],"categories":[],"categories_nodes":[],"categories_segments":[],"categories_sizes":[],"default_left":[0,0,0,0,0,0,0,0,0,0,0,0,0,0,0,0,0,0,0,0,0,0,0,0,0,0,0,0,0,0,0,0,0,0,0,0,0,0,0,0,0,0,0,0,0,0,0],"id":32,"left_children":[1,3,5,7,9,11,13,15,17,19,-1,21,23,25,27,29,31,33,35,37,-1,-1,-1,-1,-1,39,41,43,45,-1,-1,-1,-1,-1,-1,-1,-1,-1,-1,-1,-1,-1,-1,-1,-1,-1,-1],"loss_changes":[4.2245456E2,2.2684645E2,1.24886505E2,3.8243832E2,1.5885834E1,3.5551147E0,1.9501192E2,1.425494E2,1.7421967E2,1.2684236E1,0E0,3.9496198E0,1.111908E0,7.520871E1,4.49868E1,1.0251727E2,1.4713989E1,4.1736282E2,2.1152222E1,1.6892248E1,0E0,0E0,0E0,0E0,0E0,1.0006897E1,2.1809643E1,5.4182312E1,9.87471E0,0E0,0E0,0E0,0E0,0E0,0E0,0E0,0E0,0E0,0E0,0E0,0E0,0E0,0E0,0E0,0E0,0E0,0E0],"parents":[2147483647,0,0,1,1,2,2,3,3,4,4,5,5,6,6,7,7,8,8,9,9,11,11,12,12,13,13,14,14,15,15,16,16,17,17,18,18,19,19,25,25,26,26,27,27,28,28],"right_children":[2,4,6,8,10,12,14,16,18,20,-1,22,24,26,28,30,32,34,36,38,-1,-1,-1,-1,-1,40,42,44,46,-1,-1,-1,-1,-1,-1,-1,-1,-1,-1,-1,-1,-1,-1,-1,-1,-1,-1],"split_conditions":[3.9E0,1E0,-6.6E0,1E0,7.262E0,-5.58E1,1E0,1E-1,1.594E2,1.506E2,-5.8726E-2,9.845E0,5.2E0,1.0369E1,1.0029E1,1.588E2,4.8232965E0,7E0,1.7E0,1E0,-6.0450625E-2,-5.4902267E-2,5.9072684E-2,9.860083E-2,7.6639146E-2,1.2989175E2,9E-1,-4.7E0,1.01E1,3.752515E-2,-6.35166E-2,-1.7805194E-2,7.1796134E-2,-2.9387085E-2,5.053955E-2,-5.7277806E-2,-1.8963072E-2,-5.8182485E-2,4.7678124E-2,-6.353657E-2,-2.318602E-2,-5.9376802E-2,8.358681E-2,-7.196363E-2,4.0152326E-2,-6.1174788E-2,7.584964E-2],"split_indices":[0,3,1,5,7,1,4,0,1,1,0,7,0,7,7,1,7,1,0,4,0,0,0,0,0,1,1,1,2,0,0,0,0,0,0,0,0,0,0,0,0,0,0,0,0,0,0],"split_type":[0,0,0,0,0,0,0,0,0,0,0,0,0,0,0,0,0,0,0,0,0,0,0,0,0,0,0,0,0,0,0,0,0,0,0,0,0,0,0,0,0,0,0,0,0,0,0],"sum_hessian":[8.473277E3,6.562911E3,1.9103657E3,5.513117E3,1.0497937E3,6.468057E2,1.26356E3,1.2282207E3,4.2848965E3,1.0454601E2,9.4524774E2,1.1305457E1,6.355003E2,4.075625E2,8.5599756E2,4.1932114E2,8.088996E2,3.1468413E3,1.1380553E3,6.395778E1,4.0588238E1,3.7963743E0,7.5090823E0,3.69254E1,5.985749E2,3.3603915E2,7.152337E1,4.4827304E2,4.077245E2,2.5516936E2,1.6415178E2,1.8396448E1,7.905032E2,2.2226968E3,9.2414453E2,9.672772E2,1.7077815E2,2.2347706E1,4.1610073E1,2.5284651E2,8.319264E1,1.2210849E1,5.931252E1,4.7361847E1,4.009112E2,4.6287374E0,4.0309573E2],"tree_param":{"num_deleted":"0","num_feature":"8","num_nodes":"47","size_leaf_vector":"1"}},{"base_weights":[1.543234E-3,-5.0543696E-1,1.1367044E-1,-1.0324961E-1,-5.50718E-1,5.341798E-1,-1.4422752E-1,-5.0294894E-1,2.9876748E-1,1.08456284E-1,-5.593009E-1,6.021918E-1,-5.7767134E-2,-3.8736707E-1,2.9890716E-1,1.3775105E-2,-5.666395E-2,4.1774112E-1,-5.3264868E-2,-5.2614707E-2,7.6961076E-1,-5.656941E-2,-3.1271198E-1,2.2717702E-1,7.6655686E-1,-9.2189E-2,-5.125888E-1,6.0088706E-1,-1.3299815E-1,7.0734456E-2,-3.2441E-2,-3.788029E-3,7.318323E-2,-3.0448481E-2,9.896808E-2,-5.6157272E-2,1.4764611E-1,9.3230866E-2,-1.08793285E-2,-1.3931132E-3,8.0333754E-2,-3.669311E-2,2.5966221E-2,-5.5867482E-2,-4.2838335E-2,8.0309846E-2,1.2694949E-2,5.727392E-2,-4.642089E-2],"categories":[],"categories_nodes":[],"categories_segments":[],"categories_sizes":[],"default_left":[0,0,0,0,0,0,0,0,0,0,0,0,0,0,0,0,0,0,0,0,0,0,0,0,0,0,0,0,0,0,0,0,0,0,0,0,0,0,0,0,0,0,0,0,0,0,0,0,0],"id":33,"left_children":[1,3,5,7,9,11,13,15,17,19,21,23,-1,25,27,29,-1,31,-1,-1,33,-1,35,37,39,41,43,45,47,-1,-1,-1,-1,-1,-1,-1,-1,-1,-1,-1,-1,-1,-1,-1,-1,-1,-1,-1,-1],"loss_changes":[3.9951553E2,2.3123596E1,6.242134E2,2.1045109E1,6.531952E0,1.6580591E2,3.8455542E2,2.1660156E0,6.6972938E0,6.9247913E0,1.6033936E0,1.2695099E2,0E0,8.5129425E1,1.6503102E2,2.1463363E0,0E0,8.302619E0,0E0,0E0,2.1962595E0,0E0,1.4531644E1,1.4932599E2,4.116266E1,6.656583E1,6.038788E0,7.1246E1,1.2209997E2,0E0,0E0,0E0,0E0,0E0,0E0,0E0,0E0,0E0,0E0,0E0,0E0,0E0,0E0,0E0,0E0,0E0,0E0,0E0,0E0],"parents":[2147483647,0,0,1,1,2,2,3,3,4,4,5,5,6,6,7,7,8,8,9,9,10,10,11,11,13,13,14,14,15,15,17,17,20,20,22,22,23,23,24,24,25,25,26,26,27,27,28,28],"right_children":[2,4,6,8,10,12,14,16,18,20,22,24,-1,26,28,30,-1,32,-1,-1,34,-1,36,38,40,42,44,46,48,-1,-1,-1,-1,-1,-1,-1,-1,-1,-1,-1,-1,-1,-1,-1,-1,-1,-1,-1,-1],"split_conditions":[-2.7E0,-1.32E1,6.1E0,1E0,9.1E0,1E0,1.627E2,-5.711E2,6.4E0,8.7E0,1.1736E1,-3E-1,-5.7767134E-2,-1.3E0,-7E-1,-3E0,-5.666395E-2,-5.711E2,-5.3264868E-2,-5.2614707E-2,6E-1,-5.656941E-2,-3.4E0,1E0,1E0,1.525E2,1.506E2,1.181E2,7.262E0,7.0734456E-2,-3.2441E-2,-3.788029E-3,7.318323E-2,-3.0448481E-2,9.896808E-2,-5.6157272E-2,1.4764611E-1,9.3230866E-2,-1.08793285E-2,-1.3931132E-3,8.0333754E-2,-3.669311E-2,2.5966221E-2,-5.5867482E-2,-4.2838335E-2,8.0309846E-2,1.2694949E-2,5.727392E-2,-4.642089E-2],"split_indices":[1,1,1,5,2,3,1,1,0,2,7,1,0,0,0,0,0,1,0,0,0,0,1,4,5,1,1,2,7,0,0,0,0,0,0,0,0,0,0,0,0,0,0,0,0,0,0,0,0],"split_type":[0,0,0,0,0,0,0,0,0,0,0,0,0,0,0,0,0,0,0,0,0,0,0,0,0,0,0,0,0,0,0,0,0,0,0,0,0,0,0,0,0,0,0,0,0,0,0,0,0],"sum_hessian":[7.025989E3,1.2718491E3,5.7541396E3,1.2903528E2,1.1428138E3,2.187041E3,3.5670989E3,6.457826E1,6.445701E1,1.4539362E1,1.1282744E3,2.061403E3,1.2563779E2,2.3033955E3,1.2637032E3,7.17236E0,5.7405903E1,5.6823288E1,7.63372E0,7.5228343E0,7.016527E0,1.0985E3,2.9774511E1,6.2889655E2,1.4325066E3,6.866144E2,1.6167811E3,7.43483E2,5.2022034E2,1.9931347E0,5.179225E0,2.3546326E1,3.3276962E1,1.127918E0,5.8886094E0,2.6741142E1,3.0333679E0,2.0237617E2,4.265204E2,6.449708E1,1.3680095E3,3.855308E2,3.010836E2,1.04126E3,5.7552106E2,5.2064764E2,2.2283534E2,1.6593024E2,3.542901E2],"tree_param":{"num_deleted":"0","num_feature":"8","num_nodes":"49","size_leaf_vector":"1"}},{"base_weights":[-1.1005802E-3,-1.3379818E-1,6.222323E-1,-5.663093E-1,-9.69944E-3,6.8336004E-1,5.2048873E-2,1.6034861E-1,-6.532882E-2,4.823443E-1,-1.8187906E-1,6.849043E-1,-1.6123755E-1,5.9759706E-1,-5.404854E-1,7.79125E-2,-6.7572564E-2,6.5060484E-1,-1.8273565E-1,-6.570823E-1,1.8671992E-1,6.8575317E-1,-1.4881325E-2,1.4671976E-2,-4.0101405E-2,-1.0072667E-1,7.1593165E-2,-6.4162105E-1,5.8936257E-2,5.902968E-3,6.7689314E-2,-5.332923E-2,2.9909326E-2,1.3995421E-2,-6.693244E-2,2.6501385E-2,-2.22931E-2,1.6931897E-2,6.870135E-2,-5.6683745E-2,5.7842057E-2,-3.8493697E-2,-6.759313E-2],"categories":[],"categories_nodes":[],"categories_segments":[],"categories_sizes":[],"default_left":[0,0,0,0,0,0,0,0,0,0,0,0,0,0,0,0,0,0,0,0,0,0,0,0,0,0,0,0,0,0,0,0,0,0,0,0,0,0,0,0,0,0,0],"id":34,"left_children":[1,3,5,7,9,11,13,15,-1,17,19,21,23,25,27,-1,-1,29,31,33,35,37,-1,-1,-1,39,-1,41,-1,-1,-1,-1,-1,-1,-1,-1,-1,-1,-1,-1,-1,-1,-1],"loss_changes":[7.852321E2,4.2010144E2,5.8039734E1,1.1039868E2,5.154347E2,2.0731812E0,5.2825954E1,9.745126E1,0E0,1.7660614E2,7.8954126E2,1.1652832E0,3.2140082E-1,7.0992413E0,9.334684E0,0E0,0E0,1.9537537E1,5.4077232E1,1.9305542E1,8.148973E1,8.6053467E-1,0E0,0E0,0E0,4.5060043E0,0E0,3.7760925E-1,0E0,0E0,0E0,0E0,0E0,0E0,0E0,0E0,0E0,0E0,0E0,0E0,0E0,0E0,0E0],"parents":[2147483647,0,0,1,1,2,2,3,3,4,4,5,5,6,6,7,7,9,9,10,10,11,11,12,12,13,13,14,14,17,17,18,18,19,19,20,20,21,21,25,25,27,27],"right_children":[2,4,6,8,10,12,14,16,-1,18,20,22,24,26,28,-1,-1,30,32,34,36,38,-1,-1,-1,40,-1,42,-1,-1,-1,-1,-1,-1,-1,-1,-1,-1,-1,-1,-1,-1,-1],"split_conditions":[1E0,1E0,1.5842131E1,7.262E0,-4.2E0,5.4E0,1E0,1E0,-6.532882E-2,2.6E0,1.5842131E1,8.5573053E-1,1.5902751E2,5.02E1,4E2,7.79125E-2,-6.7572564E-2,-1.32E1,-6.9E0,4.589923E0,3.7E0,7.484992E-1,-1.4881325E-2,1.4671976E-2,-4.0101405E-2,1E0,7.1593165E-2,4.47E1,5.8936257E-2,5.902968E-3,6.7689314E-2,-5.332923E-2,2.9909326E-2,1.3995421E-2,-6.693244E-2,2.6501385E-2,-2.22931E-2,1.6931897E-2,6.870135E-2,-5.6683745E-2,5.7842057E-2,-3.8493697E-2,-6.759313E-2],"split_indices":[3,5,1,7,1,0,4,4,0,0,1,6,2,2,2,0,0,1,1,7,0,6,0,0,0,5,0,2,0,0,0,0,0,0,0,0,0,0,0,0,0,0,0],"split_type":[0,0,0,0,0,0,0,0,0,0,0,0,0,0,0,0,0,0,0,0,0,0,0,0,0,0,0,0,0,0,0,0,0,0,0,0,0,0,0,0,0,0,0],"sum_hessian":[9.491243E3,7.8259985E3,1.6652445E3,1.7440482E3,6.08195E3,1.5038253E3,1.6141914E2,1.863511E2,1.5576971E3,1.5760928E3,4.5058574E3,1.5012695E3,2.5558074E0,8.403725E1,7.73819E1,1.07131485E2,7.921962E1,1.2578799E3,3.1821298E2,1.9679563E3,2.5379011E3,1.4999197E3,1.3498149E0,1.288727E0,1.2670804E0,1.2198642E1,7.18386E1,7.142094E1,5.9609585E0,5.365717E1,1.2042227E3,1.8413673E2,1.3407625E2,2.9611755E1,1.9383446E3,2.1309746E3,4.0692633E2,3.9809222E0,1.4959388E3,7.331958E0,4.8666835E0,9.861749E0,6.1559193E1],"tree_param":{"num_deleted":"0","num_feature":"8","num_nodes":"43","size_leaf_vector":"1"}},{"base_weights":[2.2149516E-2],"categories":[],"categories_nodes":[],"categories_segments":[],"categories_sizes":[],"default_left":[0],"id":35,"left_children":[-1],"loss_changes":[0E0],"parents":[2147483647],"right_children":[-1],"split_conditions":[2.2149517E-3],"split_indices":[0],"split_type":[0],"sum_hessian":[1.8726665E0],"tree_param":{"num_deleted":"0","num_feature":"8","num_nodes":"1","size_leaf_vector":"1"}},{"base_weights":[-7.048444E-5,-1.182887E-1,3.7692213E-1,-4.065772E-2,-5.363713E-1,7.3791635E-1,2.063919E-1,4.2341894E-1,-1.7453189E-1,-1.7179479E-1,-5.7795417E-2,1.7491232E-1,7.4768615E-1,-3.371355E-1,4.5284238E-1,-2.7687298E-2,6.653148E-1,-4.7513086E-2,-4.93611E-1,9.444602E-2,-5.962825E-2,-5.3875018E-2,5.5688983E-1,9.4082415E-2,7.321721E-2,-5.482403E-1,4.4395953E-1,1.3939223E-1,6.183718E-1,3.4500975E-2,-6.264227E-2,-1.7591152E-2,6.862604E-2,-2.7801707E-2,5.4568052E-2,-5.8053892E-2,-1.1690241E-2,-5.7376184E-2,4.409519E-2,2.8147323E-2,6.3904874E-2,-6.153067E-2,-2.6172046E-2,-5.9449714E-2,8.081528E-2,2.6591364E-2,-4.7463115E-2,5.702883E-2,1.0973561E-1],"categories":[],"categories_nodes":[],"categories_segments":[],"categories_sizes":[],"default_left":[0,0,0,0,0,0,0,0,0,0,0,0,0,0,0,0,0,0,0,0,0,0,0,0,0,0,0,0,0,0,0,0,0,0,0,0,0,0,0,0,0,0,0,0,0,0,0,0,0],"id":36,"left_children":[1,3,5,7,9,11,13,15,17,19,-1,21,23,25,27,29,31,33,35,37,-1,-1,39,-1,-1,41,43,45,47,-1,-1,-1,-1,-1,-1,-1,-1,-1,-1,-1,-1,-1,-1,-1,-1,-1,-1,-1,-1],"loss_changes":[3.6380957E2,2.0167392E2,1.19812195E2,3.257658E2,1.4653412E1,3.3060608E0,1.7762662E2,1.2812373E2,1.6490164E2,1.1476788E1,0E0,3.5611928E0,1.1505127E0,6.849331E1,4.7232956E1,9.1872116E1,1.3586517E1,3.9828497E2,3.787088E1,1.4831732E1,0E0,0E0,7.575989E-3,0E0,0E0,6.108856E0,3.3995182E1,2.4711521E1,1.3113037E1,0E0,0E0,0E0,0E0,0E0,0E0,0E0,0E0,0E0,0E0,0E0,0E0,0E0,0E0,0E0,0E0,0E0,0E0,0E0,0E0],"parents":[2147483647,0,0,1,1,2,2,3,3,4,4,5,5,6,6,7,7,8,8,9,9,11,11,12,12,13,13,14,14,15,15,16,16,17,17,18,18,19,19,22,22,25,25,26,26,27,27,28,28],"right_children":[2,4,6,8,10,12,14,16,18,20,-1,22,24,26,28,30,32,34,36,38,-1,-1,40,-1,-1,42,44,46,48,-1,-1,-1,-1,-1,-1,-1,-1,-1,-1,-1,-1,-1,-1,-1,-1,-1,-1,-1,-1],"split_conditions":[3.7E0,1E0,-6.6E0,1E0,7.262E0,-5.58E1,1E0,1E-1,1.578E2,1.506E2,-5.7795417E-2,9.845E0,5.2E0,1.0297E1,9.871E0,1.588E2,5.0621133E0,7E0,1.3E0,1E0,-5.962825E-2,-5.3875018E-2,5.8E0,9.4082415E-2,7.321721E-2,1.551E2,1.4E0,1.591E2,1.616E2,3.4500975E-2,-6.264227E-2,-1.7591152E-2,6.862604E-2,-2.7801707E-2,5.4568052E-2,-5.8053892E-2,-1.1690241E-2,-5.7376184E-2,4.409519E-2,2.8147323E-2,6.3904874E-2,-6.153067E-2,-2.6172046E-2,-5.9449714E-2,8.081528E-2,2.6591364E-2,-4.7463115E-2,5.702883E-2,1.0973561E-1],"split_indices":[0,3,1,5,7,1,4,0,1,1,0,7,0,7,7,1,7,1,0,4,0,0,0,0,0,1,1,1,1,0,0,0,0,0,0,0,0,0,0,0,0,0,0,0,0,0,0,0,0],"split_type":[0,0,0,0,0,0,0,0,0,0,0,0,0,0,0,0,0,0,0,0,0,0,0,0,0,0,0,0,0,0,0,0,0,0,0,0,0,0,0,0,0,0,0,0,0,0,0,0,0],"sum_hessian":[8.161133E3,6.213405E3,1.9477278E3,5.241283E3,9.7212177E2,6.238266E2,1.3239011E3,1.1729775E3,4.0683057E3,1.0005186E2,8.720699E2,1.0963067E1,6.128635E2,4.1290448E2,9.109967E2,4.097428E2,7.6323474E2,2.9107466E3,1.1575591E3,6.196476E1,3.80871E1,3.6790118E0,7.284055E0,4.1133877E1,5.717296E2,3.2528778E2,8.761669E1,3.154658E2,5.955309E2,2.5280322E2,1.5693958E2,1.8362305E1,7.4487244E2,2.0965842E3,8.141623E2,9.40087E2,2.1747215E2,2.0935852E1,4.1028908E1,2.6905692E0,4.593486E0,2.6265903E2,6.262876E1,2.2585182E1,6.503151E1,2.6203882E2,5.3426975E1,5.431924E2,5.2338505E1],"tree_param":{"num_deleted":"0","num_feature":"8","num_nodes":"49","size_leaf_vector":"1"}},{"base_weights":[2.0807707E-3,-4.967735E-1,1.0790611E-1,-9.535021E-2,-5.438746E-1,4.9126613E-1,-1.3774884E-1,-4.9301264E-1,2.79275E-1,1.124834E-1,-5.528429E-1,5.611724E-1,-5.7888474E-2,-3.8335943E-1,2.831703E-1,2.658507E-2,-5.594933E-2,3.864639E-1,-5.2097272E-2,-5.208099E-2,7.4402094E-1,-5.5957526E-2,-2.997645E-1,1.995414E-1,7.192688E-1,-1.0536788E-1,-5.020682E-1,5.602597E-1,-1.2624396E-1,6.835618E-2,-3.0977676E-2,-4.375053E-3,6.782093E-2,-2.9321378E-2,9.45066E-2,-5.5450913E-2,1.3093416E-1,-3.1824663E-2,6.2490012E-2,-1.4611854E-3,7.535943E-2,-4.1583378E-2,2.4864627E-2,-5.5075344E-2,-4.16354E-2,7.4544534E-2,1.19124185E-2,5.349046E-2,-4.536132E-2],"categories":[],"categories_nodes":[],"categories_segments":[],"categories_sizes":[],"default_left":[0,0,0,0,0,0,0,0,0,0,0,0,0,0,0,0,0,0,0,0,0,0,0,0,0,0,0,0,0,0,0,0,0,0,0,0,0,0,0,0,0,0,0,0,0,0,0,0,0],"id":37,"left_children":[1,3,5,7,9,11,13,15,17,19,21,23,-1,25,27,29,-1,31,-1,-1,33,-1,35,37,39,41,43,45,47,-1,-1,-1,-1,-1,-1,-1,-1,-1,-1,-1,-1,-1,-1,-1,-1,-1,-1,-1,-1],"loss_changes":[3.58768E2,2.2436035E1,5.280626E2,1.8925125E1,6.326782E0,1.6414478E2,3.5344495E2,2.140545E0,5.8262324E0,6.45732E0,1.6213989E0,1.1740546E2,0E0,7.1186676E1,1.4300992E2,1.9652262E0,0E0,7.3600674E0,0E0,0E0,1.9475555E0,0E0,1.2762613E1,1.3825148E2,3.603949E1,7.124307E1,6.0824585E0,6.1312027E1,1.1049266E2,0E0,0E0,0E0,0E0,0E0,0E0,0E0,0E0,0E0,0E0,0E0,0E0,0E0,0E0,0E0,0E0,0E0,0E0,0E0,0E0],"parents":[2147483647,0,0,1,1,2,2,3,3,4,4,5,5,6,6,7,7,8,8,9,9,10,10,11,11,13,13,14,14,15,15,17,17,20,20,22,22,23,23,24,24,25,25,26,26,27,27,28,28],"right_children":[2,4,6,8,10,12,14,16,18,20,22,24,-1,26,28,30,-1,32,-1,-1,34,-1,36,38,40,42,44,46,48,-1,-1,-1,-1,-1,-1,-1,-1,-1,-1,-1,-1,-1,-1,-1,-1,-1,-1,-1,-1],"split_conditions":[-2.7E0,-1.32E1,6.2E0,1E0,9.1E0,1E0,1.627E2,-5.711E2,6.4E0,8.7E0,1.1736E1,-3E-1,-5.7888474E-2,-1.3E0,-7E-1,-3E0,-5.594933E-2,-5.711E2,-5.2097272E-2,-5.208099E-2,6E-1,-5.5957526E-2,-3.4E0,6.87E1,1E0,1.525E2,1.506E2,1.181E2,7.262E0,6.835618E-2,-3.0977676E-2,-4.375053E-3,6.782093E-2,-2.9321378E-2,9.45066E-2,-5.5450913E-2,1.3093416E-1,-3.1824663E-2,6.2490012E-2,-1.4611854E-3,7.535943E-2,-4.1583378E-2,2.4864627E-2,-5.5075344E-2,-4.16354E-2,7.4544534E-2,1.19124185E-2,5.349046E-2,-4.536132E-2],"split_indices":[1,1,1,5,2,3,1,1,0,2,7,1,0,0,0,0,0,1,0,0,0,0,1,2,5,1,1,2,7,0,0,0,0,0,0,0,0,0,0,0,0,0,0,0,0,0,0,0,0],"split_type":[0,0,0,0,0,0,0,0,0,0,0,0,0,0,0,0,0,0,0,0,0,0,0,0,0,0,0,0,0,0,0,0,0,0,0,0,0,0,0,0,0,0,0,0,0,0,0,0,0],"sum_hessian":[6.793937E3,1.1883644E3,5.6055728E3,1.25111885E2,1.0632526E3,2.188805E3,3.4167678E3,6.0536613E1,6.457527E1,1.4176522E1,1.049076E3,2.0550378E3,1.337672E2,2.157774E3,1.2589939E3,6.9349236E0,5.360169E1,5.7403454E1,7.171817E0,7.165965E0,7.0105567E0,1.02071216E3,2.8363863E1,6.2581195E2,1.4292257E3,6.46258E2,1.511516E3,7.5061395E2,5.083799E2,1.9987583E0,4.9361653E0,2.3540348E1,3.3863106E1,1.0637894E0,5.9467673E0,2.5053007E1,3.310857E0,2.8235446E2,3.4345752E2,6.3887283E1,1.3653385E3,3.4421298E2,3.02045E2,9.605203E2,5.509957E2,5.281925E2,2.2242143E2,1.6815115E2,3.4022876E2],"tree_param":{"num_deleted":"0","num_feature":"8","num_nodes":"49","size_leaf_vector":"1"}},{"base_weights":[-1.4966321E-3,-1.2718318E-1,6.012742E-1,-5.505148E-1,-9.0714265E-3,6.617622E-1,4.804862E-2,1.6083655E-1,-6.381486E-1,4.6281967E-1,-1.7216618E-1,6.633301E-1,-1.6156122E-1,5.767584E-1,-5.279678E-1,7.597525E-2,-6.612436E-2,-6.709203E-2,-6.292986E-2,6.5701026E-1,-8.265797E-2,-6.4161676E-1,1.7777787E-1,6.642017E-1,-1.4853745E-2,1.3799197E-2,-3.913202E-2,-1.161332E-1,6.968018E-2,-6.248583E-1,5.6701124E-2,1.4975378E-2,6.8038516E-2,-4.2069722E-2,3.28591E-2,3.467843E-3,-6.563549E-2,-1.2771256E-2,2.7117113E-2,1.5449122E-2,6.655044E-2,-5.618173E-2,5.5870503E-2,-3.622438E-2,-6.608163E-2],"categories":[],"categories_nodes":[],"categories_segments":[],"categories_sizes":[],"default_left":[0,0,0,0,0,0,0,0,0,0,0,0,0,0,0,0,0,0,0,0,0,0,0,0,0,0,0,0,0,0,0,0,0,0,0,0,0,0,0,0,0,0,0,0,0],"id":38,"left_children":[1,3,5,7,9,11,13,15,17,19,21,23,25,27,29,-1,-1,-1,-1,31,33,35,37,39,-1,-1,-1,41,-1,43,-1,-1,-1,-1,-1,-1,-1,-1,-1,-1,-1,-1,-1,-1,-1],"loss_changes":[6.9061993E2,3.771497E2,5.260077E1,1.02676544E2,4.540526E2,1.9373169E0,4.7843372E1,8.975315E1,2.746582E-3,1.605661E2,7.2036957E2,1.1000977E0,2.9481602E-1,6.8905354E0,8.33555E0,0E0,0E0,0E0,0E0,1.3149506E1,5.5566795E1,1.8687927E1,7.172212E1,8.360596E-1,0E0,0E0,0E0,4.207727E0,0E0,4.1775513E-1,0E0,0E0,0E0,0E0,0E0,0E0,0E0,0E0,0E0,0E0,0E0,0E0,0E0,0E0,0E0],"parents":[2147483647,0,0,1,1,2,2,3,3,4,4,5,5,6,6,7,7,8,8,9,9,10,10,11,11,12,12,13,13,14,14,19,19,20,20,21,21,22,22,23,23,27,27,29,29],"right_children":[2,4,6,8,10,12,14,16,18,20,22,24,26,28,30,-1,-1,-1,-1,32,34,36,38,40,-1,-1,-1,42,-1,44,-1,-1,-1,-1,-1,-1,-1,-1,-1,-1,-1,-1,-1,-1,-1],"split_conditions":[1E0,1E0,1.5842131E1,7.262E0,-4.2E0,5.4E0,1E0,1E0,1E-1,2.2E0,1.5842131E1,8.5573053E-1,2.4676845E0,5.02E1,4E2,7.597525E-2,-6.612436E-2,-6.709203E-2,-6.292986E-2,-1.32E1,-6.9E0,5.597601E0,1.594E2,7.484992E-1,-1.4853745E-2,1.3799197E-2,-3.913202E-2,1E0,6.968018E-2,4.47E1,5.6701124E-2,1.4975378E-2,6.8038516E-2,-4.2069722E-2,3.28591E-2,3.467843E-3,-6.563549E-2,-1.2771256E-2,2.7117113E-2,1.5449122E-2,6.655044E-2,-5.618173E-2,5.5870503E-2,-3.622438E-2,-6.608163E-2],"split_indices":[3,5,1,7,1,0,4,4,0,0,1,6,7,2,2,0,0,0,0,1,1,7,1,6,0,0,0,5,0,2,0,0,0,0,0,0,0,0,0,0,0,0,0,0,0],"split_type":[0,0,0,0,0,0,0,0,0,0,0,0,0,0,0,0,0,0,0,0,0,0,0,0,0,0,0,0,0,0,0,0,0,0,0,0,0,0,0,0,0,0,0,0,0],"sum_hessian":[9.11386E3,7.5420264E3,1.5718341E3,1.6444371E3,5.8975894E3,1.4167363E3,1.5509772E2,1.8027252E2,1.4641647E3,1.5143112E3,4.383278E3,1.4142374E3,2.4989736E0,8.0868996E1,7.422873E1,1.04335815E2,7.59367E1,2.954178E2,1.1687468E3,1.116597E3,3.9771417E2,1.8716383E3,2.5116396E3,1.4129025E3,1.3349469E0,1.2581019E0,1.2408717E0,1.1946455E1,6.892254E1,6.85889E1,5.6398273E0,4.9513435E1,1.0670836E3,2.1827394E2,1.7944023E2,3.9888657E1,1.8317496E3,5.8798065E2,1.9236589E3,3.9067912E0,1.4089956E3,7.295656E0,4.6507993E0,9.594039E0,5.899486E1],"tree_param":{"num_deleted":"0","num_feature":"8","num_nodes":"45","size_leaf_vector":"1"}},{"base_weights":[2.7509958E-2],"categories":[],"categories_nodes":[],"categories_segments":[],"categories_sizes":[],"default_left":[0],"id":39,"left_children":[-1],"loss_changes":[0E0],"parents":[2147483647],"right_children":[-1],"split_conditions":[2.7509958E-3],"split_indices":[0],"split_type":[0],"sum_hessian":[1.8434769E0],"tree_param":{"num_deleted":"0","num_feature":"8","num_nodes":"1","size_leaf_vector":"1"}},{"base_weights":[-2.2542577E-4,-8.718207E-2,4.680526E-1,-1.4926992E-2,-5.278946E-1,-6.45146E-2,5.8834743E-1,4.1011894E-1,-1.3429981E-1,-1.9015104E-1,-5.7088345E-2,1.642625E-1,-6.1383266E-2,4.3192995E-1,6.66973E-1,-3.5063766E-2,6.2010264E-1,-2.4549248E-2,-4.7246242E-1,4.7049936E-2,-5.9129007E-2,-1.6641039E-1,4.1128054E-1,4.5659437E-4,7.275762E-1,-3.9721828E-2,6.708828E-1,3.164028E-2,-6.1876144E-2,6.556973E-3,6.5591976E-2,-2.1932995E-2,4.329104E-2,-5.5221852E-2,-1.5654994E-2,-5.7032075E-2,3.654284E-2,6.6948734E-2,-6.081462E-2,-4.1213065E-2,8.580609E-2,6.2950015E-2,-3.563559E-2,6.94322E-2,9.630723E-2,6.3604884E-2,7.584118E-2],"categories":[],"categories_nodes":[],"categories_segments":[],"categories_sizes":[],"default_left":[0,0,0,0,0,0,0,0,0,0,0,0,0,0,0,0,0,0,0,0,0,0,0,0,0,0,0,0,0,0,0,0,0,0,0,0,0,0,0,0,0,0,0,0,0,0,0],"id":40,"left_children":[1,3,5,7,9,11,13,15,17,19,-1,21,-1,23,25,27,29,31,33,35,-1,37,39,41,43,-1,45,-1,-1,-1,-1,-1,-1,-1,-1,-1,-1,-1,-1,-1,-1,-1,-1,-1,-1,-1,-1],"loss_changes":[3.1951407E2,2.1072594E2,7.8766266E1,2.8858835E2,1.3425201E1,2.8669937E1,1.2041687E1,1.1660513E2,1.6479077E2,1.0184848E1,0E0,1.3242157E1,0E0,4.3142372E1,3.0348816E0,8.239087E1,1.6789307E1,2.9890698E2,2.7326263E1,1.3575712E1,0E0,2.6134216E1,3.442173E1,3.1314062E1,9.0296936E-1,0E0,1.5399475E0,0E0,0E0,0E0,0E0,0E0,0E0,0E0,0E0,0E0,0E0,0E0,0E0,0E0,0E0,0E0,0E0,0E0,0E0,0E0,0E0],"parents":[2147483647,0,0,1,1,2,2,3,3,4,4,5,5,6,6,7,7,8,8,9,9,11,11,13,13,14,14,15,15,16,16,17,17,18,18,19,19,21,21,22,22,23,23,24,24,26,26],"right_children":[2,4,6,8,10,12,14,16,18,20,-1,22,-1,24,26,28,30,32,34,36,-1,38,40,42,44,-1,46,-1,-1,-1,-1,-1,-1,-1,-1,-1,-1,-1,-1,-1,-1,-1,-1,-1,-1,-1,-1],"split_conditions":[5.8E0,1E0,9.77E0,1E0,7.262E0,1.496E2,7.9E0,1E-1,1.594E2,1.506E2,-5.7088345E-2,1E0,-6.1383266E-2,1E0,9.1E0,1.588E2,9.424E0,7E0,1.7E0,1E0,-5.9129007E-2,-8.3E0,-4.2E0,-7.9E0,1.604E2,-3.9721828E-2,-7E-1,3.164028E-2,-6.1876144E-2,6.556973E-3,6.5591976E-2,-2.1932995E-2,4.329104E-2,-5.5221852E-2,-1.5654994E-2,-5.7032075E-2,3.654284E-2,6.6948734E-2,-6.081462E-2,-4.1213065E-2,8.580609E-2,6.2950015E-2,-3.563559E-2,6.94322E-2,9.630723E-2,6.3604884E-2,7.584118E-2],"split_indices":[0,3,7,5,7,1,0,0,1,1,0,4,0,4,2,1,7,1,0,4,0,1,1,1,1,0,1,0,0,0,0,0,0,0,0,0,0,0,0,0,0,0,0,0,0,0,0],"split_type":[0,0,0,0,0,0,0,0,0,0,0,0,0,0,0,0,0,0,0,0,0,0,0,0,0,0,0,0,0,0,0,0,0,0,0,0,0,0,0,0,0,0,0,0,0,0,0],"sum_hessian":[7.844633E3,6.6167524E3,1.2278805E3,5.6856245E3,