{"learner":{"attributes":{"scikit_learn":"{\"_estimator_type\": \"classifier\"}"},"feature_names":[],"feature_types":[],"gradient_booster":{"model":{"cats":{"enc":[],"feature_segments":[],"sorted_idx":[]},"gbtree_model_param":{"num_parallel_tree":"1","num_trees":"720"},"iteration_indptr":[0,6,12,18,24,30,36,42,48,54,60,66,72,78,84,90,96,102,108,114,120,126,132,138,144,150,156,162,168,174,180,186,192,198,204,210,216,222,228,234,240,246,252,258,264,270,276,282,288,294,300,306,312,318,324,330,336,342,348,354,360,366,372,378,384,390,396,402,408,414,420,426,432,438,444,450,456,462,468,474,480,486,492,498,504,510,516,522,528,534,540,546,552,558,564,570,576,582,588,594,600,606,612,618,624,630,636,642,648,654,660,666,672,678,684,690,696,702,708,714,720],"tree_info":[0,1,2,3,4,5,0,1,2,3,4,5,0,1,2,3,4,5,0,1,2,3,4,5,0,1,2,3,4,5,0,1,2,3,4,5,0,1,2,3,4,5,0,1,2,3,4,5,0,1,2,3,4,5,0,1,2,3,4,5,0,1,2,3,4,5,0,1,2,3,4,5,0,1,2,3,4,5,0,1,2,3,4,5,0,1,2,3,4,5,0,1,2,3,4,5,0,1,2,3,4,5,0,1,2,3,4,5,0,1,2,3,4,5,0,1,2,3,4,5,0,1,2,3,4,5,0,1,2,3,4,5,0,1,2,3,4,5,0,1,2,3,4,5,0,1,2,3,4,5,0,1,2,3,4,5,0,1,2,3,4,5,0,1,2,3,4,5,0,1,2,3,4,5,0,1,2,3,4,5,0,1,2,3,4,5,0,1,2,3,4,5,0,1,2,3,4,5,0,1,2,3,4,5,0,1,2,3,4,5,0,1,2,3,4,5,0,1,2,3,4,5,0,1,2,3,4,5,0,1,2,3,4,5,0,1,2,3,4,5,0,1,2,3,4,5,0,1,2,3,4,5,0,1,2,3,4,5,0,1,2,3,4,5,0,1,2,3,4,5,0,1,2,3,4,5,0,1,2,3,4,5,0,1,2,3,4,5,0,1,2,3,4,5,0,1,2,3,4,5,0,1,2,3,4,5,0,1,2,3,4,5,0,1,2,3,4,5,0,1,2,3,4,5,0,1,2,3,4,5,0,1,2,3,4,5,0,1,2,3,4,5,0,1,2,3,4,5,0,1,2,3,4,5,0,1,2,3,4,5,0,1,2,3,4,5,0,1,2,3,4,5,0,1,2,3,4,5,0,1,2,3,4,5,0,1,2,3,4,5,0,1,2,3,4,5,0,1,2,3,4,5,0,1,2,3,4,5,0,1,2,3,4,5,0,1,2,3,4,5,0,1,2,3,4,5,0,1,2,3,4,5,0,1,2,3,4,5,0,1,2,3,4,5,0,1,2,3,4,5,0,1,2,3,4,5,0,1,2,3,4,5,0,1,2,3,4,5,0,1,2,3,4,5,0,1,2,3,4,5,0,1,2,3,4,5,0,1,2,3,4,5,0,1,2,3,4,5,0,1,2,3,4,5,0,1,2,3,4,5,0,1,2,3,4,5,0,1,2,3,4,5,0,1,2,3,4,5,0,1,2,3,4,5,0,1,2,3,4,5,0,1,2,3,4,5,0,1,2,3,4,5,0,1,2,3,4,5,0,1,2,3,4,5,0,1,2,3,4,5,0,1,2,3,4,5,0,1,2,3,4,5,0,1,2,3,4,5,0,1,2,3,4,5,0,1,2,3,4,5,0,1,2,3,4,5,0,1,2,3,4,5,0,1,2,3,4,5,0,1,2,3,4,5,0,1,2,3,4,5,0,1,2,3,4,5,0,1,2,3,4,5,0,1,2,3,4,5,0,1,2,3,4,5,0,1,2,3,4,5,0,1,2,3,4,5,0,1,2,3,4,5,0,1,2,3,4,5,0,1,2,3,4,5,0,1,2,3,4,5,0,1,2,3,4,5,0,1,2,3,4,5,0,1,2,3,4,5,0,1,2,3,4,5,0,1,2,3,4,5],"trees":[{"base_weights":[-2.1646263E-5,1.5060066E0,-4.9148765E-1,1.6346108E-2,-5.0392944E-2],"categories":[],"categories_nodes":[],"categories_segments":[],"categories_sizes":[],"default_left":[0,0,0,0,0],"id":0,"left_children":[1,-1,3,-1,-1],"loss_changes":[6.093483E2,0E0,7.320347E-1,0E0,0E0],"parents":[2147483647,0,0,2,2],"right_children":[2,-1,4,-1,-1],"split_conditions":[9.93978E0,1.5060066E0,1.7770226E1,1.6346108E-2,-5.0392944E-2],"split_indices":[2,0,2,0,0],"split_type":[0,0,0,0,0],"sum_hessian":[8.03274E1,1.6017427E0,7.872566E1,1.2413507E0,7.748431E1],"tree_param":{"num_deleted":"0","num_feature":"8","num_nodes":"5","size_leaf_vector":"1"}},{"base_weights":[-8.423481E-10,5.302371E-1,-5.506377E-1,-5.258144E-1,1.7038145E0,-1.9122778E-1,-5.9488505E-2,-9.081262E-2,-5.927182E-2,2.2651923E0,-5.037529E-1,-5.7211887E-2,9.0810233E-1,-5.6006234E-2,1.1952069E0,-5.2656496E-1,2.983642E0,2.9514868E-2,-5.742536E-2,1.6011215E0,-2.6200162E-2,-3.117579E-2,1.6011216E-1,1.6636623E-2,-5.6955E-2,6.4449035E-2,3.006526E-1,-3.117579E-2,2.24468E-1,-4.2452108E-2,6.4449035E-2],"categories":[],"categories_nodes":[],"categories_segments":[],"categories_sizes":[],"default_left":[0,0,0,0,0,0,0,0,0,0,0,0,0,0,0,0,0,0,0,0,0,0,0,0,0,0,0,0,0,0,0],"id":1,"left_children":[1,3,5,7,9,11,-1,13,-1,15,17,-1,19,-1,21,23,25,-1,-1,27,29,-1,-1,-1,-1,-1,-1,-1,-1,-1,-1],"loss_changes":[1.6040483E2,3.4776755E2,4.172249E0,4.255802E0,1.6571674E2,1.3506906E1,0E0,1.3293867E1,0E0,2.1429474E2,1.7320037E0,0E0,5.459931E0,0E0,4.1153936E0,7.6663685E-1,2.5855713E0,0E0,0E0,6.633795E0,1.4884375E0,0E0,0E0,0E0,0E0,0E0,0E0,0E0,0E0,0E0,0E0],"parents":[2147483647,0,0,1,1,2,2,3,3,4,4,5,5,7,7,9,9,10,10,12,12,14,14,15,15,16,16,19,19,20,20],"right_children":[2,4,6,8,10,12,-1,14,-1,16,18,-1,20,-1,22,24,26,-1,-1,28,30,-1,-1,-1,-1,-1,-1,-1,-1,-1,-1],"split_conditions":[1E0,1.4964738E2,4.8862297E1,4.7599937E1,7.073502E0,1E0,-5.9488505E-2,1E0,-5.927182E-2,-7.0148864E0,1.5846931E2,-5.7211887E-2,1E0,-5.6006234E-2,1.3827486E1,2.4357574E1,1.142472E1,2.9514868E-2,-5.742536E-2,7.3054924E0,2E0,-3.117579E-2,1.6011216E-1,1.6636623E-2,-5.6955E-2,6.4449035E-2,3.006526E-1,-3.117579E-2,2.24468E-1,-4.2452108E-2,6.4449035E-2],"split_indices":[4,1,2,2,0,3,0,3,0,0,1,0,5,0,2,2,2,0,0,2,3,0,0,0,0,0,0,0,0,0,0],"split_type":[0,0,0,0,0,0,0,0,0,0,0,0,0,0,0,0,0,0,0,0,0,0,0,0,0,0,0,0,0,0,0],"sum_hessian":[5.4739087E2,2.788801E2,2.6851077E2,1.470806E2,1.317995E2,3.0016447E1,2.3849432E2,1.9920006E1,1.2716059E2,1.0505757E2,2.6741926E1,2.2648775E1,7.3676734E0,1.5008224E1,4.9117823E0,2.1557266E1,8.35003E1,1.9101377E0,2.4831789E1,3.8202753E0,3.5473983E0,1.0915072E0,3.8202753E0,1.0915072E0,2.046576E1,1.0915072E0,8.240879E1,1.0915072E0,2.7287679E0,2.4558911E0,1.0915072E0],"tree_param":{"num_deleted":"0","num_feature":"8","num_nodes":"31","size_leaf_vector":"1"}},{"base_weights":[2.6799844E-7,-6.0294896E-1,6.4127445E-1,-6.062121E-2,-3.2517555E-1,1.520459E-1,2.6686132E0,-4.7341265E-2,1.3275993E-2,2.6081023E0,-5.880113E-1,1.3275993E-2,2.720872E-1,7.6742554E-1,2.733124E-1,-5.9352297E-1,1.3275993E-2,1.3698517E-1,-3.612876E-2,4.4731027E-3,-5.9909265E-2],"categories":[],"categories_nodes":[],"categories_segments":[],"categories_sizes":[],"default_left":[0,0,0,0,0,0,0,0,0,0,0,0,0,0,0,0,0,0,0,0,0],"id":2,"left_children":[1,3,5,-1,7,9,11,-1,-1,13,15,-1,-1,17,-1,19,-1,-1,-1,-1,-1],"loss_changes":[2.2771399E2,7.79953E-2,2.8265894E2,0E0,4.485216E-1,4.2135776E2,6.9832153E0,0E0,0E0,1.025235E1,7.871437E-1,0E0,0E0,3.7612286E0,0E0,6.565094E-1,0E0,0E0,0E0,0E0,0E0],"parents":[2147483647,0,0,1,1,2,2,4,4,5,5,6,6,9,9,10,10,13,13,15,15],"right_children":[2,4,6,-1,8,10,12,-1,-1,14,16,-1,-1,18,-1,20,-1,-1,-1,-1,-1],"split_conditions":[1.523031E2,1.4964738E2,7.073502E0,-6.062121E-2,2.1453023E0,-7.0148864E0,1.142472E1,-4.7341265E-2,1.3275993E-2,2.708222E1,2.992944E2,1.3275993E-2,2.720872E-1,1E0,2.733124E-1,-6.873648E0,1.3275993E-2,1.3698517E-1,-3.612876E-2,4.4731027E-3,-5.9909265E-2],"split_indices":[1,1,0,0,0,0,2,0,0,2,1,0,0,3,0,0,0,0,0,0,0],"split_type":[0,0,0,0,0,0,0,0,0,0,0,0,0,0,0,0,0,0,0,0,0],"sum_hessian":[5.8693207E2,3.0253625E2,2.8439578E2,2.9785486E2,4.681412E0,2.2997438E2,5.4421417E1,3.5110593E0,1.170353E0,5.2665886E1,1.7730849E2,1.170353E0,5.3251064E1,3.8036475E0,4.886224E1,1.7613814E2,1.170353E0,2.340706E0,1.4629413E0,1.4629413E0,1.7467519E2],"tree_param":{"num_deleted":"0","num_feature":"8","num_nodes":"21","size_leaf_vector":"1"}},{"base_weights":[5.7491375E-6,6.476497E-1,-6.6726124E-1,-1.2241578E-1,6.972944E-1,-1.322634E-1,-3.751659E-2,7.329928E-1,-1.2686887E-1,2.4479051E-1,-1.2980805E-1,-1.3440253E-1,7.58562E-1,7.337987E-2,-1.1878858E-1,-1.2184039E0,7.219841E-1,5.9006225E-2,-1.11293875E-1,4.332712E-2,7.945897E-2,-5.251642E-2,-1.2974136E-1,-1.0491114E-1,7.753934E-2],"categories":[],"categories_nodes":[],"categories_segments":[],"categories_sizes":[],"default_left":[0,0,0,0,0,0,0,0,0,0,0,0,0,0,0,0,0,0,0,0,0,0,0,0,0],"id":3,"left_children":[1,3,5,-1,7,-1,9,11,13,15,-1,17,19,-1,-1,21,23,-1,-1,-1,-1,-1,-1,-1,-1],"loss_changes":[4.0781378E2,4.5353943E1,1.9178136E2,0E0,1.3837051E1,0E0,8.503655E1,1.0035782E1,1.9360655E1,1.3727501E2,0E0,1.0350898E1,4.7563324E0,0E0,0E0,1.9703445E0,1.4806854E1,0E0,0E0,0E0,0E0,0E0,0E0,0E0,0E0],"parents":[2147483647,0,0,1,1,2,2,4,4,6,6,7,7,8,8,9,9,11,11,12,12,15,15,16,16],"right_children":[2,4,6,-1,8,-1,10,12,14,16,-1,18,20,-1,-1,22,24,-1,-1,-1,-1,-1,-1,-1,-1],"split_conditions":[1.4964738E2,9.93978E0,1E0,-1.2241578E-1,1.522326E1,-1.322634E-1,6.9298015E0,-1.4963657E1,1E0,-7.2071757E0,-1.2980805E-1,1E0,4.8862297E1,7.337987E-2,-1.1878858E-1,4.8862297E1,9.93978E0,5.9006225E-2,-1.11293875E-1,4.332712E-2,7.945897E-2,-5.251642E-2,-1.2974136E-1,-1.0491114E-1,7.753934E-2],"split_indices":[1,2,4,0,0,0,0,0,4,0,0,4,2,0,0,2,2,0,0,0,0,0,0,0,0],"split_type":[0,0,0,0,0,0,0,0,0,0,0,0,0,0,0,0,0,0,0,0,0,0,0,0,0],"sum_hessian":[9.416826E2,4.778828E2,4.637998E2,1.1735826E1,4.6614697E2,2.2673615E2,2.3706367E2,4.4690024E2,1.9246754E1,1.9434526E2,4.2718403E1,1.2674691E1,4.3422552E2,1.0796959E1,8.449794E0,4.7412735E1,1.4693253E2,7.510928E0,5.163763E0,4.4596134E1,3.896294E2,5.633196E0,4.1779537E1,3.755464E0,1.4317706E2],"tree_param":{"num_deleted":"0","num_feature":"8","num_nodes":"25","size_leaf_vector":"1"}},{"base_weights":[-6.6606E-4,-2.5031237E-2,2.4931302E-2],"categories":[],"categories_nodes":[],"categories_segments":[],"categories_sizes":[],"default_left":[0,0,0],"id":4,"left_children":[1,-1,-1],"loss_changes":[2.4981238E-1,0E0,0E0],"parents":[2147483647,0,0],"right_children":[2,-1,-1],"split_conditions":[-8.641911E-2,-2.5031237E-2,2.4931302E-2],"split_indices":[0,0,0],"split_type":[0,0,0],"sum_hessian":[2.0029995E0,1.0014998E0,1.0014998E0],"tree_param":{"num_deleted":"0","num_feature":"8","num_nodes":"3","size_leaf_vector":"1"}},{"base_weights":[-3.1360567E-5,-3.0142492E-1,5.135553E0,3.609318E-1,-4.9795534E-2,7.359813E-1,2.263791E-2],"categories":[],"categories_nodes":[],"categories_segments":[],"categories_sizes":[],"default_left":[0,0,0,0,0,0,0],"id":5,"left_children":[1,3,5,-1,-1,-1,-1],"loss_changes":[9.157773E1,4.4749603E1,3.4146545E1,0E0,0E0,0E0,0E0],"parents":[2147483647,0,0,1,1,2,2],"right_children":[2,4,6,-1,-1,-1,-1],"split_conditions":[1.4699094E1,-1.4963657E1,1.358995E2,3.609318E-1,-4.9795534E-2,7.359813E-1,2.263791E-2],"split_indices":[0,0,1,0,0,0,0],"split_type":[0,0,0,0,0,0,0],"sum_hessian":[5.716506E1,5.4885296E1,2.279763E0,1.7953135E0,5.308998E1,1.2253727E0,1.0543904E0],"tree_param":{"num_deleted":"0","num_feature":"8","num_nodes":"7","size_leaf_vector":"1"}},{"base_weights":[-9.232723E-3,4.6001512E-1,-5.030952E-2],"categories":[],"categories_nodes":[],"categories_segments":[],"categories_sizes":[],"default_left":[0,0,0],"id":6,"left_children":[1,-1,-1],"loss_changes":[1.8977806E2,0E0,0E0],"parents":[2147483647,0,0],"right_children":[2,-1,-1],"split_conditions":[1.142472E1,4.6001512E-1,-5.030952E-2],"split_indices":[2,0,0],"split_type":[0,0,0],"sum_hessian":[8.135091E1,7.068025E0,7.428288E1],"tree_param":{"num_deleted":"0","num_feature":"8","num_nodes":"3","size_leaf_vector":"1"}},{"base_weights":[-3.0833103E-3,4.636442E-1,-5.4062736E-1,-5.124766E-1,1.3301233E0,-1.7895643E-1,-5.8676954E-2,-8.073128E-2,-5.82685E-2,1.7065607E0,-5.005161E-1,-5.645131E-2,8.382309E-1,-5.5241317E-2,1.0882597E0,-5.230277E-1,2.1473575E0,2.60198E-2,-5.7111967E-2,1.4240892E0,-2.2199215E-2,1.4649226E-1,-3.21712E-2,1.4379564E-2,-5.661229E-2,5.821689E-2,2.1592839E-1,-3.0870775E-2,1.9504716E-1,-4.1781332E-2,6.1393272E-2],"categories":[],"categories_nodes":[],"categories_segments":[],"categories_sizes":[],"default_left":[0,0,0,0,0,0,0,0,0,0,0,0,0,0,0,0,0,0,0,0,0,0,0,0,0,0,0,0,0,0,0],"id":7,"left_children":[1,3,5,7,9,11,-1,13,-1,15,17,-1,19,-1,21,23,25,-1,-1,27,29,-1,-1,-1,-1,-1,-1,-1,-1,-1,-1],"loss_changes":[1.3764616E2,2.4906158E2,4.150055E0,4.1608315E0,1.0825278E2,1.2351588E1,0E0,1.194735E1,0E0,1.2838925E2,1.6177974E0,0E0,4.430971E0,0E0,3.7919078E0,7.1877575E-1,7.64801E-1,0E0,0E0,5.3518972E0,1.3939972E0,0E0,0E0,0E0,0E0,0E0,0E0,0E0,0E0,0E0,0E0],"parents":[2147483647,0,0,1,1,2,2,3,3,4,4,5,5,7,7,9,9,10,10,12,12,14,14,15,15,16,16,19,19,20,20],"right_children":[2,4,6,8,10,12,-1,14,-1,16,18,-1,20,-1,22,24,26,-1,-1,28,30,-1,-1,-1,-1,-1,-1,-1,-1,-1,-1],"split_conditions":[1E0,1.4964738E2,4.8862297E1,4.7599937E1,7.073502E0,1E0,-5.8676954E-2,1E0,-5.82685E-2,-7.0148864E0,1.5846931E2,-5.645131E-2,1E0,-5.5241317E-2,8.4200007E-1,2.4357574E1,1.142472E1,2.60198E-2,-5.7111967E-2,7.3054924E0,2E0,1.4649226E-1,-3.21712E-2,1.4379564E-2,-5.661229E-2,5.821689E-2,2.1592839E-1,-3.0870775E-2,1.9504716E-1,-4.1781332E-2,6.1393272E-2],"split_indices":[4,1,2,2,0,3,0,3,0,0,1,0,5,0,6,2,2,0,0,2,3,0,0,0,0,0,0,0,0,0,0],"split_type":[0,0,0,0,0,0,0,0,0,0,0,0,0,0,0,0,0,0,0,0,0,0,0,0,0,0,0,0,0,0,0],"sum_hessian":[5.466399E2,2.9266678E2,2.5397311E2,1.3781812E2,1.5484866E2,2.9287863E1,2.2468526E2,1.9577345E1,1.1824077E2,1.28494E2,2.635466E1,2.1560541E1,7.727323E0,1.4324804E1,5.252541E0,2.1179531E1,1.0731447E2,2.0102286E0,2.4344433E1,4.2074337E0,3.5198894E0,4.11443E0,1.1381109E0,1.1438432E0,2.0035688E1,1.1882186E0,1.0612625E2,1.0766712E0,3.1307623E0,2.3818192E0,1.1380701E0],"tree_param":{"num_deleted":"0","num_feature":"8","num_nodes":"31","size_leaf_vector":"1"}},{"base_weights":[-2.7729867E-3,-5.9230804E-1,5.489278E-1,-5.9566736E-2,-3.1850278E-1,1.283436E-1,1.9818398E0,1.4593265E-2,-4.6992693E-2,1.9522747E0,-5.801411E-1,1.1574438E-2,2.013557E-1,6.7891E-1,2.0251825E-1,-5.858149E-1,1.201149E-2,1.2025489E-1,-3.6267396E-2,5.3450647E-3,-5.9160262E-2],"categories":[],"categories_nodes":[],"categories_segments":[],"categories_sizes":[],"default_left":[0,0,0,0,0,0,0,0,0,0,0,0,0,0,0,0,0,0,0,0,0],"id":8,"left_children":[1,3,5,-1,7,9,11,-1,-1,13,15,-1,-1,17,-1,19,-1,-1,-1,-1,-1],"loss_changes":[1.9112515E2,7.156372E-2,1.8268832E2,0E0,4.6185875E-1,3.0577026E2,3.8398132E0,0E0,0E0,4.769394E0,7.480316E-1,0E0,0E0,3.2114437E0,0E0,6.5823746E-1,0E0,0E0,0E0,0E0,0E0],"parents":[2147483647,0,0,1,1,2,2,4,4,5,5,6,6,9,9,10,10,13,13,15,15],"right_children":[2,4,6,-1,8,10,12,-1,-1,14,16,-1,-1,18,-1,20,-1,-1,-1,-1,-1],"split_conditions":[1.523031E2,1.4964738E2,7.073502E0,-5.9566736E-2,6.1292577E-1,-7.0148864E0,1.142472E1,1.4593265E-2,-4.6992693E-2,2.708222E1,2.992944E2,1.1574438E-2,2.013557E-1,1E0,2.0251825E-1,-6.873648E0,1.201149E-2,1.2025489E-1,-3.6267396E-2,5.3450647E-3,-5.9160262E-2],"split_indices":[1,1,0,0,6,0,2,0,0,2,1,0,0,3,0,0,0,0,0,0,0],"split_type":[0,0,0,0,0,0,0,0,0,0,0,0,0,0,0,0,0,0,0,0,0],"sum_hessian":[5.856313E2,2.8307263E2,3.0255865E2,2.7848044E2,4.5921984E0,2.347462E2,6.7812454E1,1.1380212E0,3.4541771E0,6.518294E1,1.6956326E2,1.211021E0,6.660143E1,4.0884495E0,6.109449E1,1.6836253E2,1.2007227E0,2.6178372E0,1.4706124E0,1.4367332E0,1.6692581E2],"tree_param":{"num_deleted":"0","num_feature":"8","num_nodes":"21","size_leaf_vector":"1"}},{"base_weights":[3.9622146E-3,6.112078E-1,-5.89296E-1,-1.0569169E-1,6.5902954E-1,-1.14301644E-1,-2.9803703E-2,6.943035E-1,-1.2861516E-1,2.3070692E-1,-1.12523735E-1,-1.467068E-1,7.1986365E-1,7.085657E-2,-1.1163088E-1,-1.057345E0,6.8469876E-1,5.6210686E-2,-1.0675024E-1,4.042506E-2,7.55462E-2,-4.6549167E-2,-1.1232684E-1,-9.182705E-2,7.3666535E-2],"categories":[],"categories_nodes":[],"categories_segments":[],"categories_sizes":[],"default_left":[0,0,0,0,0,0,0,0,0,0,0,0,0,0,0,0,0,0,0,0,0,0,0,0,0],"id":9,"left_children":[1,3,5,-1,7,-1,9,11,13,15,-1,17,19,-1,-1,21,23,-1,-1,-1,-1,-1,-1,-1,-1],"loss_changes":[3.3798248E2,3.7680862E1,1.4698535E2,0E0,1.2628403E1,0E0,6.7914444E1,9.394745E0,1.7484941E1,1.1320795E2,0E0,9.461133E0,4.408386E0,0E0,0E0,1.4483795E0,1.25746765E1,0E0,0E0,0E0,0E0,0E0,0E0,0E0,0E0],"parents":[2147483647,0,0,1,1,2,2,4,4,6,6,7,7,8,8,9,9,11,11,12,12,15,15,16,16],"right_children":[2,4,6,-1,8,-1,10,12,14,16,-1,18,20,-1,-1,22,24,-1,-1,-1,-1,-1,-1,-1,-1],"split_conditions":[1.4964738E2,9.93978E0,1E0,-1.0569169E-1,1.522326E1,-1.14301644E-1,6.9298015E0,-1.4963657E1,1E0,-7.2071757E0,-1.12523735E-1,1E0,4.8862297E1,7.085657E-2,-1.1163088E-1,4.8862297E1,9.93978E0,5.6210686E-2,-1.0675024E-1,4.042506E-2,7.55462E-2,-4.6549167E-2,-1.1232684E-1,-9.182705E-2,7.3666535E-2],"split_indices":[1,2,4,0,0,0,0,0,4,0,0,4,2,0,0,2,2,0,0,0,0,0,0,0,0],"split_type":[0,0,0,0,0,0,0,0,0,0,0,0,0,0,0,0,0,0,0,0,0,0,0,0,0],"sum_hessian":[9.3618E2,4.6262125E2,4.7355878E2,1.2304743E1,4.503165E2,2.3748286E2,2.360759E2,4.3112735E2,1.918914E1,1.9135757E2,4.4718323E1,1.2576613E1,4.1855072E2,1.0538873E1,8.650268E0,4.952311E1,1.4183447E2,7.326406E0,5.250208E0,4.3676098E1,3.7487463E2,5.771174E0,4.3751938E1,3.9302683E0,1.379042E2],"tree_param":{"num_deleted":"0","num_feature":"8","num_nodes":"25","size_leaf_vector":"1"}},{"base_weights":[1.0828682E-3],"categories":[],"categories_nodes":[],"categories_segments":[],"categories_sizes":[],"default_left":[0],"id":10,"left_children":[-1],"loss_changes":[0E0],"parents":[2147483647],"right_children":[-1],"split_conditions":[1.0828682E-4],"split_indices":[0],"split_type":[0],"sum_hessian":[1.9925268E0],"tree_param":{"num_deleted":"0","num_feature":"8","num_nodes":"1","size_leaf_vector":"1"}},{"base_weights":[6.251713E-3,-2.9318973E-1,3.4729521E0,2.6756625E0,-4.9702175E-2,-3.4215067E-2,6.5086216E-1,-3.0364279E-2,4.8543105E-1],"categories":[],"categories_nodes":[],"categories_segments":[],"categories_sizes":[],"default_left":[0,0,0,0,0,0,0,0,0],"id":11,"left_children":[1,3,5,7,-1,-1,-1,-1,-1],"loss_changes":[6.06382E1,3.38801E1,5.6014374E1,2.4921404E1,0E0,0E0,0E0,0E0,0E0],"parents":[2147483647,0,0,1,1,2,2,3,3],"right_children":[2,4,6,8,-1,-1,-1,-1,-1],"split_conditions":[1.4699094E1,-1.4963657E1,1E0,1E0,-4.9702175E-2,-3.4215067E-2,6.5086216E-1,-3.0364279E-2,4.8543105E-1],"split_indices":[0,0,4,4,0,0,0,0,0],"split_type":[0,0,0,0,0,0,0,0,0],"sum_hessian":[5.6433266E1,5.2788967E1,3.644299E0,2.6123776E0,5.017659E1,2.008008E0,1.636291E0,1.4669493E0,1.1454283E0],"tree_param":{"num_deleted":"0","num_feature":"8","num_nodes":"9","size_leaf_vector":"1"}},{"base_weights":[-1.0293916E-2,2.979141E-1,-5.0210197E-2],"categories":[],"categories_nodes":[],"categories_segments":[],"categories_sizes":[],"default_left":[0,0,0],"id":12,"left_children":[1,-1,-1],"loss_changes":[1.2141729E2,0E0,0E0],"parents":[2147483647,0,0],"right_children":[2,-1,-1],"split_conditions":[1.142472E1,2.979141E-1,-5.0210197E-2],"split_indices":[2,0,0],"split_type":[0,0,0],"sum_hessian":[8.0566574E1,1.0667442E1,6.989913E1],"tree_param":{"num_deleted":"0","num_feature":"8","num_nodes":"3","size_leaf_vector":"1"}},{"base_weights":[-4.5654303E-3,4.152437E-1,-5.3090674E-1,-4.9998304E-1,1.1038189E0,-1.6692674E-1,-5.791324E-2,-7.153931E-2,-5.737349E-2,1.387282E0,-4.9489924E-1,-5.5728924E-2,7.8032535E-1,-5.4523226E-2,9.970818E-1,-5.175873E-1,1.7027895E0,2.3395346E-2,-5.663088E-2,1.2857099E0,-1.784853E-2,1.3229291E-1,-3.1633135E-2,1.26122115E-2,-5.6115862E-2,1.7104459E-1,5.104384E-2,-3.0584464E-2,1.7315881E-1,-4.112082E-2,5.8733936E-2],"categories":[],"categories_nodes":[],"categories_segments":[],"categories_sizes":[],"default_left":[0,0,0,0,0,0,0,0,0,0,0,0,0,0,0,0,0,0,0,0,0,0,0,0,0,0,0,0,0,0,0],"id":13,"left_children":[1,3,5,7,9,11,-1,13,-1,15,17,-1,19,-1,21,23,25,-1,-1,27,29,-1,-1,-1,-1,-1,-1,-1,-1,-1,-1],"loss_changes":[1.19637054E2,1.9037212E2,4.120163E0,4.0669975E0,7.87227E1,1.1347095E1,0E0,1.0786661E1,0E0,8.8944244E1,1.5206165E0,0E0,3.6650624E0,0E0,3.2295666E0,6.7625475E-1,2.7661133E-1,0E0,0E0,4.4624977E0,1.3096237E0,0E0,0E0,0E0,0E0,0E0,0E0,0E0,0E0,0E0,0E0],"parents":[2147483647,0,0,1,1,2,2,3,3,4,4,5,5,7,7,9,9,10,10,12,12,14,14,15,15,16,16,19,19,20,20],"right_children":[2,4,6,8,10,12,-1,14,-1,16,18,-1,20,-1,22,24,26,-1,-1,28,30,-1,-1,-1,-1,-1,-1,-1,-1,-1,-1],"split_conditions":[1E0,1.4964738E2,4.8862297E1,4.7599937E1,7.073502E0,1E0,-5.791324E-2,1E0,-5.737349E-2,-7.0148864E0,1.5846931E2,-5.5728924E-2,1E0,-5.4523226E-2,8.4200007E-1,2.4357574E1,6.7896776E0,2.3395346E-2,-5.663088E-2,7.3054924E0,2E0,1.3229291E-1,-3.1633135E-2,1.26122115E-2,-5.6115862E-2,1.7104459E-1,5.104384E-2,-3.0584464E-2,1.7315881E-1,-4.112082E-2,5.8733936E-2],"split_indices":[4,1,2,2,0,3,0,3,0,0,1,0,5,0,6,2,0,0,0,2,3,0,0,0,0,0,0,0,0,0,0],"split_type":[0,0,0,0,0,0,0,0,0,0,0,0,0,0,0,0,0,0,0,0,0,0,0,0,0,0,0,0,0,0,0],"sum_hessian":[5.394374E2,3.0020517E2,2.3923218E2,1.2900748E2,1.7119771E2,2.851072E1,2.1072145E2,1.9235195E1,1.0977228E2,1.4552707E2,2.5670635E1,2.0481836E1,8.028884E0,1.3666817E1,5.5683775E0,2.0587864E1,1.249392E2,2.0875459E0,2.358309E1,4.5421133E0,3.4867709E0,4.455707E0,1.1126704E0,1.1850889E0,1.9402775E1,1.2371032E2,1.2288852E0,1.0627407E0,3.4793725E0,2.3074827E0,1.1792881E0],"tree_param":{"num_deleted":"0","num_feature":"8","num_nodes":"31","size_leaf_vector":"1"}},{"base_weights":[-4.247947E-3,-5.8281636E-1,4.8435774E-1,-5.863111E-2,-3.1003982E-1,1.1184314E-1,1.5990162E0,1.45105375E-2,-4.628226E-2,1.5801674E0,-5.7200104E-1,1.0187789E-2,1.6217756E-1,6.0739785E-1,1.6308549E-1,-5.778899E-1,1.1336406E-2,1.0701231E-1,-3.6253363E-2,6.2930733E-3,-5.839432E-2],"categories":[],"categories_nodes":[],"categories_segments":[],"categories_sizes":[],"default_left":[0,0,0,0,0,0,0,0,0,0,0,0,0,0,0,0,0,0,0,0,0],"id":14,"left_children":[1,3,5,-1,7,9,11,-1,-1,13,15,-1,-1,17,-1,19,-1,-1,-1,-1,-1],"loss_changes":[1.6380817E2,7.1128845E-2,1.3026797E2,0E0,4.481036E-1,2.384163E2,2.513565E0,0E0,0E0,2.7284546E0,7.198067E-1,0E0,0E0,2.7796736E0,0E0,6.608887E-1,0E0,0E0,0E0,0E0,0E0],"parents":[2147483647,0,0,1,1,2,2,4,4,5,5,6,6,9,9,10,10,13,13,15,15],"right_children":[2,4,6,-1,8,10,12,-1,-1,14,16,-1,-1,18,-1,20,-1,-1,-1,-1,-1],"split_conditions":[1.523031E2,1.4964738E2,7.073502E0,-5.863111E-2,6.1292577E-1,-7.0148864E0,1.142472E1,1.45105375E-2,-4.628226E-2,2.708222E1,2.992944E2,1.0187789E-2,1.6217756E-1,1E0,1.6308549E-1,-6.873648E0,1.1336406E-2,1.0701231E-1,-3.6253363E-2,6.2930733E-3,-5.839432E-2],"split_indices":[1,1,0,0,6,0,2,0,0,2,1,0,0,3,0,0,0,0,0,0,0],"split_type":[0,0,0,0,0,0,0,0,0,0,0,0,0,0,0,0,0,0,0,0,0],"sum_hessian":[5.774599E2,2.6430173E2,3.1315814E2,2.5982352E2,4.4782066E0,2.3554143E2,7.761671E1,1.1380794E0,3.3401272E0,7.442601E1,1.6111542E2,1.2442644E0,7.6372444E1,4.3290014E0,7.0097015E1,1.5989835E2,1.217078E0,2.860869E0,1.4681325E0,1.4083657E0,1.5848997E2],"tree_param":{"num_deleted":"0","num_feature":"8","num_nodes":"21","size_leaf_vector":"1"}},{"base_weights":[5.445797E-3,5.7945377E-1,-5.3433555E-1,-9.5528714E-2,6.258899E-1,-1.0216987E-1,-2.4642935E-2,6.609447E-1,-1.3249901E-1,2.1853666E-1,-1.0045373E-1,-1.5931942E-1,6.86699E-1,6.7708194E-2,-1.03490464E-1,-9.440846E-1,6.526193E-1,5.317063E-2,-1.0151817E-1,3.774483E-2,7.22385E-2,-4.156613E-2,-1.0029789E-1,-8.3726734E-2,7.0363685E-2],"categories":[],"categories_nodes":[],"categories_segments":[],"categories_sizes":[],"default_left":[0,0,0,0,0,0,0,0,0,0,0,0,0,0,0,0,0,0,0,0,0,0,0,0,0],"id":15,"left_children":[1,3,5,-1,7,-1,9,11,13,15,-1,17,19,-1,-1,21,23,-1,-1,-1,-1,-1,-1,-1,-1],"loss_changes":[2.8499466E2,3.2366806E1,1.1773047E2,0E0,1.1606461E1,0E0,5.567911E1,8.861801E0,1.5294381E1,9.513449E1,0E0,8.478992E0,4.1624756E0,0E0,0E0,1.1803818E0,1.0999634E1,0E0,0E0,0E0,0E0,0E0,0E0,0E0,0E0],"parents":[2147483647,0,0,1,1,2,2,4,4,6,6,7,7,8,8,9,9,11,11,12,12,15,15,16,16],"right_children":[2,4,6,-1,8,-1,10,12,14,16,-1,18,20,-1,-1,22,24,-1,-1,-1,-1,-1,-1,-1,-1],"split_conditions":[1.4964738E2,9.93978E0,1E0,-9.5528714E-2,1.522326E1,-1.0216987E-1,6.9298015E0,-1.4963657E1,1E0,-7.2071757E0,-1.0045373E-1,1E0,4.8862297E1,6.7708194E-2,-1.03490464E-1,4.8862297E1,9.93978E0,5.317063E-2,-1.0151817E-1,3.774483E-2,7.22385E-2,-4.156613E-2,-1.0029789E-1,-8.3726734E-2,7.0363685E-2],"split_indices":[1,2,4,0,0,0,0,0,4,0,0,4,2,0,0,2,2,0,0,0,0,0,0,0,0],"split_type":[0,0,0,0,0,0,0,0,0,0,0,0,0,0,0,0,0,0,0,0,0,0,0,0,0],"sum_hessian":[9.178167E2,4.447705E2,4.7304617E2,1.2487256E1,4.3228326E2,2.4130658E2,2.317396E2,4.1330756E2,1.8975716E1,1.862861E2,4.5453495E1,1.2423924E1,4.008836E2,1.0133909E1,8.841807E0,5.0324646E1,1.3596146E2,7.083463E0,5.3404617E0,4.2671776E1,3.5821185E2,5.8544006E0,4.4470245E1,3.991274E0,1.3197017E2],"tree_param":{"num_deleted":"0","num_feature":"8","num_nodes":"25","size_leaf_vector":"1"}},{"base_weights":[4.7256774E-3],"categories":[],"categories_nodes":[],"categories_segments":[],"categories_sizes":[],"default_left":[0],"id":16,"left_children":[-1],"loss_changes":[0E0],"parents":[2147483647],"right_children":[-1],"split_conditions":[4.7256774E-4],"split_indices":[0],"split_type":[0],"sum_hessian":[1.9709475E0],"tree_param":{"num_deleted":"0","num_feature":"8","num_nodes":"1","size_leaf_vector":"1"}},{"base_weights":[1.319805E-2,-2.836091E-1,2.5287151E0,2.1531925E0,-4.9600117E-2,-3.3627704E-2,3.9308375E-1,4.088103E-1,-3.317152E-2],"categories":[],"categories_nodes":[],"categories_segments":[],"categories_sizes":[],"default_left":[0,0,0,0,0,0,0,0,0],"id":17,"left_children":[1,3,5,7,-1,-1,-1,-1,-1],"loss_changes":[4.294678E1,2.7717335E1,2.5706097E1,2.2104612E1,0E0,0E0,0E0,0E0,0E0],"parents":[2147483647,0,0,1,1,2,2,3,3],"right_children":[2,4,6,8,-1,-1,-1,-1,-1],"split_conditions":[1.4699094E1,-1.4963657E1,1E0,1.4964738E2,-4.9600117E-2,-3.3627704E-2,3.9308375E-1,4.088103E-1,-3.317152E-2],"split_indices":[0,0,4,1,0,0,0,0,0],"split_type":[0,0,0,0,0,0,0,0,0],"sum_hessian":[5.5560787E1,5.0490627E1,5.070159E0,3.3153512E0,4.7175278E1,1.9157741E0,3.1543849E0,1.5012263E0,1.8141251E0],"tree_param":{"num_deleted":"0","num_feature":"8","num_nodes":"9","size_leaf_vector":"1"}},{"base_weights":[-9.583807E-3,2.2336257E-1,-5.010558E-2],"categories":[],"categories_nodes":[],"categories_segments":[],"categories_sizes":[],"default_left":[0,0,0],"id":18,"left_children":[1,-1,-1],"loss_changes":[8.9391174E1,0E0,0E0],"parents":[2147483647,0,0],"right_children":[2,-1,-1],"split_conditions":[1.142472E1,2.2336257E-1,-5.010558E-2],"split_indices":[2,0,0],"split_type":[0,0,0],"sum_hessian":[7.906715E1,1.3572745E1,6.54944E1],"tree_param":{"num_deleted":"0","num_feature":"8","num_nodes":"3","size_leaf_vector":"1"}},{"base_weights":[-5.2026804E-3,3.7851545E-1,-5.215593E-1,-4.8798457E-1,9.513211E-1,-1.5489674E-1,-5.7205047E-2,-6.1981317E-2,-5.656156E-2,1.1796484E0,-4.8772845E-1,-5.5031836E-2,7.319113E-1,-5.3819295E-2,9.2212313E-1,-5.107852E-1,1.425417E0,2.1415146E-2,-5.605014E-2,-3.6679637E-2,1.0093178E0,-3.2322288E-2,1.2280809E-1,1.1249772E-2,-5.5515904E-2,4.389475E-2,1.4324962E-1,1.5610497E-1,7.1642855E-3],"categories":[],"categories_nodes":[],"categories_segments":[],"categories_sizes":[],"default_left":[0,0,0,0,0,0,0,0,0,0,0,0,0,0,0,0,0,0,0,0,0,0,0,0,0,0,0,0,0],"id":19,"left_children":[1,3,5,7,9,11,-1,13,-1,15,17,-1,19,-1,21,23,25,-1,-1,-1,27,-1,-1,-1,-1,-1,-1,-1,-1],"loss_changes":[1.0488413E2,1.5119641E2,4.08926E0,3.9837875E0,6.075972E1,1.0461825E1,0E0,9.80097E0,0E0,6.6527145E1,1.4373388E0,0E0,3.1972752E0,0E0,3.0043454E0,6.3882494E-1,3.3868408E-1,0E0,0E0,0E0,3.8573413E0,0E0,0E0,0E0,0E0,0E0,0E0,0E0,0E0],"parents":[2147483647,0,0,1,1,2,2,3,3,4,4,5,5,7,7,9,9,10,10,12,12,14,14,15,15,16,16,20,20],"right_children":[2,4,6,8,10,12,-1,14,-1,16,18,-1,20,-1,22,24,26,-1,-1,-1,28,-1,-1,-1,-1,-1,-1,-1,-1],"split_conditions":[1E0,1.4964738E2,4.8862297E1,4.7599937E1,7.073502E0,1E0,-5.7205047E-2,1E0,-5.656156E-2,-7.0148864E0,1.5846931E2,-5.5031836E-2,9.93978E0,-5.3819295E-2,1.3827486E1,2.4357574E1,1.142472E1,2.1415146E-2,-5.605014E-2,-3.6679637E-2,1E0,-3.2322288E-2,1.2280809E-1,1.1249772E-2,-5.5515904E-2,4.389475E-2,1.4324962E-1,1.5610497E-1,7.1642855E-3],"split_indices":[4,1,2,2,0,3,0,3,0,0,1,0,2,0,2,2,2,0,0,0,5,0,0,0,0,0,0,0,0],"split_type":[0,0,0,0,0,0,0,0,0,0,0,0,0,0,0,0,0,0,0,0,0,0,0,0,0,0,0,0,0],"sum_hessian":[5.273595E2,3.0268973E2,2.2466974E2,1.20521454E2,1.8216829E2,2.7685776E1,1.9698396E2,1.8854582E1,1.0166687E2,1.573781E2,2.4790184E1,1.9410297E1,8.275479E0,1.3011422E1,5.843159E0,1.9839657E1,1.3753845E2,2.1463494E0,2.2643835E1,1.6032696E0,6.6722093E0,1.1412945E0,4.7018647E0,1.2165478E0,1.8623108E1,1.4289042E0,1.3610954E2,3.7820354E0,2.890174E0],"tree_param":{"num_deleted":"0","num_feature":"8","num_nodes":"29","size_leaf_vector":"1"}},{"base_weights":[-5.054167E-3,-5.742431E-1,4.3627116E-1,-5.7819482E-2,-3.0994177E-1,9.953019E-2,1.3539476E0,1.811411E-2,-4.565505E-2,1.3386335E0,-5.638123E-1,9.186771E-3,1.3718544E-1,5.5524516E-3,1.3593956E0,-5.6996626E-1,1.1064245E-2,6.895437E-2,1.3781099E-1,7.287816E-3,-5.7633143E-2],"categories":[],"categories_nodes":[],"categories_segments":[],"categories_sizes":[],"default_left":[0,0,0,0,0,0,0,0,0,0,0,0,0,0,0,0,0,0,0,0,0],"id":20,"left_children":[1,3,5,-1,7,9,11,-1,-1,13,15,-1,-1,-1,17,19,-1,-1,-1,-1,-1],"loss_changes":[1.4217873E2,7.896423E-2,9.8386E1,0E0,5.0004834E-1,1.9334763E2,1.8063507E0,0E0,0E0,2.1088715E0,6.994095E-1,0E0,0E0,0E0,6.072998E-2,6.643295E-1,0E0,0E0,0E0,0E0,0E0],"parents":[2147483647,0,0,1,1,2,2,4,4,5,5,6,6,9,9,10,10,14,14,15,15],"right_children":[2,4,6,-1,8,10,12,-1,-1,14,16,-1,-1,-1,18,20,-1,-1,-1,-1,-1],"split_conditions":[1.523031E2,3.9466486E2,7.073502E0,-5.7819482E-2,5.799314E-1,-7.0148864E0,1.142472E1,1.811411E-2,-4.565505E-2,1.56829605E1,2.992944E2,9.186771E-3,1.3718544E-1,5.5524516E-3,2.708222E1,-6.873648E0,1.1064245E-2,6.895437E-2,1.3781099E-1,7.287816E-3,-5.7633143E-2],"split_indices":[1,2,0,0,6,0,2,0,0,2,1,0,0,0,2,0,0,0,0,0,0],"split_type":[0,0,0,0,0,0,0,0,0,0,0,0,0,0,0,0,0,0,0,0,0],"sum_hessian":[5.640064E2,2.4618889E2,3.178175E2,2.4139214E2,4.796744E0,2.3331218E2,8.450533E1,1.0486448E0,3.748099E0,8.099605E1,1.5231613E2,1.2679685E0,8.3237366E1,1.3482425E0,7.964781E1,1.5109244E2,1.2236979E0,3.1933265E0,7.645448E1,1.3789244E0,1.4971352E2],"tree_param":{"num_deleted":"0","num_feature":"8","num_nodes":"21","size_leaf_vector":"1"}},{"base_weights":[5.904504E-3,5.5202085E-1,-4.9335048E-1,-8.785807E-2,5.9721875E-1,-9.3307935E-2,-2.1667749E-2,6.3213426E-1,-1.3545065E-1,-8.6167127E-1,2.2298649E-1,-1.5887552E-1,6.5801173E-1,6.497211E-2,-9.6539415E-2,-3.7787187E-1,-9.162422E-2,6.249033E-1,-9.16455E-2,5.127433E-2,-9.615266E-2,3.5291255E-2,6.9418214E-2,-8.345949E-2,3.293492E-2,-7.7395216E-2,6.751555E-2],"categories":[],"categories_nodes":[],"categories_segments":[],"categories_sizes":[],"default_left":[0,0,0,0,0,0,0,0,0,0,0,0,0,0,0,0,0,0,0,0,0,0,0,0,0,0,0],"id":21,"left_children":[1,3,5,-1,7,-1,9,11,13,15,17,19,21,-1,-1,23,-1,25,-1,-1,-1,-1,-1,-1,-1,-1,-1],"loss_changes":[2.433846E2,2.8090424E1,9.670525E1,0E0,1.0672668E1,0E0,4.664173E1,8.194153E0,1.3431338E1,1.0051727E0,8.109777E1,7.6761484E0,3.9803314E0,0E0,0E0,2.5004709E0,0E0,9.701668E0,0E0,0E0,0E0,0E0,0E0,0E0,0E0,0E0,0E0],"parents":[2147483647,0,0,1,1,2,2,4,4,6,6,7,7,8,8,9,9,10,10,11,11,12,12,15,15,17,17],"right_children":[2,4,6,-1,8,-1,10,12,14,16,18,20,22,-1,-1,24,-1,26,-1,-1,-1,-1,-1,-1,-1,-1,-1],"split_conditions":[1.4964738E2,9.93978E0,1E0,-8.785807E-2,1.522326E1,-9.3307935E-2,-7.2071757E0,-1.4963657E1,1E0,4.8862297E1,6.9298015E0,1E0,4.8862297E1,6.497211E-2,-9.6539415E-2,1E0,-9.162422E-2,9.93978E0,-9.16455E-2,5.127433E-2,-9.615266E-2,3.5291255E-2,6.9418214E-2,-8.345949E-2,3.293492E-2,-7.7395216E-2,6.751555E-2],"split_indices":[1,2,4,0,0,0,0,0,4,2,0,4,2,0,0,3,0,2,0,0,0,0,0,0,0,0,0],"split_type":[0,0,0,0,0,0,0,0,0,0,0,0,0,0,0,0,0,0,0,0,0,0,0,0,0,0,0],"sum_hessian":[8.9066003E2,4.2531653E2,4.653435E2,1.2461067E1,4.1285544E2,2.4032292E2,2.2502058E2,3.9420667E2,1.8648794E1,5.0186543E1,1.7483405E2,1.2324907E1,3.8188174E2,9.694458E0,8.954335E0,5.8903074E0,4.4296234E1,1.2957903E2,4.5255024E1,6.906814E0,5.418093E0,4.161493E1,3.402668E2,3.4695613E0,2.4207458E0,3.994137E0,1.25584885E2],"tree_param":{"num_deleted":"0","num_feature":"8","num_nodes":"27","size_leaf_vector":"1"}},{"base_weights":[9.760339E-3],"categories":[],"categories_nodes":[],"categories_segments":[],"categories_sizes":[],"default_left":[0],"id":22,"left_children":[-1],"loss_changes":[0E0],"parents":[2147483647],"right_children":[-1],"split_conditions":[9.760339E-4],"split_indices":[0],"split_type":[0],"sum_hessian":[1.9416302E0],"tree_param":{"num_deleted":"0","num_feature":"8","num_nodes":"1","size_leaf_vector":"1"}},{"base_weights":[1.9373268E-2,-2.734298E-1,1.9464877E0,1.7688106E0,-4.948996E-2,-3.2996275E-2,2.7397432E0,3.0033907E-1,-3.282818E-2,3.578067E-1,-2.798978E-2],"categories":[],"categories_nodes":[],"categories_segments":[],"categories_sizes":[],"default_left":[0,0,0,0,0,0,0,0,0,0,0],"id":23,"left_children":[1,3,5,7,-1,-1,9,-1,-1,-1,-1],"loss_changes":[3.1940584E1,2.3127134E1,1.4384256E1,1.4013564E1,0E0,0E0,1.5287373E1,0E0,0E0,0E0,0E0],"parents":[2147483647,0,0,1,1,2,2,3,3,6,6],"right_children":[2,4,6,8,-1,-1,10,-1,-1,-1,-1],"split_conditions":[1.4699094E1,-1.4963657E1,1E0,1.4964738E2,-4.948996E-2,-3.2996275E-2,1.4964738E2,3.0033907E-1,-3.282818E-2,3.578067E-1,-2.798978E-2],"split_indices":[0,0,4,1,0,0,1,0,0,0,0],"split_type":[0,0,0,0,0,0,0,0,0,0,0],"sum_hessian":[5.466242E1,4.8197475E1,6.464943E0,4.031852E0,4.4165627E1,1.821557E0,4.643386E0,2.2657895E0,1.7660625E0,3.4896462E0,1.1537397E0],"tree_param":{"num_deleted":"0","num_feature":"8","num_nodes":"11","size_leaf_vector":"1"}},{"base_weights":[-8.462715E-3,1.7929052E-1,-4.9995936E-2],"categories":[],"categories_nodes":[],"categories_segments":[],"categories_sizes":[],"default_left":[0,0,0],"id":24,"left_children":[1,-1,-1],"loss_changes":[7.004617E1,0E0,0E0],"parents":[2147483647,0,0],"right_children":[2,-1,-1],"split_conditions":[1.142472E1,1.7929052E-1,-4.9995936E-2],"split_indices":[2,0,0],"split_type":[0,0,0],"sum_hessian":[7.710303E1,1.5960154E1,6.1142876E1],"tree_param":{"num_deleted":"0","num_feature":"8","num_nodes":"3","size_leaf_vector":"1"}},{"base_weights":[-5.344304E-3,3.496388E-1,-5.124622E-1,-4.7639588E-1,8.4181666E-1,-1.4227143E-1,-5.654792E-2,-5.2322417E-2,-5.5824935E-2,1.0341828E0,-4.7955003E-1,-5.439015E-2,6.997276E-1,-5.313306E-2,8.5862094E-1,-5.031402E-1,1.2364453E0,1.9874955E-2,-5.541419E-2,-3.602771E-2,9.55394E-1,1.24166705E-1,-8.70116E-3,1.0079208E-2,-5.4857988E-2,1.2421375E-1,3.7444655E-2,1.4313847E-1,8.236497E-3],"categories":[],"categories_nodes":[],"categories_segments":[],"categories_sizes":[],"default_left":[0,0,0,0,0,0,0,0,0,0,0,0,0,0,0,0,0,0,0,0,0,0,0,0,0,0,0,0,0],"id":25,"left_children":[1,3,5,7,9,11,-1,13,-1,15,17,-1,19,-1,21,23,25,-1,-1,-1,27,-1,-1,-1,-1,-1,-1,-1,-1],"loss_changes":[9.244047E1,1.2320987E2,4.0693436E0,3.9078903E0,4.8702057E1,9.789915E0,0E0,8.944906E0,0E0,5.2196655E1,1.3640924E0,0E0,2.8979502E0,0E0,2.674921E0,6.040325E-1,2.5550842E-1,0E0,0E0,0E0,3.1507807E0,0E0,0E0,0E0,0E0,0E0,0E0,0E0,0E0],"parents":[2147483647,0,0,1,1,2,2,3,3,4,4,5,5,7,7,9,9,10,10,12,12,14,14,15,15,16,16,20,20],"right_children":[2,4,6,8,10,12,-1,14,-1,16,18,-1,20,-1,22,24,26,-1,-1,-1,28,-1,-1,-1,-1,-1,-1,-1,-1],"split_conditions":[1E0,1.4964738E2,4.8862297E1,4.7599937E1,7.073502E0,1E0,-5.654792E-2,1E0,-5.5824935E-2,-7.0148864E0,1.5846931E2,-5.439015E-2,9.93978E0,-5.313306E-2,1E0,2.4357574E1,6.7896776E0,1.9874955E-2,-5.541419E-2,-3.602771E-2,1E0,1.24166705E-1,-8.70116E-3,1.0079208E-2,-5.4857988E-2,1.2421375E-1,3.7444655E-2,1.4313847E-1,8.236497E-3],"split_indices":[4,1,2,2,0,3,0,3,0,0,1,0,2,0,5,2,0,0,0,0,5,0,0,0,0,0,0,0,0],"split_type":[0,0,0,0,0,0,0,0,0,0,0,0,0,0,0,0,0,0,0,0,0,0,0,0,0,0,0,0,0],"sum_hessian":[5.115107E2,3.0107114E2,2.1043958E2,1.1242219E2,1.8864894E2,2.6824093E1,1.836155E2,1.84539E1,9.3968285E1,1.6486504E2,2.3783903E1,1.8400951E1,8.423142E0,1.2367389E1,6.0865116E0,1.8995985E1,1.4586905E2,2.1914558E0,2.1592447E1,1.5573071E0,6.865835E0,4.109021E0,1.9774904E0,1.244001E0,1.7751984E1,1.4447403E2,1.3950279E0,4.0293837E0,2.8364515E0],"tree_param":{"num_deleted":"0","num_feature":"8","num_nodes":"29","size_leaf_vector":"1"}},{"base_weights":[-5.5349357E-3,-5.664476E-1,3.9902273E-1,-5.7064015E-2,-2.9395786E-1,9.024722E-2,1.1825238E0,-4.457922E-2,1.9218992E-2,1.1702572E0,-5.556956E-1,8.4785735E-3,1.1974583E-1,5.232224E-3,1.1874286E0,-5.621645E-1,1.1081165E-2,6.1997093E-2,1.20324455E-1,8.351838E-3,-5.688901E-2],"categories":[],"categories_nodes":[],"categories_segments":[],"categories_sizes":[],"default_left":[0,0,0,0,0,0,0,0,0,0,0,0,0,0,0,0,0,0,0,0,0],"id":26,"left_children":[1,3,5,-1,7,9,11,-1,-1,13,15,-1,-1,-1,17,19,-1,-1,-1,-1,-1],"loss_changes":[1.2446451E2,9.4818115E-2,7.698711E1,0E0,4.9497586E-1,1.6087077E2,1.3739548E0,0E0,0E0,1.5940399E0,6.848488E-1,0E0,0E0,0E0,1.6204834E-2,6.692276E-1,0E0,0E0,0E0,0E0,0E0],"parents":[2147483647,0,0,1,1,2,2,4,4,5,5,6,6,9,9,10,10,14,14,15,15],"right_children":[2,4,6,-1,8,10,12,-1,-1,14,16,-1,-1,-1,18,20,-1,-1,-1,-1,-1],"split_conditions":[1.523031E2,3.9466486E2,7.073502E0,-5.7064015E-2,1.3013371E2,-7.0148864E0,1.142472E1,-4.457922E-2,1.9218992E-2,1.56829605E1,2.992944E2,8.4785735E-3,1.1974583E-1,5.232224E-3,2.708222E1,-6.873648E0,1.1081165E-2,6.1997093E-2,1.20324455E-1,8.351838E-3,-5.688901E-2],"split_indices":[1,2,0,0,1,0,2,0,0,2,1,0,0,0,2,0,0,0,0,0,0],"split_type":[0,0,0,0,0,0,0,0,0,0,0,0,0,0,0,0,0,0,0,0,0],"sum_hessian":[5.4649536E2,2.2882837E2,3.1766702E2,2.2428336E2,4.5450115E0,2.2866571E2,8.9001305E1,3.5265925E0,1.0184191E0,8.527502E1,1.4339069E2,1.2842001E0,8.77171E1,1.3512162E0,8.39238E1,1.421674E2,1.2232859E0,3.3656995E0,8.05581E1,1.3478714E0,1.4081953E2],"tree_param":{"num_deleted":"0","num_feature":"8","num_nodes":"21","size_leaf_vector":"1"}},{"base_weights":[5.8552306E-3,5.282352E-1,-4.616318E-1,-8.18588E-2,5.7235795E-1,-8.65307E-2,-2.0216616E-2,6.090858E-1,-9.859026E-2,1.9756587E-1,-8.505126E-2,-1.5626317E-1,6.353919E-1,6.313107E-2,-8.554845E-1,-7.969336E-1,6.005403E-1,4.9613807E-2,-9.1210864E-2,3.3122934E-2,6.728453E-2,-9.154019E-2,-2.7339065E-2,-3.4251E-2,-8.494967E-2,-7.232692E-2,6.5024495E-2],"categories":[],"categories_nodes":[],"categories_segments":[],"categories_sizes":[],"default_left":[0,0,0,0,0,0,0,0,0,0,0,0,0,0,0,0,0,0,0,0,0,0,0,0,0,0,0],"id":27,"left_children":[1,3,5,-1,7,-1,9,11,13,15,-1,17,19,-1,21,23,25,-1,-1,-1,-1,-1,-1,-1,-1,-1,-1],"loss_changes":[2.098694E2,2.458722E1,8.079685E1,0E0,9.758774E0,0E0,3.952682E1,7.614868E0,1.2300283E1,6.990841E1,0E0,6.9649715E0,3.8905792E0,0E0,1.2902737E-1,9.1257477E-1,8.6201935E0,0E0,0E0,0E0,0E0,0E0,0E0,0E0,0E0,0E0,0E0],"parents":[2147483647,0,0,1,1,2,2,4,4,6,6,7,7,8,8,9,9,11,11,12,12,14,14,15,15,16,16],"right_children":[2,4,6,-1,8,-1,10,12,14,16,-1,18,20,-1,22,24,26,-1,-1,-1,-1,-1,-1,-1,-1,-1,-1],"split_conditions":[1.4964738E2,9.93978E0,1E0,-8.18588E-2,1.4699094E1,-8.65307E-2,6.9298015E0,-1.4963657E1,1E0,-7.2071757E0,-8.505126E-2,1E0,4.8862297E1,6.313107E-2,2.587331E2,4.8862297E1,9.93978E0,4.9613807E-2,-9.1210864E-2,3.3122934E-2,6.728453E-2,-9.154019E-2,-2.7339065E-2,-3.4251E-2,-8.494967E-2,-7.232692E-2,6.5024495E-2],"split_indices":[1,2,4,0,0,0,0,0,4,0,0,4,2,0,2,2,2,0,0,0,0,0,0,0,0,0,0],"split_type":[0,0,0,0,0,0,0,0,0,0,0,0,0,0,0,0,0,0,0,0,0,0,0,0,0,0,0],"sum_hessian":[8.57397E2,4.048637E2,4.5253326E2,1.2286067E1,3.9257764E2,2.3586964E2,2.1666362E2,3.722906E2,2.0287067E1,1.7224632E2,4.4417294E1,1.2206749E1,3.6008383E2,1.0412159E1,9.8749075E0,4.9386894E1,1.2285943E2,6.736123E0,5.4706254E0,4.0557434E1,3.195264E2,8.434144E0,1.4407638E0,5.8995643E0,4.348733E1,3.955638E0,1.18903786E2],"tree_param":{"num_deleted":"0","num_feature":"8","num_nodes":"27","size_leaf_vector":"1"}},{"base_weights":[1.5897404E-2],"categories":[],"categories_nodes":[],"categories_segments":[],"categories_sizes":[],"default_left":[0],"id":28,"left_children":[-1],"loss_changes":[0E0],"parents":[2147483647],"right_children":[-1],"split_conditions":[1.5897405E-3],"split_indices":[0],"split_type":[0],"sum_hessian":[1.9066668E0],"tree_param":{"num_deleted":"0","num_feature":"8","num_nodes":"1","size_leaf_vector":"1"}},{"base_weights":[2.4853151E-2,-2.6303574E-1,1.5793496E0,1.4744227E0,-4.9372043E-2,-3.2336358E-2,2.0989034E0,-3.3806484E-2,2.4599047E0,2.6033148E-1,-2.7592937E-2,3.281623E-1,2.0493705E-2],"categories":[],"categories_nodes":[],"categories_segments":[],"categories_sizes":[],"default_left":[0,0,0,0,0,0,0,0,0,0,0,0,0],"id":29,"left_children":[1,3,5,7,-1,-1,9,-1,11,-1,-1,-1,-1],"loss_changes":[2.4868141E1,1.954953E1,9.260197E0,1.1110924E1,0E0,0E0,9.046476E0,0E0,6.459097E0,0E0,0E0,0E0,0E0],"parents":[2147483647,0,0,1,1,2,2,3,3,6,6,8,8],"right_children":[2,4,6,8,-1,-1,10,-1,12,-1,-1,-1,-1],"split_conditions":[1.4699094E1,-1.4963657E1,1E0,1E0,-4.9372043E-2,-3.2336358E-2,1.4964738E2,-3.3806484E-2,1.4366415E2,2.6033148E-1,-2.7592937E-2,3.281623E-1,2.0493705E-2],"split_indices":[0,0,4,4,0,0,1,0,1,0,0,0,0],"split_type":[0,0,0,0,0,0,0,0,0,0,0,0,0],"sum_hessian":[5.3640217E1,4.5959435E1,7.6807833E0,4.7549376E0,4.12045E1,1.7284509E0,5.9523325E0,1.9061401E0,2.8487976E0,4.8301954E0,1.1221368E0,1.7542545E0,1.094543E0],"tree_param":{"num_deleted":"0","num_feature":"8","num_nodes":"13","size_leaf_vector":"1"}},{"base_weights":[-6.3719554E-3,1.56591E-1,-4.825389E-1,1.5461865E-2,-4.987761E-2],"categories":[],"categories_nodes":[],"categories_segments":[],"categories_sizes":[],"default_left":[0,0,0,0,0],"id":30,"left_children":[1,-1,3,-1,-1],"loss_changes":[5.7446312E1,0E0,6.863203E-1,0E0,0E0],"parents":[2147483647,0,0,2,2],"right_children":[2,-1,4,-1,-1],"split_conditions":[9.93978E0,1.56591E-1,1.3827486E1,1.5461865E-2,-4.987761E-2],"split_indices":[2,0,2,0,0],"split_type":[0,0,0,0,0],"sum_hessian":[7.4722015E1,1.6837332E1,5.7884686E1,1.2266752E0,5.665801E1],"tree_param":{"num_deleted":"0","num_feature":"8","num_nodes":"5","size_leaf_vector":"1"}},{"base_weights":[-5.1841857E-3,3.26304E-1,-5.036418E-1,-4.6505162E-1,7.593814E-1,-1.2984952E-1,-5.5937063E-2,-4.2049643E-2,-5.5156566E-2,9.266358E-1,-4.707069E-1,-5.3743966E-2,6.664177E-1,-5.246829E-2,8.067783E-1,-4.9494463E-1,1.0994709E0,1.7432922E-1,-5.5004507E-2,-3.5305444E-2,9.00685E-1,-3.2799352E-2,1.07536994E-1,9.147718E-3,-5.4170735E-2,3.470104E-2,1.1051208E-1,5.714036E-2,-3.1047245E-2,1.3219841E-1,8.587994E-3],"categories":[],"categories_nodes":[],"categories_segments":[],"categories_sizes":[],"default_left":[0,0,0,0,0,0,0,0,0,0,0,0,0,0,0,0,0,0,0,0,0,0,0,0,0,0,0,0,0,0,0],"id":31,"left_children":[1,3,5,7,9,11,-1,13,-1,15,17,-1,19,-1,21,23,25,27,-1,-1,29,-1,-1,-1,-1,-1,-1,-1,-1,-1,-1],"loss_changes":[8.1769005E1,1.02217476E2,4.0446587E0,3.8467026E0,4.0035988E1,9.10382E0,0E0,8.222683E0,0E0,4.2257843E1,1.3088436E0,0E0,2.6035547E0,0E0,2.5761786E0,5.731425E-1,2.613678E-1,8.233071E-1,0E0,0E0,2.65441E0,0E0,0E0,0E0,0E0,0E0,0E0,0E0,0E0,0E0,0E0],"parents":[2147483647,0,0,1,1,2,2,3,3,4,4,5,5,7,7,9,9,10,10,12,12,14,14,15,15,16,16,17,17,20,20],"right_children":[2,4,6,8,10,12,-1,14,-1,16,18,-1,20,-1,22,24,26,28,-1,-1,30,-1,-1,-1,-1,-1,-1,-1,-1,-1,-1],"split_conditions":[1E0,1.4964738E2,4.8862297E1,4.7599937E1,7.073502E0,1E0,-5.5937063E-2,1E0,-5.5156566E-2,-7.0148864E0,3.3213375E1,-5.3743966E-2,9.93978E0,-5.246829E-2,1.3827486E1,2.4357574E1,1.142472E1,1.9470702E2,-5.5004507E-2,-3.5305444E-2,1E0,-3.2799352E-2,1.07536994E-1,9.147718E-3,-5.4170735E-2,3.470104E-2,1.1051208E-1,5.714036E-2,-3.1047245E-2,1.3219841E-1,8.587994E-3],"split_indices":[4,1,2,2,0,3,0,3,0,0,2,0,2,0,2,2,2,1,0,0,5,0,0,0,0,0,0,0,0,0,0],"split_type":[0,0,0,0,0,0,0,0,0,0,0,0,0,0,0,0,0,0,0,0,0,0,0,0,0,0,0,0,0,0,0],"sum_hessian":[4.9287692E2,2.9622467E2,1.9665227E2,1.0474746E2,1.914772E2,2.5946981E1,1.7070528E2,1.8038082E1,8.670937E1,1.6877559E2,2.2701626E1,1.7377108E1,8.569875E0,1.1743018E1,6.2950635E0,1.8093287E1,1.506823E2,2.3552942E0,2.034633E1,1.5065762E0,7.063298E0,1.1624929E0,5.1325707E0,1.2656279E0,1.6827658E1,1.5881836E0,1.4909412E2,1.1965952E0,1.1586992E0,4.2456226E0,2.8176754E0],"tree_param":{"num_deleted":"0","num_feature":"8","num_nodes":"31","size_leaf_vector":"1"}},{"base_weights":[-5.773642E-3,-5.593366E-1,3.6953357E-1,-5.6379735E-2,-2.7811345E-1,8.308282E-2,1.05695E0,1.9165494E-2,-4.339436E-2,1.0464942E0,-5.4775196E-1,7.9984255E-3,1.0699445E-1,5.3157075E-3,1.0612038E0,-5.545859E-1,1.1308285E-2,5.5882286E-2,1.0756685E-1,9.422766E-3,-5.6172024E-2],"categories":[],"categories_nodes":[],"categories_segments":[],"categories_sizes":[],"default_left":[0,0,0,0,0,0,0,0,0,0,0,0,0,0,0,0,0,0,0,0,0],"id":32,"left_children":[1,3,5,-1,7,9,11,-1,-1,13,15,-1,-1,-1,17,19,-1,-1,-1,-1,-1],"loss_changes":[1.0968259E2,1.1079407E-1,6.1867474E1,0E0,4.7145423E-1,1.3620868E2,1.088234E0,0E0,0E0,1.2389526E0,6.7473984E-1,0E0,0E0,0E0,3.3317566E-2,6.7461014E-1,0E0,0E0,0E0,0E0,0E0],"parents":[2147483647,0,0,1,1,2,2,4,4,5,5,6,6,9,9,10,10,14,14,15,15],"right_children":[2,4,6,-1,8,10,12,-1,-1,14,16,-1,-1,-1,18,20,-1,-1,-1,-1,-1],"split_conditions":[1.523031E2,3.9466486E2,7.073502E0,-5.6379735E-2,5.799314E-1,-7.0148864E0,1.142472E1,1.9165494E-2,-4.339436E-2,1.56829605E1,2.992944E2,7.9984255E-3,1.0699445E-1,5.3157075E-3,2.708222E1,-6.873648E0,1.1308285E-2,5.5882286E-2,1.0756685E-1,9.422766E-3,-5.6172024E-2],"split_indices":[1,2,0,0,6,0,2,0,0,2,1,0,0,0,2,0,0,0,0,0,0],"split_type":[0,0,0,0,0,0,0,0,0,0,0,0,0,0,0,0,0,0,0,0,0],"sum_hessian":[5.259441E2,2.1230803E2,3.1363608E2,2.0800386E2,4.30417E0,2.2217516E2,9.146093E1,1.0148594E0,3.2893107E0,8.765281E1,1.3452235E2,1.2944672E0,9.0166466E1,1.3463625E0,8.630644E1,1.333046E2,1.2177613E0,3.5246067E0,8.278184E1,1.3171083E0,1.3198749E2],"tree_param":{"num_deleted":"0","num_feature":"8","num_nodes":"21","size_leaf_vector":"1"}},{"base_weights":[5.361385E-3,5.071012E-1,-4.3616614E-1,-7.679177E-2,5.501556E-1,-8.1183575E-2,-1.9284943E-2,5.866779E-1,-9.832058E-2,1.889545E-1,-7.981693E-2,-1.5898745E-1,6.133115E-1,6.0948815E-2,-7.9771507E-1,-7.440641E-1,5.790841E-1,4.7201198E-2,-8.59709E-2,3.0981824E-2,6.519809E-2,-8.586996E-2,-2.3699991E-2,-3.0868573E-2,-7.964196E-2,-6.805344E-2,6.283668E-2],"categories":[],"categories_nodes":[],"categories_segments":[],"categories_sizes":[],"default_left":[0,0,0,0,0,0,0,0,0,0,0,0,0,0,0,0,0,0,0,0,0,0,0,0,0,0,0],"id":33,"left_children":[1,3,5,-1,7,-1,9,11,13,15,-1,17,19,-1,21,23,25,-1,-1,-1,-1,-1,-1,-1,-1,-1,-1],"loss_changes":[1.8205234E2,2.1538467E1,6.844301E1,0E0,8.884155E0,0E0,3.39236E1,7.1070175E0,1.0746691E1,6.0529354E1,0E0,6.1388E0,3.7997742E0,0E0,1.6779184E-1,8.738022E-1,7.689888E0,0E0,0E0,0E0,0E0,0E0,0E0,0E0,0E0,0E0,0E0],"parents":[2147483647,0,0,1,1,2,2,4,4,6,6,7,7,8,8,9,9,11,11,12,12,14,14,15,15,16,16],"right_children":[2,4,6,-1,8,-1,10,12,14,16,-1,18,20,-1,22,24,26,-1,-1,-1,-1,-1,-1,-1,-1,-1,-1],"split_conditions":[1.4964738E2,9.93978E0,1E0,-7.679177E-2,1.4699094E1,-8.1183575E-2,6.9298015E0,-1.4963657E1,1E0,-7.2071757E0,-7.981693E-2,1E0,4.8862297E1,6.0948815E-2,8.7217015E-1,4.8862297E1,9.93978E0,4.7201198E-2,-8.59709E-2,3.0981824E-2,6.519809E-2,-8.586996E-2,-2.3699991E-2,-3.0868573E-2,-7.964196E-2,-6.805344E-2,6.283668E-2],"split_indices":[1,2,4,0,0,0,0,0,4,0,0,4,2,0,6,2,2,0,0,0,0,0,0,0,0,0,0],"split_type":[0,0,0,0,0,0,0,0,0,0,0,0,0,0,0,0,0,0,0,0,0,0,0,0,0,0,0],"sum_hessian":[8.1978986E2,3.8366028E2,4.3612955E2,1.1982189E1,3.716781E2,2.2890553E2,2.0722403E2,3.519514E2,1.97267E1,1.6410655E2,4.3117477E1,1.1966062E1,3.3998535E2,9.868263E0,9.858437E0,4.8119244E1,1.1598731E2,6.468011E0,5.49805E0,3.9441826E1,3.0054352E2,8.412085E0,1.4463518E0,5.905576E0,4.221367E1,3.8848698E0,1.1210244E2],"tree_param":{"num_deleted":"0","num_feature":"8","num_nodes":"27","size_leaf_vector":"1"}},{"base_weights":[2.2895414E-2],"categories":[],"categories_nodes":[],"categories_segments":[],"categories_sizes":[],"default_left":[0],"id":34,"left_children":[-1],"loss_changes":[0E0],"parents":[2147483647],"right_children":[-1],"split_conditions":[2.2895415E-3],"split_indices":[0],"split_type":[0],"sum_hessian":[1.8677987E0],"tree_param":{"num_deleted":"0","num_feature":"8","num_nodes":"1","size_leaf_vector":"1"}},{"base_weights":[3.0309701E-2,-2.5213596E-1,1.321579E0,1.279053E0,-4.9246423E-2,-3.1643394E-2,1.6910546E0,-3.3183545E-2,1.9992461E0,2.0328005E-1,-2.7118582E-2,2.534952E-1,1.9577714E-2],"categories":[],"categories_nodes":[],"categories_segments":[],"categories_sizes":[],"default_left":[0,0,0,0,0,0,0,0,0,0,0,0,0],"id":35,"left_children":[1,3,5,7,-1,-1,9,-1,11,-1,-1,-1,-1],"loss_changes":[1.981446E1,1.7067247E1,6.434059E0,8.016207E0,0E0,0E0,5.990219E0,0E0,3.87261E0,0E0,0E0,0E0,0E0],"parents":[2147483647,0,0,1,1,2,2,3,3,6,6,8,8],"right_children":[2,4,6,8,-1,-1,10,-1,12,-1,-1,-1,-1],"split_conditions":[1.4699094E1,-1.4963657E1,1E0,1E0,-4.9246423E-2,-3.1643394E-2,1.4964738E2,-3.3183545E-2,1.4366415E2,2.0328005E-1,-2.7118582E-2,2.534952E-1,1.9577714E-2],"split_indices":[0,0,4,4,0,0,1,0,1,0,0,0,0],"split_type":[0,0,0,0,0,0,0,0,0,0,0,0,0],"sum_hessian":[5.241522E1,4.3668198E1,8.747021E0,5.337785E0,3.833041E1,1.6362995E0,7.110721E0,1.815721E0,3.5220637E0,6.025376E0,1.0853451E0,2.402749E0,1.1193146E0],"tree_param":{"num_deleted":"0","num_feature":"8","num_nodes":"13","size_leaf_vector":"1"}},{"base_weights":[-4.270254E-3,1.3149966E-1,-4.9764227E-2],"categories":[],"categories_nodes":[],"categories_segments":[],"categories_sizes":[],"default_left":[0,0,0],"id":36,"left_children":[1,-1,-1],"loss_changes":[4.818105E1,0E0,0E0],"parents":[2147483647,0,0],"right_children":[2,-1,-1],"split_conditions":[1.142472E1,1.3149966E-1,-4.9764227E-2],"split_indices":[2,0,0],"split_type":[0,0,0],"sum_hessian":[7.201802E1,1.9148907E1,5.2869114E1],"tree_param":{"num_deleted":"0","num_feature":"8","num_nodes":"3","size_leaf_vector":"1"}},{"base_weights":[-4.877461E-3,3.0705652E-1,-4.950543E-1,-4.5406482E-1,6.9539666E-1,-1.1728113E-1,-5.5371888E-2,-3.264861E-2,-5.454736E-2,8.443446E-1,-4.6129787E-1,-5.3120773E-2,6.387564E-1,-5.181827E-2,7.588034E-1,-4.8638758E-1,9.9624085E-1,1.8715765E-1,-5.4106504E-2,-3.4494117E-2,8.5417944E-1,1.0095524E-1,-3.2679237E-2,8.4129935E-3,-5.3471863E-2,1.0014396E-1,2.7517935E-2,6.710929E-2,-3.380373E-2,1.231676E-1,8.983697E-3],"categories":[],"categories_nodes":[],"categories_segments":[],"categories_sizes":[],"default_left":[0,0,0,0,0,0,0,0,0,0,0,0,0,0,0,0,0,0,0,0,0,0,0,0,0,0,0,0,0,0,0],"id":37,"left_children":[1,3,5,7,9,11,-1,13,-1,15,17,-1,19,-1,21,23,25,27,-1,-1,29,-1,-1,-1,-1,-1,-1,-1,-1,-1,-1],"loss_changes":[7.2503975E1,8.596931E1,4.021763E0,3.7768383E0,3.351673E1,8.493216E0,0E0,7.5493255E0,0E0,3.4988113E1,1.2693243E0,0E0,2.344313E0,0E0,2.367785E0,5.4572344E-1,2.9995728E-1,1.0443724E0,0E0,0E0,2.2617946E0,0E0,0E0,0E0,0E0,0E0,0E0,0E0,0E0,0E0,0E0],"parents":[2147483647,0,0,1,1,2,2,3,3,4,4,5,5,7,7,9,9,10,10,12,12,14,14,15,15,16,16,17,17,20,20],"right_children":[2,4,6,8,10,12,-1,14,-1,16,18,-1,20,-1,22,24,26,28,-1,-1,30,-1,-1,-1,-1,-1,-1,-1,-1,-1,-1],"split_conditions":[1E0,1.4964738E2,4.8862297E1,4.7599937E1,7.073502E0,1E0,-5.5371888E-2,1E0,-5.454736E-2,-7.0148864E0,1.5846931E2,-5.3120773E-2,9.93978E0,-5.181827E-2,8.4200007E-1,2.4357574E1,6.7896776E0,3.3213375E1,-5.4106504E-2,-3.4494117E-2,1E0,1.0095524E-1,-3.2679237E-2,8.4129935E-3,-5.3471863E-2,1.0014396E-1,2.7517935E-2,6.710929E-2,-3.380373E-2,1.231676E-1,8.983697E-3],"split_indices":[4,1,2,2,0,3,0,3,0,0,1,0,2,0,6,2,0,2,0,0,5,0,0,0,0,0,0,0,0,0,0],"split_type":[0,0,0,0,0,0,0,0,0,0,0,0,0,0,0,0,0,0,0,0,0,0,0,0,0,0,0,0,0,0,0],"sum_hessian":[4.7218924E2,2.887872E2,1.8340202E2,9.750822E1,1.9127899E2,2.505547E1,1.5834656E2,1.7622316E1,7.98859E1,1.6969707E2,2.1581915E1,1.6383156E1,8.672314E0,1.1135977E1,6.4863396E0,1.715997E1,1.5253711E2,2.2165444E0,1.9365372E1,1.449978E0,7.2223353E0,5.3261604E0,1.1601789E0,1.2823182E0,1.587765E1,1.5105916E2,1.4779465E0,1.0090077E0,1.2075367E0,4.425321E0,2.7970142E0],"tree_param":{"num_deleted":"0","num_feature":"8","num_nodes":"31","size_leaf_vector":"1"}},{"base_weights":[-5.888385E-3,-5.528572E-1,3.4569588E-1,-5.576023E-2,-2.6321504E-1,7.746986E-2,9.612369E-1,1.8759057E-2,-4.2224318E-2,9.5185286E-1,-5.4000247E-1,7.6879375E-3,9.728998E-1,5.5300994E-3,9.6483713E-1,-5.4725343E-1,1.1692595E-2,4.4064227E-2,9.828331E-2,6.215895E-2,9.8738745E-2,1.0491007E-2,-5.548482E-2],"categories":[],"categories_nodes":[],"categories_segments":[],"categories_sizes":[],"default_left":[0,0,0,0,0,0,0,0,0,0,0,0,0,0,0,0,0,0,0,0,0,0,0],"id":38,"left_children":[1,3,5,-1,7,9,11,-1,-1,13,15,-1,17,-1,19,21,-1,-1,-1,-1,-1,-1,-1],"loss_changes":[9.715209E1,1.24897E-1,5.0700703E1,0E0,4.4341236E-1,1.1674757E2,8.8700104E-1,0E0,0E0,9.881363E-1,6.680603E-1,0E0,5.307007E-2,0E0,6.840515E-2,6.803551E-1,0E0,0E0,0E0,0E0,0E0,0E0,0E0],"parents":[2147483647,0,0,1,1,2,2,4,4,5,5,6,6,9,9,10,10,12,12,14,14,15,15],"right_children":[2,4,6,-1,8,10,12,-1,-1,14,16,-1,18,-1,20,22,-1,-1,-1,-1,-1,-1,-1],"split_conditions":[1.523031E2,3.9466486E2,7.073502E0,-5.576023E-2,5.799314E-1,-7.0148864E0,1.142472E1,1.8759057E-2,-4.2224318E-2,1.56829605E1,2.992944E2,7.6879375E-3,2.8697197E1,5.5300994E-3,4.8862297E1,-6.873648E0,1.1692595E-2,4.4064227E-2,9.828331E-2,6.215895E-2,9.8738745E-2,1.0491007E-2,-5.548482E-2],"split_indices":[1,2,0,0,6,0,2,0,0,2,1,0,2,0,2,0,0,0,0,0,0,0,0],"split_type":[0,0,0,0,0,0,0,0,0,0,0,0,0,0,0,0,0,0,0,0,0,0,0],"sum_hessian":[5.0320236E2,1.9666814E2,3.0653424E2,1.9258794E2,4.0802E0,2.142843E2,9.224993E1,1.0171695E0,3.0630307E0,8.8467186E1,1.2581711E2,1.2995727E0,9.0950356E1,1.3380063E0,8.712918E1,1.2460867E2,1.2084367E0,2.497307E0,8.845305E1,7.132159E0,7.999702E1,1.2869316E0,1.2332174E2],"tree_param":{"num_deleted":"0","num_feature":"8","num_nodes":"23","size_leaf_vector":"1"}},{"base_weights":[4.7257305E-3,4.8831776E-1,-4.153361E-1,-7.2633155E-2,5.3043246E-1,-7.686496E-2,-1.875956E-2,5.6680155E-1,-9.837448E-2,1.8134697E-1,-7.5581126E-2,-1.6082984E-1,5.9379405E-1,5.8967143E-2,-7.4823254E-1,-7.002149E-1,5.600882E-1,4.494988E-2,-8.129248E-2,2.9115697E-2,6.338416E-2,-8.079655E-2,-2.1549875E-2,-7.677563E-2,-3.439969E-2,-6.428527E-2,6.0897864E-2],"categories":[],"categories_nodes":[],"categories_segments":[],"categories_sizes":[],"default_left":[0,0,0,0,0,0,0,0,0,0,0,0,0,0,0,0,0,0,0,0,0,0,0,0,0,0,0],"id":39,"left_children":[1,3,5,-1,7,-1,9,11,13,15,-1,17,19,-1,21,23,25,-1,-1,-1,-1,-1,-1,-1,-1,-1,-1],"loss_changes":[1.5875897E2,1.8969147E1,5.8588127E1,0E0,8.098663E0,0E0,2.9351952E1,6.628189E0,9.420171E0,5.2676086E1,0E0,5.4136186E0,3.7050476E0,0E0,1.6853857E-1,8.787937E-1,6.866123E0,0E0,0E0,0E0,0E0,0E0,0E0,0E0,0E0,0E0,0E0],"parents":[2147483647,0,0,1,1,2,2,4,4,6,6,7,7,8,8,9,9,11,11,12,12,14,14,15,15,16,16],"right_children":[2,4,6,-1,8,-1,10,12,14,16,-1,18,20,-1,22,24,26,-1,-1,-1,-1,-1,-1,-1,-1,-1,-1],"split_conditions":[1.4964738E2,9.93978E0,1E0,-7.2633155E-2,1.4699094E1,-7.686496E-2,6.9298015E0,-1.4963657E1,1E0,-7.2071757E0,-7.5581126E-2,1E0,4.8862297E1,5.8967143E-2,8.7217015E-1,1E0,9.93978E0,4.494988E-2,-8.129248E-2,2.9115697E-2,6.338416E-2,-8.079655E-2,-2.1549875E-2,-7.677563E-2,-3.439969E-2,-6.428527E-2,6.0897864E-2],"split_indices":[1,2,4,0,0,0,0,0,4,0,0,4,2,0,6,3,2,0,0,0,0,0,0,0,0,0,0],"split_type":[0,0,0,0,0,0,0,0,0,0,0,0,0,0,0,0,0,0,0,0,0,0,0,0,0,0,0],"sum_hessian":[7.795321E2,3.622885E2,4.1724356E2,1.1596016E1,3.506925E2,2.2016153E2,1.9708203E2,3.316113E2,1.9081219E1,1.555931E2,4.1488937E1,1.1684192E1,3.199271E2,9.313276E0,9.767941E0,4.6503136E1,1.0908996E2,6.1958585E0,5.4883327E0,3.8354523E1,2.8157257E2,8.318579E0,1.449363E0,3.8120026E1,8.38311E0,3.786045E0,1.0530391E2],"tree_param":{"num_deleted":"0","num_feature":"8","num_nodes":"27","size_leaf_vector":"1"}},{"base_weights":[3.0587265E-2],"categories":[],"categories_nodes":[],"categories_segments":[],"categories_sizes":[],"default_left":[0],"id":40,"left_children":[-1],"loss_changes":[0E0],"parents":[2147483647],"right_children":[-1],"split_conditions":[3.0587267E-3],"split_indices":[0],"split_type":[0],"sum_hessian":[1.8262583E0],"tree_param":{"num_deleted":"0","num_feature":"8","num_nodes":"1","size_leaf_vector":"1"}},{"base_weights":[3.4819327E-2,-2.4152243E-1,1.134663E0,1.1198468E0,-4.9112987E-2,1.4193575E0,-3.1463154E-2,-3.2536667E-2,1.666918E0,-2.5871918E-2,1.665915E-1,2.0394953E-1,1.8830478E-2],"categories":[],"categories_nodes":[],"categories_segments":[],"categories_sizes":[],"default_left":[0,0,0,0,0,0,0,0,0,0,0,0,0],"id":41,"left_children":[1,3,5,7,-1,9,-1,-1,11,-1,-1,-1,-1],"loss_changes":[1.610545E1,1.4976022E1,4.834647E0,5.984048E0,0E0,4.183794E0,0E0,0E0,2.4564037E0,0E0,0E0,0E0,0E0],"parents":[2147483647,0,0,1,1,2,2,3,3,5,5,8,8],"right_children":[2,4,6,8,-1,10,-1,-1,12,-1,-1,-1,-1],"split_conditions":[1.4699094E1,-1.4963657E1,1.4964738E2,1E0,-4.9112987E-2,1E0,-3.1463154E-2,-3.2536667E-2,1.4366415E2,-2.5871918E-2,1.665915E-1,2.0394953E-1,1.8830478E-2],"split_indices":[0,0,1,4,0,4,0,0,1,0,0,0,0],"split_type":[0,0,0,0,0,0,0,0,0,0,0,0,0],"sum_hessian":[5.1088505E1,4.145349E1,9.635015E0,5.8826804E0,3.5570812E1,8.070357E0,1.5646572E0,1.7266357E0,4.1560445E0,1.0275433E0,7.042814E0,3.0166E0,1.1394447E0],"tree_param":{"num_deleted":"0","num_feature":"8","num_nodes":"13","size_leaf_vector":"1"}},{"base_weights":[-1.960706E-3,1.21321775E-1,-4.7807613E-1,1.7658433E-2,-4.9641665E-2],"categories":[],"categories_nodes":[],"categories_segments":[],"categories_sizes":[],"default_left":[0,0,0,0,0],"id":42,"left_children":[1,-1,3,-1,-1],"loss_changes":[4.117108E1,0E0,7.015104E-1,0E0,0E0],"parents":[2147483647,0,0,2,2],"right_children":[2,-1,4,-1,-1],"split_conditions":[9.93978E0,1.21321775E-1,1.142472E1,1.7658433E-2,-4.9641665E-2],"split_indices":[2,0,2,0,0],"split_type":[0,0,0,0,0],"sum_hessian":[6.9158165E1,1.9032864E1,5.0125298E1,1.1308739E0,4.8994427E1],"tree_param":{"num_deleted":"0","num_feature":"8","num_nodes":"5","size_leaf_vector":"1"}},{"base_weights":[-4.4772527E-3,2.9093227E-1,-4.866841E-1,-4.4326916E-1,6.443114E-1,-1.0583365E-1,-5.4847103E-2,-2.3496926E-2,-5.3990077E-2,7.79308E-1,-4.5172203E-1,-5.2550178E-2,6.142923E-1,-5.1187333E-2,7.1669763E-1,-4.776014E-1,9.156666E-1,1.6908121E-1,-5.3678364E-2,-3.367048E-2,8.132183E-1,1.0405667E-1,-1.1143903E-2,7.938038E-3,-5.2778143E-2,9.206589E-2,2.4461834E-2,6.342272E-2,-3.2198112E-2,1.0042869E-1,-2.9476726E-2],"categories":[],"categories_nodes":[],"categories_segments":[],"categories_sizes":[],"default_left":[0,0,0,0,0,0,0,0,0,0,0,0,0,0,0,0,0,0,0,0,0,0,0,0,0,0,0,0,0,0,0],"id":43,"left_children":[1,3,5,7,9,11,-1,13,-1,15,17,-1,19,-1,21,23,25,27,-1,-1,29,-1,-1,-1,-1,-1,-1,-1,-1,-1,-1],"loss_changes":[6.441035E1,7.303621E1,3.983982E0,3.7070103E0,2.8420258E1,7.9434953E0,0E0,6.947845E0,0E0,2.9447624E1,1.222714E0,0E0,2.117461E0,0E0,2.168665E0,5.2326894E-1,2.8749084E-1,9.679478E-1,0E0,0E0,2.06426E0,0E0,0E0,0E0,0E0,0E0,0E0,0E0,0E0,0E0,0E0],"parents":[2147483647,0,0,1,1,2,2,3,3,4,4,5,5,7,7,9,9,10,10,12,12,14,14,15,15,16,16,17,17,20,20],"right_children":[2,4,6,8,10,12,-1,14,-1,16,18,-1,20,-1,22,24,26,28,-1,-1,30,-1,-1,-1,-1,-1,-1,-1,-1,-1,-1],"split_conditions":[1E0,1.4964738E2,4.8862297E1,4.7599937E1,7.073502E0,1E0,-5.4847103E-2,1E0,-5.3990077E-2,-7.0148864E0,3.3213375E1,-5.2550178E-2,9.93978E0,-5.1187333E-2,1E0,2.4357574E1,6.7896776E0,1.5846931E2,-5.3678364E-2,-3.367048E-2,2.3071857E2,1.0405667E-1,-1.1143903E-2,7.938038E-3,-5.2778143E-2,9.206589E-2,2.4461834E-2,6.342272E-2,-3.2198112E-2,1.0042869E-1,-2.9476726E-2],"split_indices":[4,1,2,2,0,3,0,3,0,0,2,0,2,0,5,2,0,1,0,0,1,0,0,0,0,0,0,0,0,0,0],"split_type":[0,0,0,0,0,0,0,0,0,0,0,0,0,0,0,0,0,0,0,0,0,0,0,0,0,0,0,0,0,0,0],"sum_hessian":[4.5017184E2,2.7940155E2,1.707703E2,9.0701126E1,1.8870041E2,2.421619E1,1.465541E2,1.720499E1,7.349614E1,1.6826453E2,2.0435886E1,1.547063E1,8.745562E0,1.0551578E1,6.653413E0,1.6223059E1,1.5204147E2,2.3436346E0,1.8092253E1,1.3930849E0,7.3524766E0,4.598506E0,2.0549068E0,1.2926917E0,1.49303665E1,1.5054948E2,1.4919937E0,1.053856E0,1.2897787E0,6.3508797E0,1.0015967E0],"tree_param":{"num_deleted":"0","num_feature":"8","num_nodes":"31","size_leaf_vector":"1"}},{"base_weights":[-5.853533E-3,-5.469194E-1,3.2613394E-1,-5.5172957E-2,-2.3690258E-1,7.305101E-2,8.8632524E-1,-4.001267E-2,1.361157E-2,8.67636E-1,-5.4041564E-1,7.512232E-3,8.97055E-1,4.3646616E-1,9.109076E-2,-5.48303E-1,1.2194151E-2,4.04046E-2,9.0633795E-2,7.8958504E-2,-4.886717E-2,-5.5663843E-2,8.710378E-3],"categories":[],"categories_nodes":[],"categories_segments":[],"categories_sizes":[],"default_left":[0,0,0,0,0,0,0,0,0,0,0,0,0,0,0,0,0,0,0,0,0,0,0],"id":44,"left_children":[1,3,5,-1,7,9,11,-1,-1,13,15,-1,17,19,-1,21,-1,-1,-1,-1,-1,-1,-1],"loss_changes":[8.6410034E1,1.4206696E-1,4.2203766E1,0E0,3.3132687E-1,1.01103424E2,7.393646E-1,0E0,0E0,1.2877579E0,6.787224E-1,0E0,5.203247E-2,3.7045035E0,0E0,6.624527E-1,0E0,0E0,0E0,0E0,0E0,0E0,0E0],"parents":[2147483647,0,0,1,1,2,2,4,4,5,5,6,6,9,9,10,10,12,12,13,13,15,15],"right_children":[2,4,6,-1,8,10,12,-1,-1,14,16,-1,18,20,-1,22,-1,-1,-1,-1,-1,-1,-1],"split_conditions":[1.523031E2,1.4964738E2,7.073502E0,-5.5172957E-2,2.1453023E0,-6.873648E0,1.142472E1,-4.001267E-2,1.361157E-2,4.8862297E1,2.992944E2,7.512232E-3,2.8697197E1,1E0,9.109076E-2,6.7896776E0,1.2194151E-2,4.04046E-2,9.0633795E-2,7.8958504E-2,-4.886717E-2,-5.5663843E-2,8.710378E-3],"split_indices":[1,1,0,0,0,0,2,0,0,2,1,0,2,3,0,0,0,0,0,0,0,0,0],"split_type":[0,0,0,0,0,0,0,0,0,0,0,0,0,0,0,0,0,0,0,0,0,0,0],"sum_hessian":[4.790593E2,1.81921E2,2.971383E2,1.7837373E2,3.5472739E0,2.0545042E2,9.1687874E1,2.4169848E0,1.1302891E0,8.933111E1,1.16119316E2,1.3013704E0,9.0386505E1,9.158621E0,8.0172485E1,1.14923E2,1.196314E0,2.4933329E0,8.789317E1,6.7345934E0,2.4240272E0,1.13557304E2,1.3656977E0],"tree_param":{"num_deleted":"0","num_feature":"8","num_nodes":"23","size_leaf_vector":"1"}},{"base_weights":[3.9353725E-3,4.7138488E-1,-3.9798003E-1,-6.9141604E-2,5.126489E-1,-7.331141E-2,-1.8575346E-2,5.468308E-1,-1.3307346E-1,1.7445213E-1,-7.208042E-2,-1.621365E-1,5.7395685E-1,5.6566644E-2,-7.5464755E-2,-6.6237E-1,5.4301053E-1,4.2844065E-2,-7.715779E-2,2.734162E-2,6.150487E-2,-2.3867667E-2,-7.186737E-2,-6.106612E-2,5.916431E-2],"categories":[],"categories_nodes":[],"categories_segments":[],"categories_sizes":[],"default_left":[0,0,0,0,0,0,0,0,0,0,0,0,0,0,0,0,0,0,0,0,0,0,0,0,0],"id":45,"left_children":[1,3,5,-1,7,-1,9,11,13,15,-1,17,19,-1,-1,21,23,-1,-1,-1,-1,-1,-1,-1,-1],"loss_changes":[1.3900357E2,1.6766434E1,5.0570724E1,0E0,7.3763504E0,0E0,2.5556953E1,6.1405487E0,8.0014E0,4.599588E1,0E0,4.782071E0,3.5749283E0,0E0,0E0,9.1851234E-1,6.155653E0,0E0,0E0,0E0,0E0,0E0,0E0,0E0,0E0],"parents":[2147483647,0,0,1,1,2,2,4,4,6,6,7,7,8,8,9,9,11,11,12,12,15,15,16,16],"right_children":[2,4,6,-1,8,-1,10,12,14,16,-1,18,20,-1,-1,22,24,-1,-1,-1,-1,-1,-1,-1,-1],"split_conditions":[1.4964738E2,9.93978E0,1E0,-6.9141604E-2,1.522326E1,-7.331141E-2,6.9298015E0,-1.4963657E1,1E0,-7.2071757E0,-7.208042E-2,1E0,4.8862297E1,5.6566644E-2,-7.5464755E-2,4.8862297E1,9.93978E0,4.2844065E-2,-7.715779E-2,2.734162E-2,6.150487E-2,-2.3867667E-2,-7.186737E-2,-6.106612E-2,5.916431E-2],"split_indices":[1,2,4,0,0,0,0,0,4,0,0,4,2,0,0,2,2,0,0,0,0,0,0,0,0],"split_type":[0,0,0,0,0,0,0,0,0,0,0,0,0,0,0,0,0,0,0,0,0,0,0,0,0],"sum_hessian":[7.378734E2,3.4104575E2,3.9682764E2,1.1147876E1,3.298979E2,2.1021193E2,1.8661572E2,3.1345786E2,1.644001E1,1.4696877E2,3.9646957E1,1.1367941E1,3.0208994E2,7.7819304E0,8.65808E0,4.4693577E1,1.022752E2,5.924154E0,5.443787E0,3.7256252E1,2.6483368E2,5.857108E0,3.8836468E1,3.6695178E0,9.860568E1],"tree_param":{"num_deleted":"0","num_feature":"8","num_nodes":"25","size_leaf_vector":"1"}},{"base_weights":[3.8802568E-2],"categories":[],"categories_nodes":[],"categories_segments":[],"categories_sizes":[],"default_left":[0],"id":46,"left_children":[-1],"loss_changes":[0E0],"parents":[2147483647],"right_children":[-1],"split_conditions":[3.8802568E-3],"split_indices":[0],"split_type":[0],"sum_hessian":[1.7831992E0],"tree_param":{"num_deleted":"0","num_feature":"8","num_nodes":"1","size_leaf_vector":"1"}},{"base_weights":[3.853049E-2,-2.3127927E-1,9.938268E-1,9.9079096E-1,-4.8971493E-2,1.2227095E0,-3.0851219E-2,-3.186781E-2,1.4211947E0,1.3219142E0,4.1099273E-2,1.6960584E-1,1.8111316E-2,4.706035E-2,1.4161421E-1],"categories":[],"categories_nodes":[],"categories_segments":[],"categories_sizes":[],"default_left":[0,0,0,0,0,0,0,0,0,0,0,0,0,0,0],"id":47,"left_children":[1,3,5,7,-1,9,-1,-1,11,13,-1,-1,-1,-1,-1],"loss_changes":[1.3286833E1,1.3216968E1,3.759079E0,4.605336E0,0E0,2.499609E-1,0E0,0E0,1.6453171E0,1.5239716E-3,0E0,0E0,0E0,0E0,0E0],"parents":[2147483647,0,0,1,1,2,2,3,3,5,5,8,8,9,9],"right_children":[2,4,6,8,-1,10,-1,-1,12,14,-1,-1,-1,-1,-1],"split_conditions":[1.4699094E1,-1.4963657E1,1.4964738E2,1E0,-4.8971493E-2,2.587331E2,-3.0851219E-2,-3.186781E-2,1.4366415E2,5.863611E1,4.1099273E-2,1.6960584E-1,1.8111316E-2,4.706035E-2,1.4161421E-1],"split_indices":[0,0,1,4,0,2,0,0,1,2,0,0,0,0,0],"split_type":[0,0,0,0,0,0,0,0,0,0,0,0,0,0,0],"sum_hessian":[4.9657883E1,3.9312523E1,1.034536E1,6.3676896E0,3.294483E1,8.850968E0,1.4943913E0,1.639432E0,4.7282577E0,7.3269577E0,1.5240111E0,3.569402E0,1.1588558E0,1.327535E0,5.9994226E0],"tree_param":{"num_deleted":"0","num_feature":"8","num_nodes":"15","size_leaf_vector":"1"}},{"base_weights":[1.2331498E-3,1.0590351E0,-4.951468E-2,1.101226E-1,1.6611693E-2],"categories":[],"categories_nodes":[],"categories_segments":[],"categories_sizes":[],"default_left":[0,0,0,0,0],"id":48,"left_children":[1,3,-1,-1,-1],"loss_changes":[3.5740074E1,6.3604736E-1,0E0,0E0,0E0],"parents":[2147483647,0,0,1,1],"right_children":[2,4,-1,-1,-1],"split_conditions":[1.142472E1,9.93978E0,-4.951468E-2,1.101226E-1,1.6611693E-2],"split_indices":[2,2,0,0,0],"split_type":[0,0,0,0,0],"sum_hessian":[6.606837E1,2.0739117E1,4.532925E1,1.9580631E1,1.1584847E0],"tree_param":{"num_deleted":"0","num_feature":"8","num_nodes":"5","size_leaf_vector":"1"}},{"base_weights":[-4.079734E-3,2.7734202E-1,-4.7852817E-1,-4.324447E-1,6.027994E-1,-9.5198035E-2,-5.436629E-2,-1.3584996E-2,-5.3479202E-2,7.2694093E-1,-4.4183937E-1,-5.196337E-2,5.822108E-1,-5.056978E-2,6.820827E-1,-4.6864265E-1,8.513488E-1,1.7931549E-1,-5.2790284E-2,-3.2785807E-2,7.624028E-1,-3.2970533E-2,9.090898E-2,7.527282E-3,-5.2083492E-2,2.3938663E-2,8.5694745E-2,6.457352E-2,-3.3516217E-2,1.1003428E-1,7.114763E-3],"categories":[],"categories_nodes":[],"categories_segments":[],"categories_sizes":[],"default_left":[0,0,0,0,0,0,0,0,0,0,0,0,0,0,0,0,0,0,0,0,0,0,0,0,0,0,0,0,0,0,0],"id":49,"left_children":[1,3,5,7,9,11,-1,13,-1,15,17,-1,19,-1,21,23,25,27,-1,-1,29,-1,-1,-1,-1,-1,-1,-1,-1,-1,-1],"loss_changes":[5.7338142E1,6.2530197E1,3.9401932E0,3.6505651E0,2.4342812E1,7.3275366E0,0E0,6.432229E0,0E0,2.508043E1,1.1796834E0,0E0,1.8707197E0,0E0,2.0895789E0,5.01488E-1,3.1100464E-1,9.8823744E-1,0E0,0E0,1.9191785E0,0E0,0E0,0E0,0E0,0E0,0E0,0E0,0E0,0E0,0E0],"parents":[2147483647,0,0,1,1,2,2,3,3,4,4,5,5,7,7,9,9,10,10,12,12,14,14,15,15,16,16,17,17,20,20],"right_children":[2,4,6,8,10,12,-1,14,-1,16,18,-1,20,-1,22,24,26,28,-1,-1,30,-1,-1,-1,-1,-1,-1,-1,-1,-1,-1],"split_conditions":[1E0,1.4964738E2,4.8862297E1,4.7599937E1,7.073502E0,1E0,-5.436629E-2,1E0,-5.3479202E-2,-7.0148864E0,1.5846931E2,-5.196337E-2,9.93978E0,-5.056978E-2,1.3827486E1,2.4357574E1,1.142472E1,1E0,-5.2790284E-2,-3.2785807E-2,1E0,-3.2970533E-2,9.090898E-2,7.527282E-3,-5.2083492E-2,2.3938663E-2,8.5694745E-2,6.457352E-2,-3.3516217E-2,1.1003428E-1,7.114763E-3],"split_indices":[4,1,2,2,0,3,0,3,0,0,1,0,2,0,2,2,2,5,0,0,5,0,0,0,0,0,0,0,0,0,0],"split_type":[0,0,0,0,0,0,0,0,0,0,0,0,0,0,0,0,0,0,0,0,0,0,0,0,0,0,0,0,0,0,0],"sum_hessian":[4.2744052E2,2.685588E2,1.5888173E2,8.4325485E1,1.8423332E2,2.3433386E1,1.3544833E2,1.6781088E1,6.75444E1,1.6493687E2,1.9296444E1,1.4549927E1,8.883458E0,9.988403E0,6.792684E0,1.528435E1,1.4965253E2,2.2163832E0,1.7080061E1,1.3327657E0,7.5506926E0,1.1618459E0,5.6308384E0,1.2995046E0,1.3984846E1,1.7534043E0,1.4789912E2,1.0286726E0,1.1877106E0,4.673912E0,2.8767805E0],"tree_param":{"num_deleted":"0","num_feature":"8","num_nodes":"31","size_leaf_vector":"1"}},{"base_weights":[-5.9292093E-3,-5.4151237E-1,3.097348E-1,-5.469362E-2,-2.2890492E-1,6.9365285E-2,8.2606244E-1,-3.9485067E-2,1.6195353E-2,8.0837995E-1,-5.336773E-1,3.0632445E-1,8.450433E-2,4.0332463E-1,8.499741E-2,-5.4211426E-1,1.2783554E-2,-1.5906494E-2,5.8829214E-2,7.332648E-2,-4.8109792E-2,-5.5096067E-2,8.097365E-3],"categories":[],"categories_nodes":[],"categories_segments":[],"categories_sizes":[],"default_left":[0,0,0,0,0,0,0,0,0,0,0,0,0,0,0,0,0,0,0,0,0,0,0],"id":50,"left_children":[1,3,5,-1,7,9,11,-1,-1,13,15,17,-1,19,-1,21,-1,-1,-1,-1,-1,-1,-1],"loss_changes":[7.710219E1,1.6153336E-1,3.5555725E1,0E0,3.6256135E-1,8.817656E1,6.3944626E-1,0E0,0E0,1.1544304E0,6.777649E-1,7.204274E-1,0E0,3.3230247E0,0E0,6.3903046E-1,0E0,0E0,0E0,0E0,0E0,0E0,0E0],"parents":[2147483647,0,0,1,1,2,2,4,4,5,5,6,6,9,9,10,10,11,11,13,13,15,15],"right_children":[2,4,6,-1,8,10,12,-1,-1,14,16,18,-1,20,-1,22,-1,-1,-1,-1,-1,-1,-1],"split_conditions":[1.523031E2,3.9466486E2,7.073502E0,-5.469362E-2,2.1453023E0,-6.873648E0,2.8697197E1,-3.9485067E-2,1.6195353E-2,4.8862297E1,2.992944E2,2.5093642E2,8.450433E-2,1E0,8.499741E-2,6.7896776E0,1.2783554E-2,-1.5906494E-2,5.8829214E-2,7.332648E-2,-4.8109792E-2,-5.5096067E-2,8.097365E-3],"split_indices":[1,2,0,0,0,0,2,0,0,2,1,1,0,3,0,0,0,0,0,0,0,0,0],"split_type":[0,0,0,0,0,0,0,0,0,0,0,0,0,0,0,0,0,0,0,0,0,0,0],"sum_hessian":[4.5406036E2,1.6811176E2,2.859486E2,1.6450787E2,3.6038837E0,1.9588928E2,9.005931E1,2.5226395E0,1.0812445E0,8.786826E1,1.0802102E2,3.7769246E0,8.628239E1,9.178843E0,7.868942E1,1.0683888E2,1.1821375E0,1.589432E0,2.1874926E0,6.8094425E0,2.3694E0,1.0545739E2,1.3814906E0],"tree_param":{"num_deleted":"0","num_feature":"8","num_nodes":"23","size_leaf_vector":"1"}},{"base_weights":[3.0192435E-3,4.557665E-1,-3.8327023E-1,-6.6022456E-2,4.961051E-1,-7.034329E-2,-1.8476544E-2,5.324473E-1,-9.9590324E-2,1.6839556E-1,-6.913992E-2,-1.6299498E-1,5.6023055E-1,5.578952E-2,-6.77367E-1,-6.308767E-1,5.2776945E-1,4.087995E-2,-7.350793E-2,2.5561217E-2,6.040162E-2,-7.361521E-2,-1.7908996E-2,-7.024851E-2,-2.7263239E-2,-5.8150448E-2,5.7612356E-2],"categories":[],"categories_nodes":[],"categories_segments":[],"categories_sizes":[],"default_left":[0,0,0,0,0,0,0,0,0,0,0,0,0,0,0,0,0,0,0,0,0,0,0,0,0,0,0],"id":51,"left_children":[1,3,5,-1,7,-1,9,11,13,15,-1,17,19,-1,21,23,25,-1,-1,-1,-1,-1,-1,-1,-1,-1,-1],"loss_changes":[1.2201392E2,1.4786942E1,4.3955177E1,0E0,6.776314E0,0E0,2.2373348E1,5.7498703E0,7.4815373E0,4.0353313E1,0E0,4.2340865E0,3.6047058E0,0E0,1.729331E-1,9.287739E-1,5.5195484E0,0E0,0E0,0E0,0E0,0E0,0E0,0E0,0E0,0E0,0E0],"parents":[2147483647,0,0,1,1,2,2,4,4,6,6,7,7,8,8,9,9,11,11,12,12,14,14,15,15,16,16],"right_children":[2,4,6,-1,8,-1,10,12,14,16,-1,18,20,-1,22,24,26,-1,-1,-1,-1,-1,-1,-1,-1,-1,-1],"split_conditions":[1.4964738E2,9.93978E0,1E0,-6.6022456E-2,1.4699094E1,-7.034329E-2,6.9298015E0,-1.4963657E1,1E0,-7.2071757E0,-6.913992E-2,1E0,4.8862297E1,5.578952E-2,2.587331E2,1E0,9.93978E0,4.087995E-2,-7.350793E-2,2.5561217E-2,6.040162E-2,-7.361521E-2,-1.7908996E-2,-7.024851E-2,-2.7263239E-2,-5.8150448E-2,5.7612356E-2],"split_indices":[1,2,4,0,0,0,0,0,4,0,0,4,2,0,2,3,2,0,0,0,0,0,0,0,0,0,0],"split_type":[0,0,0,0,0,0,0,0,0,0,0,0,0,0,0,0,0,0,0,0,0,0,0,0,0,0,0],"sum_hessian":[6.956561E2,3.2019476E2,3.7546136E2,1.0633924E1,3.0956082E2,1.9946861E2,1.7599277E2,2.9186115E2,1.76997E1,1.3832841E2,3.7664352E1,1.1025101E1,2.8083603E2,8.294882E0,9.404818E0,4.267059E1,9.565782E1,5.6566935E0,5.3684072E0,3.6153374E1,2.4468266E2,7.9853377E0,1.4194797E0,3.4761337E1,7.9092507E0,3.5350738E0,9.212275E1],"tree_param":{"num_deleted":"0","num_feature":"8","num_nodes":"27","size_leaf_vector":"1"}},{"base_weights":[4.7414135E-2],"categories":[],"categories_nodes":[],"categories_segments":[],"categories_sizes":[],"default_left":[0],"id":52,"left_children":[-1],"loss_changes":[0E0],"parents":[2147483647],"right_children":[-1],"split_conditions":[4.7414135E-3],"split_indices":[0],"split_type":[0],"sum_hessian":[1.739449E0],"tree_param":{"num_deleted":"0","num_feature":"8","num_nodes":"1","size_leaf_vector":"1"}},{"base_weights":[4.3375272E-2,-2.2139195E-1,8.924091E-1,8.869101E-1,-4.882143E-2,-3.0481374E-2,1.0938885E0,1.248482E-1,-3.1570464E-2,1.21253006E-1,1.3566754E-2],"categories":[],"categories_nodes":[],"categories_segments":[],"categories_sizes":[],"default_left":[0,0,0,0,0,0,0,0,0,0,0],"id":53,"left_children":[1,3,5,7,-1,-1,9,-1,-1,-1,-1],"loss_changes":[1.123714E1,1.1740271E1,3.1973305E0,3.7746377E0,0E0,0E0,1.0155973E0,0E0,0E0,0E0,0E0],"parents":[2147483647,0,0,1,1,2,2,3,3,6,6],"right_children":[2,4,6,8,-1,-1,10,-1,-1,-1,-1],"split_conditions":[1.4699094E1,-1.4963657E1,1E0,1.4964738E2,-4.882143E-2,-3.0481374E-2,1.358995E2,1.248482E-1,-3.1570464E-2,1.21253006E-1,1.3566754E-2],"split_indices":[0,0,4,1,0,0,1,0,0,0,0],"split_type":[0,0,0,0,0,0,0,0,0,0,0],"sum_hessian":[4.8109196E1,3.723643E1,1.0872765E1,6.774242E0,3.046219E1,1.4923146E0,9.380449E0,5.1790085E0,1.5952334E0,8.110817E0,1.2696325E0],"tree_param":{"num_deleted":"0","num_feature":"8","num_nodes":"11","size_leaf_vector":"1"}},{"base_weights":[3.7507918E-3,9.7098887E-1,-4.9382348E-2,1.01017214E-1,1.54438615E-2],"categories":[],"categories_nodes":[],"categories_segments":[],"categories_sizes":[],"default_left":[0,0,0,0,0],"id":54,"left_children":[1,3,-1,-1,-1],"loss_changes":[3.1240671E1,5.4943657E-1,0E0,0E0,0E0],"parents":[2147483647,0,0,1,1],"right_children":[2,4,-1,-1,-1],"split_conditions":[1.142472E1,9.93978E0,-4.9382348E-2,1.01017214E-1,1.54438615E-2],"split_indices":[2,2,0,0,0],"split_type":[0,0,0,0,0],"sum_hessian":[6.2916298E1,2.104851E1,4.1867786E1,1.9858454E1,1.1900556E0],"tree_param":{"num_deleted":"0","num_feature":"8","num_nodes":"5","size_leaf_vector":"1"}},{"base_weights":[-3.607314E-3,2.656704E-1,-4.7052363E-1,-4.2177215E-1,5.6844264E-1,-8.435575E-2,-5.3919937E-2,-4.7492636E-3,-5.30061E-2,6.84009E-1,-4.3208253E-1,-5.1415306E-2,5.607254E-1,-4.99663E-2,6.4882755E-1,-4.5958126E-1,7.990822E-1,1.7085294E-1,-5.2402377E-2,-3.188625E-2,7.269718E-1,8.61731E-2,-3.2449406E-2,7.186769E-3,-5.13973E-2,8.041976E-2,1.8189784E-2,5.802312E-2,-3.0529125E-2,1.04290724E-1,6.9843493E-3],"categories":[],"categories_nodes":[],"categories_segments":[],"categories_sizes":[],"default_left":[0,0,0,0,0,0,0,0,0,0,0,0,0,0,0,0,0,0,0,0,0,0,0,0,0,0,0,0,0,0,0],"id":55,"left_children":[1,3,5,7,9,11,-1,13,-1,15,17,-1,19,-1,21,23,25,27,-1,-1,29,-1,-1,-1,-1,-1,-1,-1,-1,-1,-1],"loss_changes":[5.107554E1,5.386722E1,3.895031E0,3.5810728E0,2.102721E1,6.8370075E0,0E0,5.941945E0,0E0,2.1569992E1,1.1526749E0,0E0,1.6828141E0,0E0,1.9206588E0,4.8109078E-1,3.170395E-1,8.1876177E-1,0E0,0E0,1.7230783E0,0E0,0E0,0E0,0E0,0E0,0E0,0E0,0E0,0E0,0E0],"parents":[2147483647,0,0,1,1,2,2,3,3,4,4,5,5,7,7,9,9,10,10,12,12,14,14,15,15,16,16,17,17,20,20],"right_children":[2,4,6,8,10,12,-1,14,-1,16,18,-1,20,-1,22,24,26,28,-1,-1,30,-1,-1,-1,-1,-1,-1,-1,-1,-1,-1],"split_conditions":[1E0,1.4964738E2,4.8862297E1,4.7599937E1,7.073502E0,1E0,-5.3919937E-2,1E0,-5.30061E-2,-7.0148864E0,3.3213375E1,-5.1415306E-2,9.93978E0,-4.99663E-2,8.4200007E-1,2.4357574E1,6.7896776E0,1.5846931E2,-5.2402377E-2,-3.188625E-2,1E0,8.61731E-2,-3.2449406E-2,7.186769E-3,-5.13973E-2,8.041976E-2,1.8189784E-2,5.802312E-2,-3.0529125E-2,1.04290724E-1,6.9843493E-3],"split_indices":[4,1,2,2,0,3,0,3,0,0,2,0,2,0,6,2,0,1,0,0,5,0,0,0,0,0,0,0,0,0,0],"split_type":[0,0,0,0,0,0,0,0,0,0,0,0,0,0,0,0,0,0,0,0,0,0,0,0,0,0,0,0,0,0,0],"sum_hessian":[4.0423724E2,2.5665274E2,1.475845E2,7.835506E1,1.7829768E2,2.261988E1,1.2496462E2,1.6367458E1,6.1987595E1,1.6011934E2,1.8178349E1,1.3696978E1,8.922903E0,9.448319E0,6.9191394E0,1.4365186E1,1.4575415E2,2.2916694E0,1.5886679E1,1.2724624E0,7.65044E0,5.7713656E0,1.1477737E0,1.3038892E0,1.3061296E1,1.4425552E2,1.4986194E0,1.1146843E0,1.1769848E0,4.7700286E0,2.8804116E0],"tree_param":{"num_deleted":"0","num_feature":"8","num_nodes":"31","size_leaf_vector":"1"}},{"base_weights":[-5.9174323E-3,-5.3649724E-1,2.9588825E-1,-5.42289E-2,-2.1515399E-1,6.637817E-2,7.7669287E-1,-3.840628E-2,1.627248E-2,7.592288E-1,-5.271773E-1,2.8351244E-1,7.951825E-2,3.671336E-1,8.009028E-2,-5.362282E-1,1.3440134E-2,5.5606972E-2,-1.6644051E-2,6.764709E-2,-4.7544982E-2,-5.4566827E-2,8.179884E-3],"categories":[],"categories_nodes":[],"categories_segments":[],"categories_sizes":[],"default_left":[0,0,0,0,0,0,0,0,0,0,0,0,0,0,0,0,0,0,0,0,0,0,0],"id":56,"left_children":[1,3,5,-1,7,9,11,-1,-1,13,15,17,-1,19,-1,21,-1,-1,-1,-1,-1,-1,-1],"loss_changes":[6.897302E1,1.739769E-1,3.0246704E1,0E0,3.4477675E-1,7.728031E1,5.8267593E-1,0E0,0E0,1.1221161E0,6.7850304E-1,6.7588294E-1,0E0,2.973102E0,0E0,6.2870216E-1,0E0,0E0,0E0,0E0,0E0,0E0,0E0],"parents":[2147483647,0,0,1,1,2,2,4,4,5,5,6,6,9,9,10,10,11,11,13,13,15,15],"right_children":[2,4,6,-1,8,10,12,-1,-1,14,16,18,-1,20,-1,22,-1,-1,-1,-1,-1,-1,-1],"split_conditions":[1.523031E2,3.9466486E2,7.073502E0,-5.42289E-2,1.26984634E2,-6.873648E0,2.8697197E1,-3.840628E-2,1.627248E-2,4.8862297E1,2.992944E2,8.940594E0,7.951825E-2,1E0,8.009028E-2,6.7896776E0,1.3440134E-2,5.5606972E-2,-1.6644051E-2,6.764709E-2,-4.7544982E-2,-5.4566827E-2,8.179884E-3],"split_indices":[1,2,0,0,1,0,2,0,0,2,1,0,0,3,0,0,0,0,0,0,0,0,0],"split_type":[0,0,0,0,0,0,0,0,0,0,0,0,0,0,0,0,0,0,0,0,0,0,0],"sum_hessian":[4.287347E2,1.5516835E2,2.7356638E2,1.5174577E2,3.4225795E0,1.8594455E2,8.762181E1,2.3539968E0,1.0685828E0,8.566714E1,1.0027741E2,3.7565243E0,8.386529E1,9.172838E0,7.64943E1,9.911098E1,1.1664374E0,2.1925535E0,1.5639708E0,6.853765E0,2.3190737E0,9.773521E1,1.3757745E0],"tree_param":{"num_deleted":"0","num_feature":"8","num_nodes":"23","size_leaf_vector":"1"}},{"base_weights":[2.182907E-3,4.4166583E-1,-3.7075755E-1,-6.3384004E-2,4.812167E-1,-6.7834385E-2,-1.8696232E-2,5.1756644E-1,-1.00094944E-1,1.6261573E-1,-6.663637E-2,-1.5906331E-1,5.457727E-1,5.4305978E-2,-6.4501387E-1,-5.8449036E-1,5.2286077E-1,3.9510045E-2,-7.0426784E-2,2.406646E-2,5.9166588E-2,-7.0624985E-2,-1.5268156E-2,-1.465549E-2,-6.526351E-2,-5.5535536E-2,5.7214666E-2],"categories":[],"categories_nodes":[],"categories_segments":[],"categories_sizes":[],"default_left":[0,0,0,0,0,0,0,0,0,0,0,0,0,0,0,0,0,0,0,0,0,0,0,0,0,0,0],"id":57,"left_children":[1,3,5,-1,7,-1,9,11,13,15,-1,17,19,-1,21,23,25,-1,-1,-1,-1,-1,-1,-1,-1,-1,-1],"loss_changes":[1.0747924E2,1.3109604E1,3.8401516E1,0E0,6.1989365E0,0E0,1.965318E1,5.315277E0,6.6440787E0,3.551983E1,0E0,3.8245246E0,3.5432587E0,0E0,1.9904089E-1,1.1887045E0,5.036772E0,0E0,0E0,0E0,0E0,0E0,0E0,0E0,0E0,0E0,0E0],"parents":[2147483647,0,0,1,1,2,2,4,4,6,6,7,7,8,8,9,9,11,11,12,12,14,14,15,15,16,16],"right_children":[2,4,6,-1,8,-1,10,12,14,16,-1,18,20,-1,22,24,26,-1,-1,-1,-1,-1,-1,-1,-1,-1,-1],"split_conditions":[1.4964738E2,9.93978E0,1E0,-6.3384004E-2,1.4699094E1,-6.7834385E-2,6.9298015E0,-1.4963657E1,1E0,-6.873648E0,-6.663637E-2,1E0,4.8862297E1,5.4305978E-2,8.7217015E-1,4.8862297E1,9.93978E0,3.9510045E-2,-7.0426784E-2,2.406646E-2,5.9166588E-2,-7.0624985E-2,-1.5268156E-2,-1.465549E-2,-6.526351E-2,-5.5535536E-2,5.7214666E-2],"split_indices":[1,2,4,0,0,0,0,0,4,0,0,4,2,0,6,2,2,0,0,0,0,0,0,0,0,0,0],"split_type":[0,0,0,0,0,0,0,0,0,0,0,0,0,0,0,0,0,0,0,0,0,0,0,0,0,0,0],"sum_hessian":[6.5375806E2,3.0002106E2,3.5373703E2,1.01087265E1,2.8991232E2,1.882988E2,1.6543823E2,2.72954E2,1.695831E1,1.2983919E2,3.5599052E1,1.0737456E1,2.6221655E2,7.779621E0,9.178688E0,4.203696E1,8.780222E1,5.4615126E0,5.2759433E0,3.5101063E1,2.271155E2,7.776903E0,1.4017849E0,6.084602E0,3.595236E1,3.3892097E0,8.441301E1],"tree_param":{"num_deleted":"0","num_feature":"8","num_nodes":"27","size_leaf_vector":"1"}},{"base_weights":[5.637451E-2],"categories":[],"categories_nodes":[],"categories_segments":[],"categories_sizes":[],"default_left":[0],"id":58,"left_children":[-1],"loss_changes":[0E0],"parents":[2147483647],"right_children":[-1],"split_conditions":[5.637451E-3],"split_indices":[0],"split_type":[0],"sum_hessian":[1.6953624E0],"tree_param":{"num_deleted":"0","num_feature":"8","num_nodes":"1","size_leaf_vector":"1"}},{"base_weights":[4.589751E-2,-2.1197541E-1,8.046203E-1,7.918198E-1,-4.8661884E-2,-2.9706884E-2,9.7430813E-1,-3.167859E-2,1.1119224E0,1.0723408E-1,1.3219058E-2,1.3534747E-1,3.2341048E-2],"categories":[],"categories_nodes":[],"categories_segments":[],"categories_sizes":[],"default_left":[0,0,0,0,0,0,0,0,0,0,0,0,0],"id":59,"left_children":[1,3,5,7,-1,-1,9,-1,11,-1,-1,-1,-1],"loss_changes":[9.479728E0,1.0393255E1,2.5846767E0,3.254806E0,0E0,0E0,7.558441E-1,0E0,8.1334305E-1,0E0,0E0,0E0,0E0],"parents":[2147483647,0,0,1,1,2,2,3,3,6,6,8,8],"right_children":[2,4,6,8,-1,-1,10,-1,12,-1,-1,-1,-1],"split_conditions":[1.4699094E1,-1.4963657E1,1E0,1E0,-4.8661884E-2,-2.9706884E-2,1.358995E2,-3.167859E-2,7.752252E1,1.0723408E-1,1.3219058E-2,1.3534747E-1,3.2341048E-2],"split_indices":[0,0,4,4,0,0,1,0,1,0,0,0,0],"split_type":[0,0,0,0,0,0,0,0,0,0,0,0,0],"sum_hessian":[4.657973E1,3.5301987E1,1.1277741E1,7.17929E0,2.8122698E1,1.4050231E0,9.872718E0,1.6108437E0,5.568446E0,8.598376E0,1.2743416E0,3.71416E0,1.8542862E0],"tree_param":{"num_deleted":"0","num_feature":"8","num_nodes":"13","size_leaf_vector":"1"}},{"base_weights":[6.8616397E-3,9.022214E-1,-4.924449E-2,9.3900084E-2,1.4678055E-2],"categories":[],"categories_nodes":[],"categories_segments":[],"categories_sizes":[],"default_left":[0,0,0,0,0],"id":60,"left_children":[1,3,-1,-1,-1],"loss_changes":[2.7586182E1,4.7590256E-1,0E0,0E0,0E0],"parents":[2147483647,0,0,1,1],"right_children":[2,4,-1,-1,-1],"split_conditions":[1.142472E1,9.93978E0,-4.924449E-2,9.3900084E-2,1.4678055E-2],"split_indices":[2,2,0,0,0],"split_type":[0,0,0,0,0],"sum_hessian":[5.97121E1,2.108872E1,3.862338E1,1.9877956E1,1.2107636E0],"tree_param":{"num_deleted":"0","num_feature":"8","num_nodes":"5","size_leaf_vector":"1"}},{"base_weights":[-3.1072816E-3,2.5544795E-1,-4.625743E-1,-4.111473E-1,5.3941005E-1,-7.2943956E-2,-5.3507358E-2,3.6898828E-3,-5.2568283E-2,6.4801127E-1,-4.2230958E-1,-5.0860148E-2,5.418373E-1,-4.9377825E-2,6.189538E-1,-4.5044553E-1,7.5558686E-1,1.6620769E-1,-5.1763035E-2,-3.0971551E-2,6.9561285E-1,9.071908E-2,-1.3012866E-2,6.8890573E-3,-5.07204E-2,1.9328035E-2,7.614392E-2,5.4806657E-2,-2.9781917E-2,9.936487E-2,6.8470794E-3],"categories":[],"categories_nodes":[],"categories_segments":[],"categories_sizes":[],"default_left":[0,0,0,0,0,0,0,0,0,0,0,0,0,0,0,0,0,0,0,0,0,0,0,0,0,0,0,0,0,0,0],"id":61,"left_children":[1,3,5,7,9,11,-1,13,-1,15,17,-1,19,-1,21,23,25,27,-1,-1,29,-1,-1,-1,-1,-1,-1,-1,-1,-1,-1],"loss_changes":[4.5509632E1,4.6625023E1,3.857605E0,3.5084724E0,1.8274143E1,6.381833E0,0E0,5.496827E0,0E0,1.868618E1,1.1009963E0,0E0,1.517021E0,0E0,1.8510389E0,4.6161056E-1,3.1939697E-1,7.442229E-1,0E0,0E0,1.563201E0,0E0,0E0,0E0,0E0,0E0,0E0,0E0,0E0,0E0,0E0],"parents":[2147483647,0,0,1,1,2,2,3,3,4,4,5,5,7,7,9,9,10,10,12,12,14,14,15,15,16,16,17,17,20,20],"right_children":[2,4,6,8,10,12,-1,14,-1,16,18,-1,20,-1,22,24,26,28,-1,-1,30,-1,-1,-1,-1,-1,-1,-1,-1,-1,-1],"split_conditions":[1E0,1.4964738E2,4.8862297E1,4.7599937E1,7.073502E0,1E0,-5.3507358E-2,1E0,-5.2568283E-2,-7.0148864E0,3.3213375E1,-5.0860148E-2,9.93978E0,-4.9377825E-2,1E0,2.4357574E1,1.142472E1,1.5846931E2,-5.1763035E-2,-3.0971551E-2,1E0,9.071908E-2,-1.3012866E-2,6.8890573E-3,-5.07204E-2,1.9328035E-2,7.614392E-2,5.4806657E-2,-2.9781917E-2,9.936487E-2,6.8470794E-3],"split_indices":[4,1,2,2,0,3,0,3,0,0,2,0,2,0,5,2,2,1,0,0,5,0,0,0,0,0,0,0,0,0,0],"split_type":[0,0,0,0,0,0,0,0,0,0,0,0,0,0,0,0,0,0,0,0,0,0,0,0,0,0,0,0,0,0,0],"sum_hessian":[3.810908E2,2.4414656E2,1.3694421E2,7.280064E1,1.7134592E2,2.1798643E1,1.1514558E2,1.5960598E1,5.6840042E1,1.5425322E2,1.70927E1,1.2858985E1,8.939658E0,8.934286E0,7.0263124E0,1.3474769E1,1.4077846E2,2.2789047E0,1.4813793E1,1.2123016E0,7.7273564E0,4.9215107E0,2.1048012E0,1.3065133E0,1.2168255E1,1.8005886E0,1.3897786E2,1.1507858E0,1.1281189E0,4.8419266E0,2.8854296E0],"tree_param":{"num_deleted":"0","num_feature":"8","num_nodes":"31","size_leaf_vector":"1"}},{"base_weights":[-5.9507755E-3,-5.318568E-1,2.839882E-1,-5.380386E-2,-2.0210037E-1,6.383241E-2,7.3560506E-1,-3.7375398E-2,1.6409209E-2,7.1749276E-1,-5.209126E-1,2.636821E-1,7.538506E-2,3.417515E-1,7.586911E-2,-5.306472E-1,1.4144452E-2,5.238102E-2,-1.6580386E-2,6.3657574E-2,-4.6912096E-2,-5.407105E-2,7.647447E-3],"categories":[],"categories_nodes":[],"categories_segments":[],"categories_sizes":[],"default_left":[0,0,0,0,0,0,0,0,0,0,0,0,0,0,0,0,0,0,0,0,0,0,0],"id":62,"left_children":[1,3,5,-1,7,9,11,-1,-1,13,15,17,-1,19,-1,21,-1,-1,-1,-1,-1,-1,-1],"loss_changes":[6.1825558E1,1.8499374E-1,2.594125E1,0E0,3.2867402E-1,6.795721E1,5.3799057E-1,0E0,0E0,1.0396233E0,6.805515E-1,6.145061E-1,0E0,2.7157738E0,0E0,6.0806465E-1,0E0,0E0,0E0,0E0,0E0,0E0,0E0],"parents":[2147483647,0,0,1,1,2,2,4,4,5,5,6,6,9,9,10,10,11,11,13,13,15,15],"right_children":[2,4,6,-1,8,10,12,-1,-1,14,16,18,-1,20,-1,22,-1,-1,-1,-1,-1,-1,-1],"split_conditions":[1.523031E2,3.9466486E2,7.073502E0,-5.380386E-2,2.1453023E0,-6.873648E0,2.8697197E1,-3.7375398E-2,1.6409209E-2,4.8862297E1,2.992944E2,8.940594E0,7.538506E-2,1E0,7.586911E-2,6.7896776E0,1.4144452E-2,5.238102E-2,-1.6580386E-2,6.3657574E-2,-4.6912096E-2,-5.407105E-2,7.647447E-3],"split_indices":[1,2,0,0,0,0,2,0,0,2,1,0,0,3,0,0,0,0,0,0,0,0,0],"split_type":[0,0,0,0,0,0,0,0,0,0,0,0,0,0,0,0,0,0,0,0,0,0,0],"sum_hessian":[4.034744E2,1.4309216E2,2.603822E2,1.3983905E2,3.253124E0,1.758161E2,8.456612E1,2.2008302E0,1.0522937E0,8.290891E1,9.290719E1,3.7229671E0,8.084315E1,9.110826E0,7.379809E1,9.1757484E1,1.149708E0,2.181855E0,1.5411122E0,6.83914E0,2.2716856E0,9.036897E1,1.38851E0],"tree_param":{"num_deleted":"0","num_feature":"8","num_nodes":"23","size_leaf_vector":"1"}},{"base_weights":[1.2499067E-3,4.323253E-1,-3.5698578E-1,-6.1046463E-2,4.7161776E-1,-6.534203E-2,-2.0170363E-2,5.059684E-1,-7.7387035E-2,1.5606655E-1,-6.390651E-2,-1.2448009E-1,5.319897E-1,5.298556E-2,-6.0278505E-1,-5.7592154E-1,5.020189E-1,3.7707772E-2,-6.526283E-2,2.2232551E-2,5.8064926E-2,-6.6652656E-2,-1.3670236E-2,-6.496973E-2,-2.1867022E-2,-5.3171176E-2,5.4962724E-2],"categories":[],"categories_nodes":[],"categories_segments":[],"categories_sizes":[],"default_left":[0,0,0,0,0,0,0,0,0,0,0,0,0,0,0,0,0,0,0,0,0,0,0,0,0,0,0],"id":63,"left_children":[1,3,5,-1,7,-1,9,11,13,15,-1,17,19,-1,21,23,25,-1,-1,-1,-1,-1,-1,-1,-1,-1,-1],"loss_changes":[9.490275E1,1.1716209E1,3.349763E1,0E0,5.1187897E0,0E0,1.7349157E1,4.226967E0,5.656387E0,3.1664236E1,0E0,3.1238344E0,3.5439453E0,0E0,1.8922329E-1,9.182348E-1,4.4591465E0,0E0,0E0,0E0,0E0,0E0,0E0,0E0,0E0,0E0,0E0],"parents":[2147483647,0,0,1,1,2,2,4,4,6,6,7,7,8,8,9,9,11,11,12,12,14,14,15,15,16,16],"right_children":[2,4,6,-1,8,-1,10,12,14,16,-1,18,20,-1,22,24,26,-1,-1,-1,-1,-1,-1,-1,-1,-1,-1],"split_conditions":[1.4810162E2,9.93978E0,1E0,-6.1046463E-2,1.4699094E1,-6.534203E-2,6.9298015E0,-1.4963657E1,1E0,-7.2071757E0,-6.390651E-2,1E0,4.8862297E1,5.298556E-2,8.7217015E-1,1E0,9.93978E0,3.7707772E-2,-6.526283E-2,2.2232551E-2,5.8064926E-2,-6.6652656E-2,-1.3670236E-2,-6.496973E-2,-2.1867022E-2,-5.3171176E-2,5.4962724E-2],"split_indices":[1,2,4,0,0,0,0,0,4,0,0,4,2,0,6,3,2,0,0,0,0,0,0,0,0,0,0],"split_type":[0,0,0,0,0,0,0,0,0,0,0,0,0,0,0,0,0,0,0,0,0,0,0,0,0,0,0],"sum_hessian":[6.125499E2,2.7791724E2,3.346327E2,9.563859E0,2.6835336E2,1.7748576E2,1.5714693E2,2.5262529E2,1.5728086E1,1.22898186E2,3.4248745E1,9.863635E0,2.4276166E2,7.291852E0,8.436234E0,3.9229393E1,8.366879E1,5.2058854E0,4.6577497E0,3.372277E1,2.0903888E2,7.042977E0,1.3932579E0,3.18363E1,7.3930926E0,3.236012E0,8.0432785E1],"tree_param":{"num_deleted":"0","num_feature":"8","num_nodes":"27","size_leaf_vector":"1"}},{"base_weights":[6.557056E-2],"categories":[],"categories_nodes":[],"categories_segments":[],"categories_sizes":[],"default_left":[0],"id":64,"left_children":[-1],"loss_changes":[0E0],"parents":[2147483647],"right_children":[-1],"split_conditions":[6.557056E-3],"split_indices":[0],"split_type":[0],"sum_hessian":[1.6515672E0],"tree_param":{"num_deleted":"0","num_feature":"8","num_nodes":"1","size_leaf_vector":"1"}},{"base_weights":[4.872931E-2,-2.0253019E-1,7.325691E-1,7.2464E-1,-4.8492327E-2,8.833102E-1,-2.9559657E-2,-3.096585E-2,9.982586E-1,9.425136E-1,1.455224E-2,1.14043765E-1,1.6878288E-2,1.01355925E-1,3.156527E-2],"categories":[],"categories_nodes":[],"categories_segments":[],"categories_sizes":[],"default_left":[0,0,0,0,0,0,0,0,0,0,0,0,0,0,0],"id":65,"left_children":[1,3,5,7,-1,9,-1,-1,11,13,-1,-1,-1,-1,-1],"loss_changes":[8.0356E0,9.345887E0,2.206317E0,2.6923375E0,0E0,3.519125E-1,0E0,0E0,6.20811E-1,1.3354874E-1,0E0,0E0,0E0,0E0,0E0],"parents":[2147483647,0,0,1,1,2,2,3,3,5,5,8,8,9,9],"right_children":[2,4,6,8,-1,10,-1,-1,12,14,-1,-1,-1,-1,-1],"split_conditions":[1.4699094E1,-1.4963657E1,1.4964738E2,1E0,-4.8492327E-2,3.1099185E2,-2.9559657E-2,-3.096585E-2,1.4366415E2,2E0,1.455224E-2,1.14043765E-1,1.6878288E-2,1.01355925E-1,3.156527E-2],"split_indices":[0,0,1,4,0,2,0,0,1,3,0,0,0,0,0],"split_type":[0,0,0,0,0,0,0,0,0,0,0,0,0,0,0],"sum_hessian":[4.490371E1,3.335288E1,1.1550831E1,7.4211698E0,2.5931707E1,1.0196754E1,1.3540761E0,1.5249666E0,5.896203E0,9.182429E0,1.014325E0,4.713398E0,1.1828051E0,7.693591E0,1.4888382E0],"tree_param":{"num_deleted":"0","num_feature":"8","num_nodes":"15","size_leaf_vector":"1"}},{"base_weights":[1.0056623E-2,8.4538037E-1,-4.9100652E-2,8.811186E-2,1.3700515E-2],"categories":[],"categories_nodes":[],"categories_segments":[],"categories_sizes":[],"default_left":[0,0,0,0,0],"id":66,"left_children":[1,3,-1,-1,-1],"loss_changes":[2.4497536E1,4.3473148E-1,0E0,0E0,0E0],"parents":[2147483647,0,0,1,1],"right_children":[2,4,-1,-1,-1],"split_conditions":[1.142472E1,9.93978E0,-4.9100652E-2,8.811186E-2,1.3700515E-2],"split_indices":[2,2,0,0,0],"split_type":[0,0,0,0,0],"sum_hessian":[5.6537815E1,2.0940567E1,3.5597248E1,1.9702688E1,1.2378782E0],"tree_param":{"num_deleted":"0","num_feature":"8","num_nodes":"5","size_leaf_vector":"1"}},{"base_weights":[-2.6041737E-3,2.4656348E-1,-4.5475987E-1,-4.0036017E-1,5.1484156E-1,-6.2494356E-2,-5.3125054E-2,1.2533058E-2,-5.216176E-2,6.177528E-1,-4.1253886E-1,-5.033464E-2,5.242324E-1,-4.880402E-2,5.9373957E-1,-4.4123146E-1,7.1927696E-1,1.6190106E-1,-5.1136393E-2,-3.0045588E-2,6.666539E-1,-3.2498516E-2,7.889202E-2,-5.0522882E-2,5.216385E-3,7.248012E-2,1.2930515E-2,5.1884502E-2,-2.9028682E-2,9.50058E-2,6.614726E-3],"categories":[],"categories_nodes":[],"categories_segments":[],"categories_sizes":[],"default_left":[0,0,0,0,0,0,0,0,0,0,0,0,0,0,0,0,0,0,0,0,0,0,0,0,0,0,0,0,0,0,0],"id":67,"left_children":[1,3,5,7,9,11,-1,13,-1,15,17,-1,19,-1,21,23,25,27,-1,-1,29,-1,-1,-1,-1,-1,-1,-1,-1,-1,-1],"loss_changes":[4.0591297E1,4.052179E1,3.8074818E0,3.443884E0,1.5967449E1,5.9597025E0,0E0,5.1082788E0,0E0,1.6292923E1,1.0503881E0,0E0,1.3674462E0,0E0,1.7115352E0,4.563892E-1,3.494339E-1,6.770216E-1,0E0,0E0,1.432137E0,0E0,0E0,0E0,0E0,0E0,0E0,0E0,0E0,0E0,0E0],"parents":[2147483647,0,0,1,1,2,2,3,3,4,4,5,5,7,7,9,9,10,10,12,12,14,14,15,15,16,16,17,17,20,20],"right_children":[2,4,6,8,10,12,-1,14,-1,16,18,-1,20,-1,22,24,26,28,-1,-1,30,-1,-1,-1,-1,-1,-1,-1,-1,-1,-1],"split_conditions":[1E0,1.4964738E2,4.8862297E1,4.7599937E1,7.073502E0,1E0,-5.3125054E-2,1E0,-5.216176E-2,-7.0148864E0,3.3213375E1,-5.033464E-2,9.93978E0,-4.880402E-2,1.3827486E1,9.21366E-1,6.7896776E0,1.5846931E2,-5.1136393E-2,-3.0045588E-2,1E0,-3.2498516E-2,7.889202E-2,-5.0522882E-2,5.216385E-3,7.248012E-2,1.2930515E-2,5.1884502E-2,-2.9028682E-2,9.50058E-2,6.614726E-3],"split_indices":[4,1,2,2,0,3,0,3,0,0,2,0,2,0,2,6,0,1,0,0,5,0,0,0,0,0,0,0,0,0,0],"split_type":[0,0,0,0,0,0,0,0,0,0,0,0,0,0,0,0,0,0,0,0,0,0,0,0,0,0,0,0,0,0,0],"sum_hessian":[3.5829562E2,2.3129274E2,1.2700289E2,6.7655785E1,1.6363696E2,2.1020565E1,1.0598232E2,1.5562072E1,5.209371E1,1.4759251E2,1.6044443E1,1.2083462E1,8.937104E0,8.447139E0,7.1149335E0,1.2619039E1,1.3497348E2,2.2613943E0,1.3783048E1,1.1527145E0,7.78439E0,1.1301614E0,5.9847717E0,1.1148947E1,1.4700928E0,1.3349496E2,1.4785162E0,1.1814117E0,1.0799825E0,4.8930573E0,2.8913324E0],"tree_param":{"num_deleted":"0","num_feature":"8","num_nodes":"31","size_leaf_vector":"1"}},{"base_weights":[-5.9669507E-3,-5.275679E-1,2.7388775E-1,-5.3391393E-2,-1.800818E-1,6.1982017E-2,7.009123E-1,-3.611539E-2,1.5704064E-2,6.826747E-1,-5.1483375E-1,2.4595098E-1,7.191269E-2,3.1309104E-1,7.2480164E-2,-5.253235E-1,1.48877045E-2,-1.7158946E-2,4.990616E-2,5.9343524E-2,-4.631518E-2,-5.361066E-2,7.8058937E-3],"categories":[],"categories_nodes":[],"categories_segments":[],"categories_sizes":[],"default_left":[0,0,0,0,0,0,0,0,0,0,0,0,0,0,0,0,0,0,0,0,0,0,0],"id":68,"left_children":[1,3,5,-1,7,9,11,-1,-1,13,15,17,-1,19,-1,21,-1,-1,-1,-1,-1,-1,-1],"loss_changes":[5.5563446E1,1.9693375E-1,2.2374573E1,0E0,2.943387E-1,6.0025112E1,5.0322723E-1,0E0,0E0,1.0297394E0,6.8364143E-1,5.801252E-1,0E0,2.455185E0,0E0,6.0027695E-1,0E0,0E0,0E0,0E0,0E0,0E0,0E0],"parents":[2147483647,0,0,1,1,2,2,4,4,5,5,6,6,9,9,10,10,11,11,13,13,15,15],"right_children":[2,4,6,-1,8,10,12,-1,-1,14,16,18,-1,20,-1,22,-1,-1,-1,-1,-1,-1,-1],"split_conditions":[1.523031E2,1.4964738E2,7.073502E0,-5.3391393E-2,2.7577817E2,-6.873648E0,2.8697197E1,-3.611539E-2,1.5704064E-2,4.8862297E1,2.992944E2,2.5093642E2,7.191269E-2,1E0,7.2480164E-2,6.7896776E0,1.48877045E-2,-1.7158946E-2,4.990616E-2,5.9343524E-2,-4.631518E-2,-5.361066E-2,7.8058937E-3],"split_indices":[1,1,0,0,2,0,2,0,0,2,1,1,0,3,0,0,0,0,0,0,0,0,0],"split_type":[0,0,0,0,0,0,0,0,0,0,0,0,0,0,0,0,0,0,0,0,0,0,0],"sum_hessian":[3.7865338E2,1.3191025E2,2.4674315E2,1.2901756E2,2.8926847E0,1.656744E2,8.106875E1,1.8355222E0,1.0571625E0,7.971363E1,8.596076E1,3.6789665E0,7.7389786E1,9.019221E0,7.0694405E1,8.482858E1,1.1321847E0,1.5100353E0,2.1689312E0,6.7991686E0,2.2200525E0,8.344876E1,1.3798192E0],"tree_param":{"num_deleted":"0","num_feature":"8","num_nodes":"23","size_leaf_vector":"1"}},{"base_weights":[2.7576683E-4,4.201617E-1,-3.4758213E-1,-5.8923382E-2,4.586421E-1,-6.348549E-2,-2.0752922E-2,4.9307662E-1,-7.6709986E-2,1.5098615E-1,-6.2006503E-2,1.7612162E-1,5.475767E-1,5.1862534E-2,-5.789279E-1,-5.3403264E-1,4.9991068E-1,5.440972E-2,-6.0017426E-2,-4.6831737E-3,5.7082232E-2,-6.4325176E-2,-1.2306104E-2,-1.0859235E-2,-6.0539126E-2,-5.100997E-2,5.4867633E-2],"categories":[],"categories_nodes":[],"categories_segments":[],"categories_sizes":[],"default_left":[0,0,0,0,0,0,0,0,0,0,0,0,0,0,0,0,0,0,0,0,0,0,0,0,0,0,0],"id":69,"left_children":[1,3,5,-1,7,-1,9,11,13,15,-1,17,19,-1,21,23,25,-1,-1,-1,-1,-1,-1,-1,-1,-1,-1],"loss_changes":[8.3942474E1,1.0384525E1,2.9497528E1,0E0,4.672203E0,0E0,1.5333559E1,3.9860725E0,5.1014657E0,2.7967554E1,0E0,1.0653002E1,2.806614E0,0E0,1.9011068E-1,1.1362772E0,4.0871353E0,0E0,0E0,0E0,0E0,0E0,0E0,0E0,0E0,0E0,0E0],"parents":[2147483647,0,0,1,1,2,2,4,4,6,6,7,7,8,8,9,9,11,11,12,12,14,14,15,15,16,16],"right_children":[2,4,6,-1,8,-1,10,12,14,16,-1,18,20,-1,22,24,26,-1,-1,-1,-1,-1,-1,-1,-1,-1,-1],"split_conditions":[1.4810162E2,9.93978E0,1E0,-5.8923382E-2,1.4699094E1,-6.348549E-2,6.9298015E0,5.108012E1,1E0,-6.873648E0,-6.2006503E-2,1E0,-1.4963657E1,5.1862534E-2,2.587331E2,4.8862297E1,9.93978E0,5.440972E-2,-6.0017426E-2,-4.6831737E-3,5.7082232E-2,-6.4325176E-2,-1.2306104E-2,-1.0859235E-2,-6.0539126E-2,-5.100997E-2,5.4867633E-2],"split_indices":[1,2,4,0,0,0,0,2,4,0,0,3,0,0,2,2,2,0,0,0,0,0,0,0,0,0,0],"split_type":[0,0,0,0,0,0,0,0,0,0,0,0,0,0,0,0,0,0,0,0,0,0,0,0,0,0,0],"sum_hessian":[5.7270996E2,2.5939563E2,3.1331436E2,9.0000105E0,2.503956E2,1.6624643E2,1.4706793E2,2.3533737E2,1.505823E1,1.148924E2,3.2175537E1,3.51497E1,2.0018767E2,6.875389E0,8.182841E0,3.859367E1,7.629873E1,2.4049158E1,1.110054E1,7.4959307E0,1.9269174E2,6.810773E0,1.3720685E0,5.9056907E0,3.2687977E1,3.0784826E0,7.3220245E1],"tree_param":{"num_deleted":"0","num_feature":"8","num_nodes":"27","size_leaf_vector":"1"}},{"base_weights":[7.485999E-2],"categories":[],"categories_nodes":[],"categories_segments":[],"categories_sizes":[],"default_left":[0],"id":70,"left_children":[-1],"loss_changes":[0E0],"parents":[2147483647],"right_children":[-1],"split_conditions":[7.4859993E-3],"split_indices":[0],"split_type":[0],"sum_hessian":[1.6087482E0],"tree_param":{"num_deleted":"0","num_feature":"8","num_nodes":"1","size_leaf_vector":"1"}},{"base_weights":[5.1291708E-2,3.5706416E-1,-4.7500763E-2,-4.4660684E-2,6.709446E-1,7.627657E-1,-3.3336602E-2,1.1978104E-1,5.323321E-1,-4.091772E-2,9.7637996E-2],"categories":[],"categories_nodes":[],"categories_segments":[],"categories_sizes":[],"default_left":[0,0,0,0,0,0,0,0,0,0,0],"id":71,"left_children":[1,3,-1,-1,5,7,-1,-1,9,-1,-1],"loss_changes":[7.2882776E0,7.501663E0,0E0,0E0,2.184492E0,1.3154125E0,0E0,0E0,6.476617E0,0E0,0E0],"parents":[2147483647,0,0,1,1,4,4,5,5,8,8],"right_children":[2,4,-1,-1,6,8,-1,-1,10,-1,-1],"split_conditions":[1.4964738E2,1E0,-4.7500763E-2,-4.4660684E-2,9.274648E-1,-1.4963657E1,-3.3336602E-2,1.1978104E-1,1.4699094E1,-4.091772E-2,9.7637996E-2],"split_indices":[1,4,0,0,6,0,0,0,0,0,0],"split_type":[0,0,0,0,0,0,0,0,0,0,0],"sum_hessian":[4.3235165E1,2.7550356E1,1.568481E1,7.619149E0,1.9931208E1,1.8481964E1,1.4492432E0,4.946049E0,1.3535914E1,4.3632007E0,9.172714E0],"tree_param":{"num_deleted":"0","num_feature":"8","num_nodes":"11","size_leaf_vector":"1"}},{"base_weights":[1.3288316E-2,7.9802084E-1,-4.8947755E-2,8.320328E-2,1.3400726E-2],"categories":[],"categories_nodes":[],"categories_segments":[],"categories_sizes":[],"default_left":[0,0,0,0,0],"id":72,"left_children":[1,3,-1,-1,-1],"loss_changes":[2.1836845E1,3.7647915E-1,0E0,0E0,0E0],"parents":[2147483647,0,0,1,1],"right_children":[2,4,-1,-1,-1],"split_conditions":[1.142472E1,9.93978E0,-4.8947755E-2,8.320328E-2,1.3400726E-2],"split_indices":[2,2,0,0,0],"split_type":[0,0,0,0,0],"sum_hessian":[5.3358006E1,2.0606884E1,3.275112E1,1.936209E1,1.2447938E0],"tree_param":{"num_deleted":"0","num_feature":"8","num_nodes":"5","size_leaf_vector":"1"}},{"base_weights":[-2.664793E-3,2.3776664E-1,-4.4770172E-1,-3.9209855E-1,4.935326E-1,-5.5205267E-2,-5.2761305E-2,1.1767439E-2,-5.1787775E-2,5.916593E-1,-4.0273237E-1,-4.9712457E-2,4.926417E-1,-4.8053287E-2,5.325003E-1,-4.316081E-1,6.882227E-1,1.5821432E-1,-5.0522268E-2,-2.9113352E-2,6.222787E-1,8.018013E-2,-1.5558213E-2,-4.987084E-2,6.288764E-3,6.939045E-2,1.1430779E-2,4.927753E-2,-2.827455E-2,8.8814996E-2,6.031396E-3],"categories":[],"categories_nodes":[],"categories_segments":[],"categories_sizes":[],"default_left":[0,0,0,0,0,0,0,0,0,0,0,0,0,0,0,0,0,0,0,0,0,0,0,0,0,0,0,0,0,0,0],"id":73,"left_children":[1,3,5,7,9,11,-1,13,-1,15,17,-1,19,-1,21,23,25,27,-1,-1,29,-1,-1,-1,-1,-1,-1,-1,-1,-1,-1],"loss_changes":[3.6167614E1,3.5548107E1,3.689413E0,3.2539244E0,1.4004162E1,5.3706684E0,0E0,4.398933E0,0E0,1.4277004E1,1.0021439E0,0E0,1.1926773E0,0E0,1.6679683E0,4.565649E-1,3.435135E-1,6.172564E-1,0E0,0E0,1.2703607E0,0E0,0E0,0E0,0E0,0E0,0E0,0E0,0E0,0E0,0E0],"parents":[2147483647,0,0,1,1,2,2,3,3,4,4,5,5,7,7,9,9,10,10,12,12,14,14,15,15,16,16,17,17,20,20],"right_children":[2,4,6,8,10,12,-1,14,-1,16,18,-1,20,-1,22,24,26,28,-1,-1,30,-1,-1,-1,-1,-1,-1,-1,-1,-1,-1],"split_conditions":[1E0,1.4964738E2,4.8862297E1,4.7599937E1,7.073502E0,1E0,-5.2761305E-2,1E0,-5.1787775E-2,-7.0148864E0,3.3213375E1,-4.9712457E-2,9.93978E0,-4.8053287E-2,1E0,2E0,6.7896776E0,1.5846931E2,-5.0522268E-2,-2.9113352E-2,1E0,8.018013E-2,-1.5558213E-2,-4.987084E-2,6.288764E-3,6.939045E-2,1.1430779E-2,4.927753E-2,-2.827455E-2,8.8814996E-2,6.031396E-3],"split_indices":[4,1,2,2,0,3,0,3,0,0,2,0,2,0,5,3,0,1,0,0,5,0,0,0,0,0,0,0,0,0,0],"split_type":[0,0,0,0,0,0,0,0,0,0,0,0,0,0,0,0,0,0,0,0,0,0,0,0,0,0,0,0,0,0,0],"sum_hessian":[3.360175E2,2.1846005E2,1.1755742E2,6.2936264E1,1.5552379E2,2.0171734E1,9.738569E1,1.5161251E1,4.7775013E1,1.40483E2,1.5040785E1,1.1216533E1,8.955201E0,7.8330727E0,7.328179E0,1.1814705E1,1.286683E2,2.2395658E0,1.2801219E1,1.0941707E0,7.86103E0,5.148065E0,2.1801136E0,1.0395566E1,1.4191384E0,1.2719994E2,1.4683617E0,1.2065996E0,1.0329664E0,4.9423275E0,2.9187026E0],"tree_param":{"num_deleted":"0","num_feature":"8","num_nodes":"31","size_leaf_vector":"1"}},{"base_weights":[-5.808564E-3,-5.2337486E-1,2.6486325E-1,-5.3044915E-2,-1.7097045E-1,6.018203E-2,6.712093E-1,1.7300254E-2,-3.502988E-2,6.627189E-1,-4.9859074E-1,2.2984923E-1,6.895773E-2,2.4851921E-1,6.900701E-2,-5.0956964E-1,1.5654031E-2,5.6409348E-2,-8.603987E-2,5.3145308E-2,-3.8246613E-2,-5.207036E-2,7.315811E-3,-4.024641E-2,2.5597582E-2],"categories":[],"categories_nodes":[],"categories_segments":[],"categories_sizes":[],"default_left":[0,0,0,0,0,0,0,0,0,0,0,0,0,0,0,0,0,0,0,0,0,0,0,0,0],"id":74,"left_children":[1,3,5,-1,7,9,11,-1,-1,13,15,17,-1,19,-1,21,-1,-1,23,-1,-1,-1,-1,-1,-1],"loss_changes":[4.9910942E1,2.1429443E-1,1.9417494E1,0E0,3.0012882E-1,5.3081535E1,4.7602844E-1,0E0,0E0,6.874237E-1,6.685753E-1,5.370884E-1,0E0,1.3206989E0,0E0,5.6199455E-1,0E0,0E0,4.5436972E-1,0E0,0E0,0E0,0E0,0E0,0E0],"parents":[2147483647,0,0,1,1,2,2,4,4,5,5,6,6,9,9,10,10,11,11,13,13,15,15,18,18],"right_children":[2,4,6,-1,8,10,12,-1,-1,14,16,18,-1,20,-1,22,-1,-1,24,-1,-1,-1,-1,-1,-1],"split_conditions":[1.523031E2,3.9466486E2,7.073502E0,-5.3044915E-2,5.861822E-1,-7.0148864E0,2.8697197E1,1.7300254E-2,-3.502988E-2,2.708222E1,2.992944E2,7.997392E0,6.895773E-2,1E0,6.900701E-2,6.7896776E0,1.5654031E-2,5.6409348E-2,1E0,5.3145308E-2,-3.8246613E-2,-5.207036E-2,7.315811E-3,-4.024641E-2,2.5597582E-2],"split_indices":[1,2,0,0,6,0,2,0,0,2,1,0,0,3,0,0,0,0,4,0,0,0,0,0,0],"split_type":[0,0,0,0,0,0,0,0,0,0,0,0,0,0,0,0,0,0,0,0,0,0,0,0,0],"sum_hessian":[3.542866E2,1.2133731E2,2.329493E2,1.184542E2,2.883112E0,1.5567972E2,7.726958E1,1.000092E0,1.8830198E0,7.481695E1,8.086277E1,3.6271522E0,7.3642426E1,5.2591953E0,6.955775E1,7.9748505E1,1.1142628E0,1.3805991E0,2.2465532E0,3.739945E0,1.5192504E0,7.835779E1,1.3907185E0,1.0751293E0,1.1714239E0],"tree_param":{"num_deleted":"0","num_feature":"8","num_nodes":"25","size_leaf_vector":"1"}},{"base_weights":[-5.391417E-4,4.0938085E-1,-3.3918962E-1,-5.7069976E-2,4.4724035E-1,-6.187355E-1,-2.1195753E-2,4.7947836E-1,-1.1127304E-1,-2.659016E-2,-6.2176835E-2,1.4644179E-1,-6.0328692E-2,